<?xml version="1.0"?>
<opencv_storage>
<cascade>
  <stageType>BOOST</stageType>
  <featureType>LBP</featureType>
  <height>20</height>
  <width>50</width>
  <stageParams>
    <boostType>GAB</boostType>
    <minHitRate>9.9500000476837158e-01</minHitRate>
    <maxFalseAlarm>5.0000000000000000e-01</maxFalseAlarm>
    <weightTrimRate>9.4999999999999996e-01</weightTrimRate>
    <maxDepth>1</maxDepth>
    <maxWeakCount>100</maxWeakCount></stageParams>
  <featureParams>
    <maxCatCount>256</maxCatCount>
    <featSize>1</featSize></featureParams>
  <stageNum>20</stageNum>
  <stages>
    <!-- stage 0 -->
    <_>
      <maxWeakCount>2</maxWeakCount>
      <stageThreshold>-4.1608061641454697e-02</stageThreshold>
      <weakClassifiers>
        <_>
          <internalNodes>
            0 -1 28 -2097157 -1073840132 2147286975 2113683453 -2 -1
            -536346369 2138914271</internalNodes>
          <leafValues>
            -7.9723501205444336e-01 9.4285714626312256e-01</leafValues></_>
        <_>
          <internalNodes>
            0 -1 20 -796880676 -620756976 83890313 -805240575
            -2147483512 -2146435072 1207992459 1191207170</internalNodes>
          <leafValues>
            -9.3788439035415649e-01 7.5562697649002075e-01</leafValues></_></weakClassifiers></_>
    <!-- stage 1 -->
    <_>
      <maxWeakCount>2</maxWeakCount>
      <stageThreshold>-5.5433128029108047e-02</stageThreshold>
      <weakClassifiers>
        <_>
          <internalNodes>
            0 -1 6 -1073745921 -1159170 -1 -184580 2147442687 -36865
            2147442687 -71078178</internalNodes>
          <leafValues>
            -7.7168947458267212e-01 9.3063580989837646e-01</leafValues></_>
        <_>
          <internalNodes>
            0 -1 22 -532643702 1996488704 1 -805240831 268437640
            16777216 -2147440221 1904706562</internalNodes>
          <leafValues>
            -9.1204112768173218e-01 7.1625638008117676e-01</leafValues></_></weakClassifiers></_>
    <!-- stage 2 -->
    <_>
      <maxWeakCount>3</maxWeakCount>
      <stageThreshold>-7.8938150405883789e-01</stageThreshold>
      <weakClassifiers>
        <_>
          <internalNodes>
            0 -1 14 -1315860065 285245520 149 -753843968 -2146959208
            -2105540608 -2013263730 -351711223</internalNodes>
          <leafValues>
            -7.7551019191741943e-01 7.3469388484954834e-01</leafValues></_>
        <_>
          <internalNodes>
            0 -1 32 -217462338 1073823744 1081601 83951632 269001355
            -2147483640 104456 1065592075</internalNodes>
          <leafValues>
            -7.9725742340087891e-01 7.4091494083404541e-01</leafValues></_>
        <_>
          <internalNodes>
            0 -1 42 -1996379751 -2063433582 32771 -788463615 25710824
            176848896 8454824 -1624534519</internalNodes>
          <leafValues>
            -7.4520152807235718e-01 7.8338611125946045e-01</leafValues></_></weakClassifiers></_>
    <!-- stage 3 -->
    <_>
      <maxWeakCount>2</maxWeakCount>
      <stageThreshold>-8.0117389559745789e-02</stageThreshold>
      <weakClassifiers>
        <_>
          <internalNodes>
            0 -1 14 1342210275 285245600 3 1929461760 947912776
            -2145386496 -2130703969 -922204149</internalNodes>
          <leafValues>
            -8.3333331346511841e-01 7.5999999046325684e-01</leafValues></_>
        <_>
          <internalNodes>
            0 -1 39 -520028140 -805240832 268435473 -905903979
            -2147450711 -2004877184 32899 185133218</internalNodes>
          <leafValues>
            -8.4011739492416382e-01 7.6182609796524048e-01</leafValues></_></weakClassifiers></_>
    <!-- stage 4 -->
    <_>
      <maxWeakCount>2</maxWeakCount>
      <stageThreshold>-4.7648202627897263e-02</stageThreshold>
      <weakClassifiers>
        <_>
          <internalNodes>
            0 -1 9 1811083007 -201932801 -1 1811152887 -1342242817
            -8388609 -197634 -8915209</internalNodes>
          <leafValues>
            -7.3094171285629272e-01 9.1715973615646362e-01</leafValues></_>
        <_>
          <internalNodes>
            0 -1 17 16978006 1426063360 16777217 1342177536 -1568669679
            -2113339391 8527930 990392355</internalNodes>
          <leafValues>
            -9.6480798721313477e-01 7.1107465028762817e-01</leafValues></_></weakClassifiers></_>
    <!-- stage 5 -->
    <_>
      <maxWeakCount>3</maxWeakCount>
      <stageThreshold>-7.0379489660263062e-01</stageThreshold>
      <weakClassifiers>
        <_>
          <internalNodes>
            0 -1 5 -532742163 -1659010 -1 -184402 -32769 -2013265858
            -117430133 -1147041</internalNodes>
          <leafValues>
            -7.4193549156188965e-01 8.7428569793701172e-01</leafValues></_>
        <_>
          <internalNodes>
            0 -1 44 -16456 -1360330822 -1073807365 -268435457 1073717180
            1040121855 -402653277 -1241776129</internalNodes>
          <leafValues>
            -6.9472682476043701e-01 8.3788096904754639e-01</leafValues></_>
        <_>
          <internalNodes>
            0 -1 1 1090617735 -1828712448 327825 -1853783806 -2139092976
            411172864 -1608742833 2135787561</internalNodes>
          <leafValues>
            -7.9974037408828735e-01 7.8698718547821045e-01</leafValues></_></weakClassifiers></_>
    <!-- stage 6 -->
    <_>
      <maxWeakCount>2</maxWeakCount>
      <stageThreshold>1.8520073965191841e-02</stageThreshold>
      <weakClassifiers>
        <_>
          <internalNodes>
            0 -1 35 22102349 577835024 268439561 260046849 -2147310976
            -2012741632 268435482 -1389769597</internalNodes>
          <leafValues>
            -8.2914572954177856e-01 8.1347149610519409e-01</leafValues></_>
        <_>
          <internalNodes>
            0 -1 15 2147467007 -1073872898 1073741294 -1073758466
            2113896046 2147483647 -131083 -270663682</internalNodes>
          <leafValues>
            -7.5004714727401733e-01 8.4766578674316406e-01</leafValues></_></weakClassifiers></_>
    <!-- stage 7 -->
    <_>
      <maxWeakCount>2</maxWeakCount>
      <stageThreshold>9.8271623253822327e-02</stageThreshold>
      <weakClassifiers>
        <_>
          <internalNodes>
            0 -1 0 -65569 -1074123074 -1 -16945410 -40961 2130669567
            -8321 -45580</internalNodes>
          <leafValues>
            -7.6036864519119263e-01 8.9714282751083374e-01</leafValues></_>
        <_>
          <internalNodes>
            0 -1 41 -788496226 1052689 268435712 -981397503 1224739274
            -1392508923 32898 -1996267002</internalNodes>
          <leafValues>
            -7.9887121915817261e-01 9.0417343378067017e-01</leafValues></_></weakClassifiers></_>
    <!-- stage 8 -->
    <_>
      <maxWeakCount>2</maxWeakCount>
      <stageThreshold>2.1688144654035568e-02</stageThreshold>
      <weakClassifiers>
        <_>
          <internalNodes>
            0 -1 19 -1073475474 1161887745 -16372 -1073742593
            -1073102615 -1878392832 -2147483505 -2146893686</internalNodes>
          <leafValues>
            -7.8301888704299927e-01 8.7777775526046753e-01</leafValues></_>
        <_>
          <internalNodes>
            0 -1 31 -1072594929 -1044365312 51 1481130112 1073774592
            1078099976 167807576 1753547398</internalNodes>
          <leafValues>
            -8.5608965158462524e-01 8.2258659601211548e-01</leafValues></_></weakClassifiers></_>
    <!-- stage 9 -->
    <_>
      <maxWeakCount>3</maxWeakCount>
      <stageThreshold>-9.4312316179275513e-01</stageThreshold>
      <weakClassifiers>
        <_>
          <internalNodes>
            0 -1 11 -2080073567 50331648 269488136 -1659813859 302547081
            -2139094912 -2147483509 -1794965485</internalNodes>
          <leafValues>
            -8.2105261087417603e-01 7.3267328739166260e-01</leafValues></_>
        <_>
          <internalNodes>
            0 -1 8 1346373043 1489240321 16 -788496358 32897 0 33587263
            2101725252</internalNodes>
          <leafValues>
            -7.9598188400268555e-01 7.0252609252929688e-01</leafValues></_>
        <_>
          <internalNodes>
            0 -1 37 -1056898800 285212674 268435476 1367932995
            -2113883997 293601281 4239 1090773120</internalNodes>
          <leafValues>
            -8.2459658384323120e-01 7.5109434127807617e-01</leafValues></_></weakClassifiers></_>
    <!-- stage 10 -->
    <_>
      <maxWeakCount>3</maxWeakCount>
      <stageThreshold>-7.6848638057708740e-01</stageThreshold>
      <weakClassifiers>
        <_>
          <internalNodes>
            0 -1 10 -1409876225 -1343815682 -269025537 -65553 -524297
            2138537975 -143130625 -42467465</internalNodes>
          <leafValues>
            -7.5355452299118042e-01 8.3425414562225342e-01</leafValues></_>
        <_>
          <internalNodes>
            0 -1 13 -788528693 1543569408 16777491 268500993 -2147479544
            -2011168744 32904 1660944392</internalNodes>
          <leafValues>
            -7.9434752464294434e-01 7.5673234462738037e-01</leafValues></_>
        <_>
          <internalNodes>
            0 -1 38 -1878949743 520112193 67125264 1111507008
            -2147442048 0 8882 2090041478</internalNodes>
          <leafValues>
            -7.6384079456329346e-01 7.7941560745239258e-01</leafValues></_></weakClassifiers></_>
    <!-- stage 11 -->
    <_>
      <maxWeakCount>2</maxWeakCount>
      <stageThreshold>-3.7723023444414139e-02</stageThreshold>
      <weakClassifiers>
        <_>
          <internalNodes>
            0 -1 12 -1079836929 -1367932929 -1342242817 -8521745 -1
            -524297 -524289 -294125705</internalNodes>
          <leafValues>
            -7.3205739259719849e-01 7.9234975576400757e-01</leafValues></_>
        <_>
          <internalNodes>
            0 -1 30 151208276 -654278656 33041 -754974719 142747705
            -1451229182 -2130671429 -871751477</internalNodes>
          <leafValues>
            -8.3007276058197021e-01 6.9870781898498535e-01</leafValues></_></weakClassifiers></_>
    <!-- stage 12 -->
    <_>
      <maxWeakCount>2</maxWeakCount>
      <stageThreshold>-5.7532187551259995e-02</stageThreshold>
      <weakClassifiers>
        <_>
          <internalNodes>
            0 -1 24 -549532 2146828114 -67108863 2105343715 -268435462
            -88 -4421382 -1487995086</internalNodes>
          <leafValues>
            -7.1428573131561279e-01 7.8021979331970215e-01</leafValues></_>
        <_>
          <internalNodes>
            0 -1 29 1090585043 1392574464 -2130706229 16842753
            -2147319122 1207992321 -2147319669 427924488</internalNodes>
          <leafValues>
            -8.3775198459625244e-01 6.9400089979171753e-01</leafValues></_></weakClassifiers></_>
    <!-- stage 13 -->
    <_>
      <maxWeakCount>2</maxWeakCount>
      <stageThreshold>-3.6162178963422775e-02</stageThreshold>
      <weakClassifiers>
        <_>
          <internalNodes>
            0 -1 21 268501249 1224802304 536871173 -788398040 160
            -1870657526 134250624 1602396714</internalNodes>
          <leafValues>
            -7.3913043737411499e-01 7.8378379344940186e-01</leafValues></_>
        <_>
          <internalNodes>
            0 -1 43 285310996 1359052928 1090584857 293732353 268763395
            167804928 295256 -1022848317</internalNodes>
          <leafValues>
            -8.1674557924270630e-01 7.0296823978424072e-01</leafValues></_></weakClassifiers></_>
    <!-- stage 14 -->
    <_>
      <maxWeakCount>2</maxWeakCount>
      <stageThreshold>-2.2469019889831543e-01</stageThreshold>
      <weakClassifiers>
        <_>
          <internalNodes>
            0 -1 3 -519568805 1409290257 16 -1055916016 525023
            -1073741815 8421418 -1000241150</internalNodes>
          <leafValues>
            -7.9120880365371704e-01 6.4761906862258911e-01</leafValues></_>
        <_>
          <internalNodes>
            0 -1 33 25165840 -1073725247 114705 -1858011008 2185
            -2138439552 -1602223944 -1457880368</internalNodes>
          <leafValues>
            -8.7230926752090454e-01 6.1711961030960083e-01</leafValues></_></weakClassifiers></_>
    <!-- stage 15 -->
    <_>
      <maxWeakCount>3</maxWeakCount>
      <stageThreshold>-6.5785050392150879e-01</stageThreshold>
      <weakClassifiers>
        <_>
          <internalNodes>
            0 -1 36 -2121865 -570425347 -18 -16912385 -257 -33554433
            -536870913 -855814924</internalNodes>
          <leafValues>
            -7.0232558250427246e-01 8.0790960788726807e-01</leafValues></_>
        <_>
          <internalNodes>
            0 -1 34 -939405310 1342244864 16777240 1195573273 32898
            -1744830464 33155 92373066</internalNodes>
          <leafValues>
            -7.0072519779205322e-01 7.5960010290145874e-01</leafValues></_>
        <_>
          <internalNodes>
            0 -1 27 1806822844 2079850480 -67174401 -169558043
            1341652988 -77594766 -524434 1970010091</internalNodes>
          <leafValues>
            -7.1512508392333984e-01 7.6423466205596924e-01</leafValues></_></weakClassifiers></_>
    <!-- stage 16 -->
    <_>
      <maxWeakCount>3</maxWeakCount>
      <stageThreshold>-7.0820081233978271e-01</stageThreshold>
      <weakClassifiers>
        <_>
          <internalNodes>
            0 -1 7 -69633 -268959826 -1 1878917030 -137 -33685673 -32897
            -9502858</internalNodes>
          <leafValues>
            -7.7033489942550659e-01 8.3606559038162231e-01</leafValues></_>
        <_>
          <internalNodes>
            0 -1 4 -2130329599 -804191999 4117 -1073741504 50399242
            -939524096 491687 -1070888925</internalNodes>
          <leafValues>
            -7.0897203683853149e-01 8.5375666618347168e-01</leafValues></_>
        <_>
          <internalNodes>
            0 -1 18 4243464 1233354784 16644 1619034113 32896
            -1878491136 184550032 -754876280</internalNodes>
          <leafValues>
            -7.7191406488418579e-01 7.7110612392425537e-01</leafValues></_></weakClassifiers></_>
    <!-- stage 17 -->
    <_>
      <maxWeakCount>3</maxWeakCount>
      <stageThreshold>-8.6148911714553833e-01</stageThreshold>
      <weakClassifiers>
        <_>
          <internalNodes>
            0 -1 2 1090576626 -1336442879 -2147434189 843055120 134148
            -2012741632 -2013232918 -2096496575</internalNodes>
          <leafValues>
            -7.7653628587722778e-01 6.1502349376678467e-01</leafValues></_>
        <_>
          <internalNodes>
            0 -1 40 1082216793 1107296257 -2113929033 -788463616
            -1073573776 -2147450880 -2147385176 -939360181</internalNodes>
          <leafValues>
            -7.2798335552215576e-01 7.2601151466369629e-01</leafValues></_>
        <_>
          <internalNodes>
            0 -1 45 -1056927744 419451264 16777216 1166082307 32973
            -1576861696 134250880 -71138941</internalNodes>
          <leafValues>
            -8.0329674482345581e-01 6.4303052425384521e-01</leafValues></_></weakClassifiers></_>
    <!-- stage 18 -->
    <_>
      <maxWeakCount>3</maxWeakCount>
      <stageThreshold>-6.0211563110351562e-01</stageThreshold>
      <weakClassifiers>
        <_>
          <internalNodes>
            0 -1 2 -805310470 303288320 -25145039 1996423166 2147446132
            -2 -1879114498 -747962377</internalNodes>
          <leafValues>
            -6.8750000000000000e-01 8.6904764175415039e-01</leafValues></_>
        <_>
          <internalNodes>
            0 -1 26 -795721584 -796557311 606228 1107362307 -1878847351
            131072 -2095558263 -376747573</internalNodes>
          <leafValues>
            -7.2295886278152466e-01 8.0058664083480835e-01</leafValues></_>
        <_>
          <internalNodes>
            0 -1 25 1610731603 1217363969 1 -2130378748 32928
            -1475868672 67109530 -586645376</internalNodes>
          <leafValues>
            -6.8403542041778564e-01 8.0834323167800903e-01</leafValues></_></weakClassifiers></_>
    <!-- stage 19 -->
    <_>
      <maxWeakCount>3</maxWeakCount>
      <stageThreshold>-7.7294796705245972e-01</stageThreshold>
      <weakClassifiers>
        <_>
          <internalNodes>
            0 -1 16 73 -1862270848 540800 -2147483648 276824066
            268468352 -805271416 1342799874</internalNodes>
          <leafValues>
            -7.9342722892761230e-01 8.9944136142730713e-01</leafValues></_>
        <_>
          <internalNodes>
            0 -1 46 1073844225 -2130624496 1 -1862270976 524352
            -2147483648 32932 10485762</internalNodes>
          <leafValues>
            -8.2978594303131104e-01 8.2527136802673340e-01</leafValues></_>
        <_>
          <internalNodes>
            0 -1 23 1073778714 335876112 0 33619968 -1056866302 17039360
            134217984 -1995896822</internalNodes>
          <leafValues>
            -8.0479210615158081e-01 8.8554406166076660e-01</leafValues></_></weakClassifiers></_></stages>
  <features>
    <_>
      <rect>
        0 5 10 5</rect></_>
    <_>
      <rect>
        0 6 9 3</rect></_>
    <_>
      <rect>
        0 8 6 4</rect></_>
    <_>
      <rect>
        1 0 8 5</rect></_>
    <_>
      <rect>
        1 0 9 5</rect></_>
    <_>
      <rect>
        1 7 10 3</rect></_>
    <_>
      <rect>
        1 7 10 4</rect></_>
    <_>
      <rect>
        1 8 9 2</rect></_>
    <_>
      <rect>
        2 0 6 5</rect></_>
    <_>
      <rect>
        2 1 11 4</rect></_>
    <_>
      <rect>
        2 6 10 2</rect></_>
    <_>
      <rect>
        3 2 9 4</rect></_>
    <_>
      <rect>
        4 4 9 3</rect></_>
    <_>
      <rect>
        5 2 12 2</rect></_>
    <_>
      <rect>
        5 7 8 3</rect></_>
    <_>
      <rect>
        5 8 6 4</rect></_>
    <_>
      <rect>
        6 6 5 2</rect></_>
    <_>
      <rect>
        8 2 13 6</rect></_>
    <_>
      <rect>
        8 11 14 3</rect></_>
    <_>
      <rect>
        9 3 12 3</rect></_>
    <_>
      <rect>
        11 6 6 3</rect></_>
    <_>
      <rect>
        12 3 9 2</rect></_>
    <_>
      <rect>
        12 3 9 4</rect></_>
    <_>
      <rect>
        13 3 9 3</rect></_>
    <_>
      <rect>
        13 5 4 3</rect></_>
    <_>
      <rect>
        13 13 12 2</rect></_>
    <_>
      <rect>
        14 7 3 3</rect></_>
    <_>
      <rect>
        15 5 4 2</rect></_>
    <_>
      <rect>
        15 6 6 4</rect></_>
    <_>
      <rect>
        15 10 7 3</rect></_>
    <_>
      <rect>
        17 1 10 4</rect></_>
    <_>
      <rect>
        17 7 5 4</rect></_>
    <_>
      <rect>
        19 3 4 5</rect></_>
    <_>
      <rect>
        19 12 2 1</rect></_>
    <_>
      <rect>
        22 14 8 2</rect></_>
    <_>
      <rect>
        24 3 8 5</rect></_>
    <_>
      <rect>
        25 0 7 5</rect></_>
    <_>
      <rect>
        25 1 7 5</rect></_>
    <_>
      <rect>
        25 8 8 4</rect></_>
    <_>
      <rect>
        26 3 8 4</rect></_>
    <_>
      <rect>
        26 7 6 2</rect></_>
    <_>
      <rect>
        26 8 7 4</rect></_>
    <_>
      <rect>
        27 6 6 4</rect></_>
    <_>
      <rect>
        28 8 4 4</rect></_>
    <_>
      <rect>
        29 6 7 4</rect></_>
    <_>
      <rect>
        32 11 4 2</rect></_>
    <_>
      <rect>
        35 3 4 2</rect></_></features></cascade>
</opencv_storage>
