<?xml version="1.0"?>
<opencv_storage>
<cascade>
  <stageType>BOOST</stageType>
  <featureType>LBP</featureType>
  <height>20</height>
  <width>50</width>
  <stageParams>
    <boostType>GAB</boostType>
    <minHitRate>9.9500000476837158e-01</minHitRate>
    <maxFalseAlarm>5.0000000000000000e-01</maxFalseAlarm>
    <weightTrimRate>9.4999999999999996e-01</weightTrimRate>
    <maxDepth>1</maxDepth>
    <maxWeakCount>100</maxWeakCount></stageParams>
  <featureParams>
    <maxCatCount>256</maxCatCount>
    <featSize>1</featSize></featureParams>
  <stageNum>20</stageNum>
  <stages>
    <!-- stage 0 -->
    <_>
      <maxWeakCount>3</maxWeakCount>
      <stageThreshold>-7.2640097141265869e-01</stageThreshold>
      <weakClassifiers>
        <_>
          <internalNodes>
            0 -1 17 -65537 -18 1870594044 2147286017 2147483647 -4
            -2130673409 1795688495</internalNodes>
          <leafValues>
            -7.2289156913757324e-01 8.9062500000000000e-01</leafValues></_>
        <_>
          <internalNodes>
            0 -1 14 -17891330 2137423658 -65681 2139090734 -32777
            -9076878 -17 2138013487</internalNodes>
          <leafValues>
            -7.0050650835037231e-01 8.1960213184356689e-01</leafValues></_>
        <_>
          <internalNodes>
            0 -1 49 1242285272 -1795092479 1 -1861155839 557224
            1074266115 32978 185272458</internalNodes>
          <leafValues>
            -7.6974099874496460e-01 6.9699704647064209e-01</leafValues></_></weakClassifiers></_>
    <!-- stage 1 -->
    <_>
      <maxWeakCount>3</maxWeakCount>
      <stageThreshold>-7.6061671972274780e-01</stageThreshold>
      <weakClassifiers>
        <_>
          <internalNodes>
            0 -1 13 2147483646 -4259841 2147385342 2130640871 -33026
            -8388609 -402667393 1266647035</internalNodes>
          <leafValues>
            -7.8205126523971558e-01 8.4057968854904175e-01</leafValues></_>
        <_>
          <internalNodes>
            0 -1 28 -1002405704 288424064 81 1426128917 8410 -2139094912
            32954 -267681617</internalNodes>
          <leafValues>
            -6.7921853065490723e-01 8.2012957334518433e-01</leafValues></_>
        <_>
          <internalNodes>
            0 -1 21 -2129559296 -779087872 1090519104 -584515584 8388865
            536870912 1049034 -1476198269</internalNodes>
          <leafValues>
            -7.9869502782821655e-01 7.1987271308898926e-01</leafValues></_></weakClassifiers></_>
    <!-- stage 2 -->
    <_>
      <maxWeakCount>3</maxWeakCount>
      <stageThreshold>-7.8886574506759644e-01</stageThreshold>
      <weakClassifiers>
        <_>
          <internalNodes>
            0 -1 15 1364754687 -251658211 352321805 1761804545
            -1473216342 143130752 1250951179 2071021570</internalNodes>
          <leafValues>
            -8.1949460506439209e-01 6.9131833314895630e-01</leafValues></_>
        <_>
          <internalNodes>
            0 -1 42 -649215588 -1793523432 -2122317055 -2058877951
            -1870601752 -1476386816 -2113926966 -2107866997</internalNodes>
          <leafValues>
            -7.1353060007095337e-01 7.6711726188659668e-01</leafValues></_>
        <_>
          <internalNodes>
            0 -1 22 -818789922 1400995841 285217090 -1862201216
            -1877442416 -2130706432 -1610481534 -1757310530</internalNodes>
          <leafValues>
            -7.3488539457321167e-01 7.4415940046310425e-01</leafValues></_></weakClassifiers></_>
    <!-- stage 3 -->
    <_>
      <maxWeakCount>2</maxWeakCount>
      <stageThreshold>-9.5287673175334930e-02</stageThreshold>
      <weakClassifiers>
        <_>
          <internalNodes>
            0 -1 7 -1054961665 -49136 -268439553 1358954526 419434923
            805830665 -38374 -634888</internalNodes>
          <leafValues>
            -6.7601245641708374e-01 7.6779025793075562e-01</leafValues></_>
        <_>
          <internalNodes>
            0 -1 27 285250251 -544145068 268484824 1481691280
            -2130702212 -1979711487 559455 1627605058</internalNodes>
          <leafValues>
            -8.6307793855667114e-01 5.9699529409408569e-01</leafValues></_></weakClassifiers></_>
    <!-- stage 4 -->
    <_>
      <maxWeakCount>3</maxWeakCount>
      <stageThreshold>-5.4973036050796509e-01</stageThreshold>
      <weakClassifiers>
        <_>
          <internalNodes>
            0 -1 5 -5357653 1031749630 -2046 -8194 -1073942531 -16973826
            -1065287817 -285376645</internalNodes>
          <leafValues>
            -6.5294116735458374e-01 8.4677422046661377e-01</leafValues></_>
        <_>
          <internalNodes>
            0 -1 9 -1073708550 1398341648 273 335544323 134222249
            -922222592 -2147188574 999917698</internalNodes>
          <leafValues>
            -6.7801064252853394e-01 8.1947720050811768e-01</leafValues></_>
        <_>
          <internalNodes>
            0 -1 4 -805273445 1359478800 42 1141178369 557187 9437280
            2046853218 1749375558</internalNodes>
          <leafValues>
            -6.8052929639816284e-01 7.8122144937515259e-01</leafValues></_></weakClassifiers></_>
    <!-- stage 5 -->
    <_>
      <maxWeakCount>3</maxWeakCount>
      <stageThreshold>-5.7923901081085205e-01</stageThreshold>
      <weakClassifiers>
        <_>
          <internalNodes>
            0 -1 6 -805097505 -1159430 -16385 -184580 -2139094853
            -2122317696 -40818 -285249970</internalNodes>
          <leafValues>
            -6.9938647747039795e-01 8.2442748546600342e-01</leafValues></_>
        <_>
          <internalNodes>
            0 -1 41 1359040722 1392574465 65561 286457856 -1610514070
            1610612736 -2013265669 -2146706775</internalNodes>
          <leafValues>
            -6.5058290958404541e-01 8.0172336101531982e-01</leafValues></_>
        <_>
          <internalNodes>
            0 -1 33 2139041645 -66582 -65 -1091665950 -50348228
            -184615057 2147254268 -588218951</internalNodes>
          <leafValues>
            -6.6929191350936890e-01 7.7073043584823608e-01</leafValues></_></weakClassifiers></_>
    <!-- stage 6 -->
    <_>
      <maxWeakCount>3</maxWeakCount>
      <stageThreshold>-6.4086347818374634e-01</stageThreshold>
      <weakClassifiers>
        <_>
          <internalNodes>
            0 -1 16 -788054273 -1610715236 -32769 -163972 -2004811521
            -2004877312 -39509 -16953619</internalNodes>
          <leafValues>
            -7.3538464307785034e-01 8.6311787366867065e-01</leafValues></_>
        <_>
          <internalNodes>
            0 -1 31 -1878961959 1 1095041105 16777217 -2113929056
            -241172480 1250164750 -1693351902</internalNodes>
          <leafValues>
            -8.0010247230529785e-01 7.7306723594665527e-01</leafValues></_>
        <_>
          <internalNodes>
            0 -1 44 -805310635 1576927069 -1 -553783297 -129 -536870913
            -285221409 -839078018</internalNodes>
          <leafValues>
            -6.5437436103820801e-01 8.9462363719940186e-01</leafValues></_></weakClassifiers></_>
    <!-- stage 7 -->
    <_>
      <maxWeakCount>3</maxWeakCount>
      <stageThreshold>-8.6452776193618774e-01</stageThreshold>
      <weakClassifiers>
        <_>
          <internalNodes>
            0 -1 2 -5236737 1877409774 -1149239297 -1380358 16842743
            -536838144 -8037 -1351254153</internalNodes>
          <leafValues>
            -6.9999998807907104e-01 7.9104477167129517e-01</leafValues></_>
        <_>
          <internalNodes>
            0 -1 29 1090568596 -1191116408 70928 -1879044095 -2146794854
            -377487352 -2012706534 252363395</internalNodes>
          <leafValues>
            -8.2257366180419922e-01 6.2699902057647705e-01</leafValues></_>
        <_>
          <internalNodes>
            0 -1 32 -1857777518 555221120 65625 -1794113536 -2130672728
            -2079850496 -1975252958 -1995915135</internalNodes>
          <leafValues>
            -7.9152679443359375e-01 6.6903847455978394e-01</leafValues></_></weakClassifiers></_>
    <!-- stage 8 -->
    <_>
      <maxWeakCount>3</maxWeakCount>
      <stageThreshold>-7.8303235769271851e-01</stageThreshold>
      <weakClassifiers>
        <_>
          <internalNodes>
            0 -1 25 268534156 -1329528832 67108888 -2013200366
            -2147483477 -1468006400 -1946156966 -2012575094</internalNodes>
          <leafValues>
            -7.9061371088027954e-01 6.6559487581253052e-01</leafValues></_>
        <_>
          <internalNodes>
            0 -1 32 -2143203308 487653376 268503045 -1694429183
            -1962897092 -1727922175 -1069481946 -2113306494</internalNodes>
          <leafValues>
            -7.3564308881759644e-01 7.0293182134628296e-01</leafValues></_>
        <_>
          <internalNodes>
            0 -1 45 1879154717 -1862205440 20482 -654307328 -2147446613
            33554432 33556665 -1073119189</internalNodes>
          <leafValues>
            -6.5487861633300781e-01 7.4322444200515747e-01</leafValues></_></weakClassifiers></_>
    <!-- stage 9 -->
    <_>
      <maxWeakCount>3</maxWeakCount>
      <stageThreshold>-6.4653122425079346e-01</stageThreshold>
      <weakClassifiers>
        <_>
          <internalNodes>
            0 -1 24 55052 -783220735 -1467 -1107362564 2147483566
            -1073741824 -2013232405 -1467482054</internalNodes>
          <leafValues>
            -7.0967739820480347e-01 7.4820142984390259e-01</leafValues></_>
        <_>
          <internalNodes>
            0 -1 20 -46682258 -1214775300 -17 939458556 -9109600
            2131001264 -722998 156106575</internalNodes>
          <leafValues>
            -6.2527012825012207e-01 8.0792301893234253e-01</leafValues></_>
        <_>
          <internalNodes>
            0 -1 52 -2126479040 152043536 16781321 1434451968
            -1862078296 939528192 -1073184600 -1761243094</internalNodes>
          <leafValues>
            -7.4477684497833252e-01 7.0576083660125732e-01</leafValues></_></weakClassifiers></_>
    <!-- stage 10 -->
    <_>
      <maxWeakCount>3</maxWeakCount>
      <stageThreshold>-6.5060418844223022e-01</stageThreshold>
      <weakClassifiers>
        <_>
          <internalNodes>
            0 -1 26 -268583186 -159563928 -90121 -535871617 -2013265784
            -524287 -1359939 -43172293</internalNodes>
          <leafValues>
            -7.2698414325714111e-01 7.9487180709838867e-01</leafValues></_>
        <_>
          <internalNodes>
            0 -1 43 -318832932 1828585470 -268451841 -537919490
            -50331660 1289617407 -16910897 -1913126954</internalNodes>
          <leafValues>
            -6.6834300756454468e-01 8.8807082176208496e-01</leafValues></_>
        <_>
          <internalNodes>
            0 -1 47 1367917064 -1879048176 2 1078067200 408432648
            -536870880 -1073477472 -1920909293</internalNodes>
          <leafValues>
            -7.7713292837142944e-01 7.5153636932373047e-01</leafValues></_></weakClassifiers></_>
    <!-- stage 11 -->
    <_>
      <maxWeakCount>3</maxWeakCount>
      <stageThreshold>-7.0684778690338135e-01</stageThreshold>
      <weakClassifiers>
        <_>
          <internalNodes>
            0 -1 37 -1073692096 -788529087 0 -150994944 -2113905780 0
            -2105507686 -1399095159</internalNodes>
          <leafValues>
            -7.7857142686843872e-01 6.6883116960525513e-01</leafValues></_>
        <_>
          <internalNodes>
            0 -1 51 -1068395639 4194306 86539 1561329664 624776
            -2138570624 -2139025202 -1744191358</internalNodes>
          <leafValues>
            -6.9315886497497559e-01 7.7430641651153564e-01</leafValues></_>
        <_>
          <internalNodes>
            0 -1 35 -499089368 -1878982528 1081344 -1072627704 549486593
            8192 1614839944 -103858175</internalNodes>
          <leafValues>
            -6.8252009153366089e-01 8.0208325386047363e-01</leafValues></_></weakClassifiers></_>
    <!-- stage 12 -->
    <_>
      <maxWeakCount>4</maxWeakCount>
      <stageThreshold>-2.2632981836795807e-01</stageThreshold>
      <weakClassifiers>
        <_>
          <internalNodes>
            0 -1 3 -268414563 -1291796336 67125525 890322960 -2136469463
            2047541384 -1610609477 1862289608</internalNodes>
          <leafValues>
            -7.7205884456634521e-01 6.2658226490020752e-01</leafValues></_>
        <_>
          <internalNodes>
            0 -1 34 285261868 -788529148 1069068 -1811939312 -2147319806
            524288 -2013099893 -989134694</internalNodes>
          <leafValues>
            -8.0041229724884033e-01 6.2446814775466919e-01</leafValues></_>
        <_>
          <internalNodes>
            0 -1 48 -771710456 1090584576 -2130673544 1193312256
            134218144 -2012545024 1361588922 -339533309</internalNodes>
          <leafValues>
            -7.2832381725311279e-01 7.0588570833206177e-01</leafValues></_>
        <_>
          <internalNodes>
            0 -1 56 822420008 50724880 0 16809984 -2138922912
            -1879048190 1610711559 -809013080</internalNodes>
          <leafValues>
            -7.4905639886856079e-01 6.7740458250045776e-01</leafValues></_></weakClassifiers></_>
    <!-- stage 13 -->
    <_>
      <maxWeakCount>3</maxWeakCount>
      <stageThreshold>-7.3049002885818481e-01</stageThreshold>
      <weakClassifiers>
        <_>
          <internalNodes>
            0 -1 10 -671121410 -21086274 -65537 -16879617 -1 -50499627
            -1089453 -33616545</internalNodes>
          <leafValues>
            -6.7857140302658081e-01 8.5714286565780640e-01</leafValues></_>
        <_>
          <internalNodes>
            0 -1 38 127824 -788529151 65583 -754777983 1073786937
            1090519048 41099 -2012708728</internalNodes>
          <leafValues>
            -7.3963272571563721e-01 7.4255603551864624e-01</leafValues></_>
        <_>
          <internalNodes>
            0 -1 18 -1055817304 286588928 17826067 83886081 -1073738869
            -1475870704 -770696404 -1325359072</internalNodes>
          <leafValues>
            -7.5912374258041382e-01 6.8771409988403320e-01</leafValues></_></weakClassifiers></_>
    <!-- stage 14 -->
    <_>
      <maxWeakCount>2</maxWeakCount>
      <stageThreshold>-2.1270625293254852e-01</stageThreshold>
      <weakClassifiers>
        <_>
          <internalNodes>
            0 -1 8 184 -787152895 268435797 -1862205431 -2013263653
            -1585414144 -939480949 1074153602</internalNodes>
          <leafValues>
            -7.8030300140380859e-01 5.9876543283462524e-01</leafValues></_>
        <_>
          <internalNodes>
            0 -1 53 -536739328 -2147352576 0 -1862270975 -2147450752
            16777216 -2147450696 -1465384960</internalNodes>
          <leafValues>
            -8.1147170066833496e-01 6.0074496269226074e-01</leafValues></_></weakClassifiers></_>
    <!-- stage 15 -->
    <_>
      <maxWeakCount>2</maxWeakCount>
      <stageThreshold>-5.9664085507392883e-02</stageThreshold>
      <weakClassifiers>
        <_>
          <internalNodes>
            0 -1 30 -285360327 -1073889281 -49281 -269013318 2139062270
            2139099391 -32803 -306240325</internalNodes>
          <leafValues>
            -6.0117304325103760e-01 7.8137654066085815e-01</leafValues></_>
        <_>
          <internalNodes>
            0 -1 46 270107120 -753795056 16781882 1367343106 1342305316
            -2147450880 1092681859 1098096788</internalNodes>
          <leafValues>
            -8.4104061126708984e-01 5.5726647377014160e-01</leafValues></_></weakClassifiers></_>
    <!-- stage 16 -->
    <_>
      <maxWeakCount>2</maxWeakCount>
      <stageThreshold>-1.4832295477390289e-01</stageThreshold>
      <weakClassifiers>
        <_>
          <internalNodes>
            0 -1 11 1816112894 -134283649 -1 -114946 2113896413
            -1073774593 2146994179 -33599630</internalNodes>
          <leafValues>
            -6.3580244779586792e-01 7.3484849929809570e-01</leafValues></_>
        <_>
          <internalNodes>
            0 -1 0 286372235 306217248 65584 -1073659904 -1073147807
            -2128609280 -1476394888 1174554895</internalNodes>
          <leafValues>
            -8.8317143917083740e-01 5.6306660175323486e-01</leafValues></_></weakClassifiers></_>
    <!-- stage 17 -->
    <_>
      <maxWeakCount>3</maxWeakCount>
      <stageThreshold>-6.5122705698013306e-01</stageThreshold>
      <weakClassifiers>
        <_>
          <internalNodes>
            0 -1 12 33533694 -1861156848 -16772078 -1315138 1593789678
            -2 973176823 -74449282</internalNodes>
          <leafValues>
            -6.3749998807907104e-01 7.1641790866851807e-01</leafValues></_>
        <_>
          <internalNodes>
            0 -1 54 420193045 303169793 16657 546308352 458922
            -1811939312 536936450 210627832</internalNodes>
          <leafValues>
            -7.7366590499877930e-01 6.0867232084274292e-01</leafValues></_>
        <_>
          <internalNodes>
            0 -1 39 -327680684 783646711 -1048578 -1628110858 -139276
            2012741623 -16842756 -407142412</internalNodes>
          <leafValues>
            -5.9397906064987183e-01 8.0108803510665894e-01</leafValues></_></weakClassifiers></_>
    <!-- stage 18 -->
    <_>
      <maxWeakCount>4</maxWeakCount>
      <stageThreshold>-1.0632391273975372e-01</stageThreshold>
      <weakClassifiers>
        <_>
          <internalNodes>
            0 -1 19 -1693198335 -1727987584 135266563 1476461568
            268468699 -914358272 -1744166904 469796874</internalNodes>
          <leafValues>
            -7.2631579637527466e-01 6.4356434345245361e-01</leafValues></_>
        <_>
          <internalNodes>
            0 -1 1 -2059378303 -671088496 -2147380992 -805224448 18618
            270598314 -2013246768 -1727436670</internalNodes>
          <leafValues>
            -7.7119457721710205e-01 5.9714418649673462e-01</leafValues></_>
        <_>
          <internalNodes>
            0 -1 55 323211539 1064978 1073807902 1358954496 65545
            -2013265918 -2130448217 -188001979</internalNodes>
          <leafValues>
            -6.4180368185043335e-01 7.3181486129760742e-01</leafValues></_>
        <_>
          <internalNodes>
            0 -1 23 -585576192 324010112 1427701785 -334954487 64
            2013265920 -1065221978 202244235</internalNodes>
          <leafValues>
            -7.0522880554199219e-01 6.8351906538009644e-01</leafValues></_></weakClassifiers></_>
    <!-- stage 19 -->
    <_>
      <maxWeakCount>3</maxWeakCount>
      <stageThreshold>-6.6878241300582886e-01</stageThreshold>
      <weakClassifiers>
        <_>
          <internalNodes>
            0 -1 36 -1610448894 -1879031744 -2147483648 -788529152
            -2147442688 -1073741822 -1979678576 -1559035904</internalNodes>
          <leafValues>
            -7.2972971200942993e-01 6.9863015413284302e-01</leafValues></_>
        <_>
          <internalNodes>
            0 -1 50 -758938350 -801062911 524373 -796835837 1073823938
            120834 -2146959216 -1992220529</internalNodes>
          <leafValues>
            -6.6591590642929077e-01 6.7338311672210693e-01</leafValues></_>
        <_>
          <internalNodes>
            0 -1 40 -285802693 788463612 -1 -1342816324 -268992683 -1
            2147448676 -1359267972</internalNodes>
          <leafValues>
            -6.1243575811386108e-01 7.3984718322753906e-01</leafValues></_></weakClassifiers></_></stages>
  <features>
    <_>
      <rect>
        0 5 9 4</rect></_>
    <_>
      <rect>
        0 5 10 5</rect></_>
    <_>
      <rect>
        0 7 11 2</rect></_>
    <_>
      <rect>
        0 7 12 3</rect></_>
    <_>
      <rect>
        1 1 7 4</rect></_>
    <_>
      <rect>
        1 1 10 6</rect></_>
    <_>
      <rect>
        1 7 10 4</rect></_>
    <_>
      <rect>
        1 9 11 3</rect></_>
    <_>
      <rect>
        2 5 13 3</rect></_>
    <_>
      <rect>
        2 9 9 3</rect></_>
    <_>
      <rect>
        3 4 9 5</rect></_>
    <_>
      <rect>
        3 9 10 3</rect></_>
    <_>
      <rect>
        3 10 7 3</rect></_>
    <_>
      <rect>
        4 2 14 6</rect></_>
    <_>
      <rect>
        4 6 8 3</rect></_>
    <_>
      <rect>
        5 3 10 5</rect></_>
    <_>
      <rect>
        5 6 8 4</rect></_>
    <_>
      <rect>
        6 6 11 4</rect></_>
    <_>
      <rect>
        8 0 11 4</rect></_>
    <_>
      <rect>
        9 1 11 3</rect></_>
    <_>
      <rect>
        10 5 5 2</rect></_>
    <_>
      <rect>
        10 12 5 1</rect></_>
    <_>
      <rect>
        11 4 5 3</rect></_>
    <_>
      <rect>
        11 5 5 2</rect></_>
    <_>
      <rect>
        12 3 11 3</rect></_>
    <_>
      <rect>
        13 4 10 3</rect></_>
    <_>
      <rect>
        13 5 4 4</rect></_>
    <_>
      <rect>
        13 8 7 2</rect></_>
    <_>
      <rect>
        14 6 7 2</rect></_>
    <_>
      <rect>
        15 5 10 4</rect></_>
    <_>
      <rect>
        15 7 2 3</rect></_>
    <_>
      <rect>
        16 7 11 4</rect></_>
    <_>
      <rect>
        17 7 11 4</rect></_>
    <_>
      <rect>
        18 1 7 2</rect></_>
    <_>
      <rect>
        18 7 5 1</rect></_>
    <_>
      <rect>
        18 8 1 2</rect></_>
    <_>
      <rect>
        18 9 2 1</rect></_>
    <_>
      <rect>
        19 6 7 2</rect></_>
    <_>
      <rect>
        20 2 10 4</rect></_>
    <_>
      <rect>
        20 7 1 1</rect></_>
    <_>
      <rect>
        20 10 1 1</rect></_>
    <_>
      <rect>
        21 5 6 4</rect></_>
    <_>
      <rect>
        22 6 5 4</rect></_>
    <_>
      <rect>
        22 7 9 2</rect></_>
    <_>
      <rect>
        23 0 9 5</rect></_>
    <_>
      <rect>
        24 2 8 4</rect></_>
    <_>
      <rect>
        24 3 5 4</rect></_>
    <_>
      <rect>
        24 6 3 2</rect></_>
    <_>
      <rect>
        24 6 4 2</rect></_>
    <_>
      <rect>
        26 6 4 3</rect></_>
    <_>
      <rect>
        26 7 4 3</rect></_>
    <_>
      <rect>
        28 7 7 4</rect></_>
    <_>
      <rect>
        29 6 6 4</rect></_>
    <_>
      <rect>
        30 9 1 1</rect></_>
    <_>
      <rect>
        31 1 6 6</rect></_>
    <_>
      <rect>
        34 4 5 5</rect></_>
    <_>
      <rect>
        35 4 4 5</rect></_></features></cascade>
</opencv_storage>
