<?xml version="1.0"?>
<opencv_storage>
<stage16>
  <maxWeakCount>7</maxWeakCount>
  <stageThreshold>-8.2239729166030884e-01</stageThreshold>
  <weakClassifiers>
    <_>
      <internalNodes>
        0 -1 3057 1151178175 1606549514 1052849 -36159224 -1610049150
        -659867520 1619568835 1266111542</internalNodes>
      <leafValues>
        -5.6403267383575439e-01 4.0992167592048645e-01</leafValues></_>
    <_>
      <internalNodes>
        0 -1 4563 311542015 1476922122 -1862266536 1209180162 16863497
        461463578 -661628229 1268541709</internalNodes>
      <leafValues>
        -7.5164854526519775e-01 3.0536621809005737e-01</leafValues></_>
    <_>
      <internalNodes>
        0 -1 23932 -889782273 -1159004161 -1090584593 1005583791
        1290239803 2147483646 2130669512 -1358971015</internalNodes>
      <leafValues>
        -4.5591446757316589e-01 5.2290880680084229e-01</leafValues></_>
    <_>
      <internalNodes>
        0 -1 953 1209192931 -1400700928 268501504 1140850688 -1992128142
        -1151696744 -2147360704 -13432752</internalNodes>
      <leafValues>
        -4.7883838415145874e-01 5.3534209728240967e-01</leafValues></_>
    <_>
      <internalNodes>
        0 -1 21084 1662472543 -1056862117 -2080374573 -747388903
        -1207883301 1762320387 -788494199 -1565634475</internalNodes>
      <leafValues>
        -4.9370151758193970e-01 4.8436754941940308e-01</leafValues></_>
    <_>
      <internalNodes>
        0 -1 14295 682667651 -29622405 -70 -340590745 2063269694
        2138800119 -1099714678 -364708114</internalNodes>
      <leafValues>
        -4.5389640331268311e-01 5.6874161958694458e-01</leafValues></_>
    <_>
      <internalNodes>
        0 -1 17074 -505969658 490835985 336855059 -1407904699 269000850
        186124289 2103426 -293568496</internalNodes>
      <leafValues>
        -5.9543812274932861e-01 4.4091090559959412e-01</leafValues></_></weakClassifiers></stage16>
</opencv_storage>
