<?xml version="1.0"?>
<opencv_storage>
<stage19>
  <maxWeakCount>6</maxWeakCount>
  <stageThreshold>-9.1629701852798462e-01</stageThreshold>
  <weakClassifiers>
    <_>
      <internalNodes>
        0 -1 20244 -956518868 -105320530 1862253967 -134238335
        -453118889 -1795686401 -50541432 -168339699</internalNodes>
      <leafValues>
        -5.1878172159194946e-01 7.9805827140808105e-01</leafValues></_>
    <_>
      <internalNodes>
        0 -1 22957 276926602 563150852 1342177281 1343815761 16777368
        -2088763392 -1069383668 122994830</internalNodes>
      <leafValues>
        -5.5996924638748169e-01 6.4676737785339355e-01</leafValues></_>
    <_>
      <internalNodes>
        0 -1 23373 118801 589824 16781585 -1458503408 8388736 134234112
        -805272946 -2138669022</internalNodes>
      <leafValues>
        -5.7348787784576416e-01 6.3020008802413940e-01</leafValues></_>
    <_>
      <internalNodes>
        0 -1 14936 -1040039279 1073807489 4227073 301994004 33660928
        -2147483648 16781584 -738011078</internalNodes>
      <leafValues>
        -5.0592762231826782e-01 8.1170421838760376e-01</leafValues></_>
    <_>
      <internalNodes>
        0 -1 18116 1879048242 -348127232 16777368 -1056898047
        -2147479423 134217888 536903899 167921802</internalNodes>
      <leafValues>
        -6.2954002618789673e-01 6.1082917451858521e-01</leafValues></_>
    <_>
      <internalNodes>
        0 -1 5797 -1072164729 16448 4194307 268501008 570486962
        -1325400064 -1585442784 -452229119</internalNodes>
      <leafValues>
        -5.7264769077301025e-01 7.4968141317367554e-01</leafValues></_></weakClassifiers></stage19>
</opencv_storage>
