<?xml version="1.0"?>
<opencv_storage>
<stage11>
  <maxWeakCount>8</maxWeakCount>
  <stageThreshold>-1.3461890220642090e+00</stageThreshold>
  <weakClassifiers>
    <_>
      <internalNodes>
        0 -1 21641 -242355341 973117777 16908288 1598242866 33754265
        675811330 -1597269778 -609301553</internalNodes>
      <leafValues>
        -5.2521526813507080e-01 4.7598254680633545e-01</leafValues></_>
    <_>
      <internalNodes>
        0 -1 11219 1971395389 -786563071 402686287 -687471741
        -2146735432 -1450573675 1611305016 1594394856</internalNodes>
      <leafValues>
        -5.3816157579421997e-01 4.4944360852241516e-01</leafValues></_>
    <_>
      <internalNodes>
        0 -1 1844 -321919585 2055077237 -1434555330 -276856906 383641328
        -1064964 -332072108 -1352663049</internalNodes>
      <leafValues>
        -4.2666432261466980e-01 5.9923994541168213e-01</leafValues></_>
    <_>
      <internalNodes>
        0 -1 17480 -2125035782 1224900868 16786836 -1660153837
        -2016243060 -796770303 240189542 533723358</internalNodes>
      <leafValues>
        -6.3053649663925171e-01 4.1196131706237793e-01</leafValues></_>
    <_>
      <internalNodes>
        0 -1 11509 -804677250 -922697711 -2080373222 -301989804
        1751676954 811651200 170084524 -242494881</internalNodes>
      <leafValues>
        -5.7344996929168701e-01 4.2380508780479431e-01</leafValues></_>
    <_>
      <internalNodes>
        0 -1 21199 2135591312 1124438083 352321618 -1492008960 419531343
        939532296 -1581735282 -2120782578</internalNodes>
      <leafValues>
        -5.6227219104766846e-01 4.3705862760543823e-01</leafValues></_>
    <_>
      <internalNodes>
        0 -1 17757 -803677733 1628541008 285311059 -2147023610
        -2113814005 1669431426 419938855 55572637</internalNodes>
      <leafValues>
        -5.0048130750656128e-01 5.1340162754058838e-01</leafValues></_>
    <_>
      <internalNodes>
        0 -1 22243 -930967155 289439879 1342259477 453231170 411041929
        -1199529854 -503148392 176403330</internalNodes>
      <leafValues>
        -6.1680030822753906e-01 4.1217970848083496e-01</leafValues></_></weakClassifiers></stage11>
</opencv_storage>
