<?xml version="1.0"?>
<opencv_storage>
<stage1>
  <maxWeakCount>5</maxWeakCount>
  <stageThreshold>-8.0017262697219849e-01</stageThreshold>
  <weakClassifiers>
    <_>
      <internalNodes>
        0 -1 4118 -138478593 -75497473 -1 -1052929 -1082654721
        -536903681 -8437761 2079014911</internalNodes>
      <leafValues>
        -6.7264038324356079e-01 6.9834089279174805e-01</leafValues></_>
    <_>
      <internalNodes>
        0 -1 6803 -577463809 520623251 -1073639010 -176025522
        -1040144223 -914259840 1350631648 1526729102</internalNodes>
      <leafValues>
        -6.7483878135681152e-01 4.8426932096481323e-01</leafValues></_>
    <_>
      <internalNodes>
        0 -1 18732 272740496 486555669 16810449 -1684602603 -1065246312
        -2004221952 553763816 -1903459622</internalNodes>
      <leafValues>
        -6.0356742143630981e-01 5.6890422105789185e-01</leafValues></_>
    <_>
      <internalNodes>
        0 -1 19795 1938535410 823280258 286261338 894521616 427819194
        411598856 671912 -1428207942</internalNodes>
      <leafValues>
        -6.0007482767105103e-01 5.4736787080764771e-01</leafValues></_>
    <_>
      <internalNodes>
        0 -1 14493 -645529424 -1861222400 16842832 -1811873792 142606482
        201457664 -1056948054 -75395067</internalNodes>
      <leafValues>
        -5.2791053056716919e-01 6.0350608825683594e-01</leafValues></_></weakClassifiers></stage1>
</opencv_storage>
