<?xml version="1.0"?>
<opencv_storage>
<stage10>
  <maxWeakCount>6</maxWeakCount>
  <stageThreshold>-1.4587235450744629e+00</stageThreshold>
  <weakClassifiers>
    <_>
      <internalNodes>
        0 -1 12866 -83907009 -536875137 -201326593 1132412927 -65
        -553713794 -100663569 -1933606917</internalNodes>
      <leafValues>
        -4.8124331235885620e-01 6.1552029848098755e-01</leafValues></_>
    <_>
      <internalNodes>
        0 -1 4611 -829749298 1349255192 50336176 453687308 1779174416
        -536213504 -1366775742 -190758776</internalNodes>
      <leafValues>
        -7.4805331230163574e-01 3.6564227938652039e-01</leafValues></_>
    <_>
      <internalNodes>
        0 -1 20281 -56766408 85430659 270532894 -1324748515 -1994389368
        16810112 -1071531360 -1682978382</internalNodes>
      <leafValues>
        -6.2132310867309570e-01 4.3810495734214783e-01</leafValues></_>
    <_>
      <internalNodes>
        0 -1 20339 -585508493 306910528 -2147483641 1007292689
        -1052766181 -1467744254 -918369740 -1551121847</internalNodes>
      <leafValues>
        -4.6052765846252441e-01 6.0378575325012207e-01</leafValues></_>
    <_>
      <internalNodes>
        0 -1 20268 -1073327541 1175655235 -2147438371 -1466400741
        -1853877996 -1207427056 -880359280 -1542445016</internalNodes>
      <leafValues>
        -6.5403997898101807e-01 3.9939352869987488e-01</leafValues></_>
    <_>
      <internalNodes>
        0 -1 7967 1113307151 -640581287 1090589085 151667065 687939775
        -1945860987 1359603728 1802785066</internalNodes>
      <leafValues>
        -6.6066527366638184e-01 3.9587932825088501e-01</leafValues></_></weakClassifiers></stage10>
</opencv_storage>
