<?xml version="1.0"?>
<opencv_storage>
<stage18>
  <maxWeakCount>8</maxWeakCount>
  <stageThreshold>-1.0326943397521973e+00</stageThreshold>
  <weakClassifiers>
    <_>
      <internalNodes>
        0 -1 5926 -25185307 -1291845641 -1048837 149946237 -592016
        -59113481 -756364 -549503138</internalNodes>
      <leafValues>
        -4.9541285634040833e-01 5.2866244316101074e-01</leafValues></_>
    <_>
      <internalNodes>
        0 -1 20585 1409668554 -788365311 209 286396432 -2147442551
        -268434944 -2030006069 -586202368</internalNodes>
      <leafValues>
        -4.6865910291671753e-01 5.8312571048736572e-01</leafValues></_>
    <_>
      <internalNodes>
        0 -1 21196 1576866134 251781248 151027712 -1860878336 304220313
        427950080 -1475870642 -375865214</internalNodes>
      <leafValues>
        -5.7717823982238770e-01 4.7129526734352112e-01</leafValues></_>
    <_>
      <internalNodes>
        0 -1 8027 8511583 -721354623 1359005715 -267304940 1216938092
        -1048575856 134494218 -7472308</internalNodes>
      <leafValues>
        -4.8072731494903564e-01 5.3996020555496216e-01</leafValues></_>
    <_>
      <internalNodes>
        0 -1 19237 1427116228 -721006512 268436566 1459830809
        -1039136680 270565506 -2147377018 346136969</internalNodes>
      <leafValues>
        -6.5601670742034912e-01 4.0632677078247070e-01</leafValues></_>
    <_>
      <internalNodes>
        0 -1 20676 486430052 -873660612 -1207975946 2080358190
        -302686371 -268533761 -421648243 -620767369</internalNodes>
      <leafValues>
        -4.2677703499794006e-01 6.7070227861404419e-01</leafValues></_>
    <_>
      <internalNodes>
        0 -1 9149 1074323743 196608 1207963665 -2080309231 -1601695708
        -1979580408 -394213183 -891747697</internalNodes>
      <leafValues>
        -5.0605416297912598e-01 5.5471456050872803e-01</leafValues></_>
    <_>
      <internalNodes>
        0 -1 7553 -745942693 8421395 16842761 269025411 -520019799
        -2113888256 573583 21156546</internalNodes>
      <leafValues>
        -5.5676120519638062e-01 5.2638673782348633e-01</leafValues></_></weakClassifiers></stage18>
</opencv_storage>
