<?xml version="1.0"?>
<opencv_storage>
<cascade>
  <stageType>BOOST</stageType>
  <featureType>LBP</featureType>
  <height>20</height>
  <width>50</width>
  <stageParams>
    <boostType>GAB</boostType>
    <minHitRate>9.9500000476837158e-01</minHitRate>
    <maxFalseAlarm>5.0000000000000000e-01</maxFalseAlarm>
    <weightTrimRate>9.4999999999999996e-01</weightTrimRate>
    <maxDepth>1</maxDepth>
    <maxWeakCount>100</maxWeakCount></stageParams>
  <featureParams>
    <maxCatCount>256</maxCatCount>
    <featSize>1</featSize></featureParams>
  <stageNum>20</stageNum>
  <stages>
    <!-- stage 0 -->
    <_>
      <maxWeakCount>5</maxWeakCount>
      <stageThreshold>-8.2986283302307129e-01</stageThreshold>
      <weakClassifiers>
        <_>
          <internalNodes>
            0 -1 14 2146368219 -13926402 -1 2142219891 2138439679
            -8946836 2138800127 1935106635</internalNodes>
          <leafValues>
            -6.3835614919662476e-01 7.9405939579010010e-01</leafValues></_>
        <_>
          <internalNodes>
            0 -1 44 1363393240 1485869401 1073758297 286507281
            -2137274238 1476460544 1242269802 460143279</internalNodes>
          <leafValues>
            -6.6777873039245605e-01 5.6480979919433594e-01</leafValues></_>
        <_>
          <internalNodes>
            0 -1 104 -384323210 1065517383 65558 386957584 -603387000
            143196160 -1605678934 -1450595702</internalNodes>
          <leafValues>
            -5.3097832202911377e-01 5.8622139692306519e-01</leafValues></_>
        <_>
          <internalNodes>
            0 -1 133 -1073709056 -332398592 4224 -1279115256 33554945
            -2004353024 -536674136 -1532353998</internalNodes>
          <leafValues>
            -5.1530492305755615e-01 5.7899594306945801e-01</leafValues></_>
        <_>
          <internalNodes>
            0 -1 48 -2142988043 285221067 25231510 956825994 -804726568
            -1417084800 -1593245088 1361060570</internalNodes>
          <leafValues>
            -6.8894529342651367e-01 4.2971983551979065e-01</leafValues></_></weakClassifiers></_>
    <!-- stage 1 -->
    <_>
      <maxWeakCount>7</maxWeakCount>
      <stageThreshold>-1.6678260564804077e+00</stageThreshold>
      <weakClassifiers>
        <_>
          <internalNodes>
            0 -1 0 1926157311 -685645797 285299099 -988872693 -804484869
            -2012348383 1765984447 2134980955</internalNodes>
          <leafValues>
            -5.8258259296417236e-01 5.6766253709793091e-01</leafValues></_>
        <_>
          <internalNodes>
            0 -1 38 -791211558 1537474708 336666932 -552595374
            1216938101 2071986208 -535297813 2058321483</internalNodes>
          <leafValues>
            -6.2897467613220215e-01 4.0503096580505371e-01</leafValues></_>
        <_>
          <internalNodes>
            0 -1 139 -1016692736 131075 1073743884 -1290788206 8531968
            8519688 -1601634168 -1598422470</internalNodes>
          <leafValues>
            -5.3022241592407227e-01 4.6405187249183655e-01</leafValues></_>
        <_>
          <internalNodes>
            0 -1 109 -792292638 1502871816 1098907807 358699084
            -1577057640 11665408 134220458 32492482</internalNodes>
          <leafValues>
            -5.6642174720764160e-01 4.3180948495864868e-01</leafValues></_>
        <_>
          <internalNodes>
            0 -1 63 1914959530 1496776507 -8590735 1373660722 -17635618
            -1061683348 -168564758 -955669366</internalNodes>
          <leafValues>
            -3.8596391677856445e-01 5.9767407178878784e-01</leafValues></_>
        <_>
          <internalNodes>
            0 -1 71 1079216134 823132160 -1052622784 -201310190
            268470272 1207992320 -1719500125 -265306102</internalNodes>
          <leafValues>
            -5.2643650770187378e-01 4.5130872726440430e-01</leafValues></_>
        <_>
          <internalNodes>
            0 -1 100 -788016548 -1743536109 1073741845 1427308875
            1078583467 -838369272 -938962421 223191178</internalNodes>
          <leafValues>
            -5.9174364805221558e-01 4.4443339109420776e-01</leafValues></_></weakClassifiers></_>
    <!-- stage 2 -->
    <_>
      <maxWeakCount>7</maxWeakCount>
      <stageThreshold>-1.1156735420227051e+00</stageThreshold>
      <weakClassifiers>
        <_>
          <internalNodes>
            0 -1 15 -67175682 -3964577 1112834559 -686735013 -502572517
            -82165718 -117179393 2067748991</internalNodes>
          <leafValues>
            -6.1857378482818604e-01 4.8734176158905029e-01</leafValues></_>
        <_>
          <internalNodes>
            0 -1 114 -102794465 398692657 -2097102633 419676505
            -1165397777 -72678901 -888407316 16505707</internalNodes>
          <leafValues>
            -4.9469405412673950e-01 5.0786209106445312e-01</leafValues></_>
        <_>
          <internalNodes>
            0 -1 25 -2072564737 990623507 1124155859 -283951102
            1611363199 -242515703 1213418487 2082689040</internalNodes>
          <leafValues>
            -6.0851967334747314e-01 3.6881968379020691e-01</leafValues></_>
        <_>
          <internalNodes>
            0 -1 110 496741147 -1615888173 21041178 232501517 185213274
            -1911652136 -2117551682 -1547969858</internalNodes>
          <leafValues>
            -4.6429824829101562e-01 4.4619572162628174e-01</leafValues></_>
        <_>
          <internalNodes>
            0 -1 31 1566372426 67133514 5039 1163444481 1611358546
            -82313215 -882814753 -162520518</internalNodes>
          <leafValues>
            -5.3819680213928223e-01 3.7397295236587524e-01</leafValues></_>
        <_>
          <internalNodes>
            0 -1 125 2139454360 444812043 17416341 386519760 -939027660
            -2029845368 -939091905 599574526</internalNodes>
          <leafValues>
            -5.7327270507812500e-01 3.2908818125724792e-01</leafValues></_>
        <_>
          <internalNodes>
            0 -1 50 1253695763 169530946 319414747 520278107 -939226853
            -74906876 807438356 251038111</internalNodes>
          <leafValues>
            -5.4385316371917725e-01 3.5921806097030640e-01</leafValues></_></weakClassifiers></_>
    <!-- stage 3 -->
    <_>
      <maxWeakCount>7</maxWeakCount>
      <stageThreshold>-1.5202666521072388e+00</stageThreshold>
      <weakClassifiers>
        <_>
          <internalNodes>
            0 -1 77 2013265717 1065188923 788381621 1060896575
            -1879048454 -1879050104 2130702248 -301989893</internalNodes>
          <leafValues>
            -4.8582994937896729e-01 5.9716600179672241e-01</leafValues></_>
        <_>
          <internalNodes>
            0 -1 142 1610601951 335278069 662667075 192393143 -16777313
            1610052983 -1073762578 199945870</internalNodes>
          <leafValues>
            -4.4316643476486206e-01 5.3657150268554688e-01</leafValues></_>
        <_>
          <internalNodes>
            0 -1 12 -1021990914 -590200670 -1071562476 -1948856212
            -494712713 1291911177 -116336385 -9541554</internalNodes>
          <leafValues>
            -5.3850442171096802e-01 4.4567304849624634e-01</leafValues></_>
        <_>
          <internalNodes>
            0 -1 58 689081641 -44990245 -1073708897 2106642704 553775274
            -838713286 -1191133016 671139850</internalNodes>
          <leafValues>
            -6.2236469984054565e-01 3.3878627419471741e-01</leafValues></_>
        <_>
          <internalNodes>
            0 -1 8 1599810171 -117354482 -720271781 -573799328
            -2100740009 -796901360 8464704 -30596530</internalNodes>
          <leafValues>
            -4.4699850678443909e-01 4.7562634944915771e-01</leafValues></_>
        <_>
          <internalNodes>
            0 -1 98 -400634841 907921433 16811316 782094743 -939292598
            -1431551870 -1744109430 -66915474</internalNodes>
          <leafValues>
            -4.7517517209053040e-01 4.2178246378898621e-01</leafValues></_>
        <_>
          <internalNodes>
            0 -1 105 1739470751 1005436855 -1346420944 938504111
            1878874085 531988477 -16846868 -1459749121</internalNodes>
          <leafValues>
            -4.1059017181396484e-01 4.9932059645652771e-01</leafValues></_></weakClassifiers></_>
    <!-- stage 4 -->
    <_>
      <maxWeakCount>7</maxWeakCount>
      <stageThreshold>-1.4973785877227783e+00</stageThreshold>
      <weakClassifiers>
        <_>
          <internalNodes>
            0 -1 79 -1277696036 -661534565 -2130651693 -1881943805
            -1306881797 -360669056 1348099 201045403</internalNodes>
          <leafValues>
            -6.3148790597915649e-01 4.5662099123001099e-01</leafValues></_>
        <_>
          <internalNodes>
            0 -1 18 1142319909 -808550062 -654228867 -687836336
            1082148978 -638907767 -1585382501 -5989758</internalNodes>
          <leafValues>
            -4.9804300069808960e-01 4.3200501799583435e-01</leafValues></_>
        <_>
          <internalNodes>
            0 -1 95 -755040486 465497997 788508534 -1678000209
            -1610637364 -1661009929 -310378578 -352321537</internalNodes>
          <leafValues>
            -4.0358442068099976e-01 5.0209391117095947e-01</leafValues></_>
        <_>
          <internalNodes>
            0 -1 45 717475278 1204912205 -805285739 -159259893 50334335
            -1965356983 51957976 38805536</internalNodes>
          <leafValues>
            -6.9962060451507568e-01 2.7928611636161804e-01</leafValues></_>
        <_>
          <internalNodes>
            0 -1 70 63873608 -1308553064 1241546837 1434533954
            -250566438 276832531 1082163342 1135790234</internalNodes>
          <leafValues>
            -5.3704106807708740e-01 3.4184944629669189e-01</leafValues></_>
        <_>
          <internalNodes>
            0 -1 152 -570427905 -29524099 -1048579 2113566654 -34177051
            -131073 -305889284 -1374759553</internalNodes>
          <leafValues>
            -3.9688998460769653e-01 5.3342008590698242e-01</leafValues></_>
        <_>
          <internalNodes>
            0 -1 65 -439369074 1529328000 -2147401726 -251494400
            34562053 1914732562 -125771365 -44870096</internalNodes>
          <leafValues>
            -3.9772722125053406e-01 5.1085507869720459e-01</leafValues></_></weakClassifiers></_>
    <!-- stage 5 -->
    <_>
      <maxWeakCount>7</maxWeakCount>
      <stageThreshold>-9.3725562095642090e-01</stageThreshold>
      <weakClassifiers>
        <_>
          <internalNodes>
            0 -1 73 -203 1060765483 -1090568455 1073725375 -269500418
            -1619001345 2080358384 -1073746177</internalNodes>
          <leafValues>
            -5.0607287883758545e-01 6.2753033638000488e-01</leafValues></_>
        <_>
          <internalNodes>
            0 -1 81 1176316842 68649099 -1073708985 83988883 -1148705271
            -1597988780 34148379 449640083</internalNodes>
          <leafValues>
            -6.3518387079238892e-01 3.5670378804206848e-01</leafValues></_>
        <_>
          <internalNodes>
            0 -1 23 -430182545 -934002644 -1692384929 67224596
            1906855536 1376141482 -1031190341 -270577014</internalNodes>
          <leafValues>
            -4.6109971404075623e-01 4.4599801301956177e-01</leafValues></_>
        <_>
          <internalNodes>
            0 -1 60 1103202450 1141051402 9502833 -754876400 -1174305645
            -108953589 -2120183655 1104521738</internalNodes>
          <leafValues>
            -5.3980261087417603e-01 4.0293508768081665e-01</leafValues></_>
        <_>
          <internalNodes>
            0 -1 102 -624440047 1367556103 337199372 294666247 411074759
            537053192 -1677711143 149549067</internalNodes>
          <leafValues>
            -4.4699555635452271e-01 4.3992814421653748e-01</leafValues></_>
        <_>
          <internalNodes>
            0 -1 9 1628204559 822317195 25223455 -775896434 1612628156
            -758644703 185214041 1097327722</internalNodes>
          <leafValues>
            -5.2308994531631470e-01 3.9085850119590759e-01</leafValues></_>
        <_>
          <internalNodes>
            0 -1 72 -230120680 1406156825 197074 524537868 1073951018
            143132677 -897430901 442849860</internalNodes>
          <leafValues>
            -5.7627606391906738e-01 3.8096752762794495e-01</leafValues></_></weakClassifiers></_>
    <!-- stage 6 -->
    <_>
      <maxWeakCount>7</maxWeakCount>
      <stageThreshold>-1.5868250131607056e+00</stageThreshold>
      <weakClassifiers>
        <_>
          <internalNodes>
            0 -1 66 2140110391 798343312 83955865 1061230359 -611667814
            -1148484984 -1895266120 -1102323537</internalNodes>
          <leafValues>
            -5.6164383888244629e-01 4.6135067939758301e-01</leafValues></_>
        <_>
          <internalNodes>
            0 -1 57 -564397966 -50233206 67387485 -682290942 -636968401
            2046890025 -421467926 1931678619</internalNodes>
          <leafValues>
            -5.1446861028671265e-01 4.6622878313064575e-01</leafValues></_>
        <_>
          <internalNodes>
            0 -1 26 -602212870 -687733748 1342230958 -116080624
            1074940497 1999250058 -485783391 -108562357</internalNodes>
          <leafValues>
            -5.2691411972045898e-01 3.8158342242240906e-01</leafValues></_>
        <_>
          <internalNodes>
            0 -1 82 1177464147 2146414188 805220083 -1677721793
            1299619817 -33767611 1073721203 -859001865</internalNodes>
          <leafValues>
            -4.1633954644203186e-01 4.9211436510086060e-01</leafValues></_>
        <_>
          <internalNodes>
            0 -1 129 1943182144 -1793932782 -2146975147 -1257142135
            -1341468529 -1459535872 -642745405 1106068363</internalNodes>
          <leafValues>
            -4.8969188332557678e-01 4.3682053685188293e-01</leafValues></_>
        <_>
          <internalNodes>
            0 -1 19 -724256258 -368361460 356876344 -837287935
            -494892144 -2088075134 -1979647408 1002031642</internalNodes>
          <leafValues>
            -5.3744858503341675e-01 3.8140067458152771e-01</leafValues></_>
        <_>
          <internalNodes>
            0 -1 87 1510011394 -1056714349 -1073358767 -1853492988
            -1198986502 -1207730165 -2130149140 -2092805876</internalNodes>
          <leafValues>
            -4.8982536792755127e-01 4.2117586731910706e-01</leafValues></_></weakClassifiers></_>
    <!-- stage 7 -->
    <_>
      <maxWeakCount>7</maxWeakCount>
      <stageThreshold>-8.5407090187072754e-01</stageThreshold>
      <weakClassifiers>
        <_>
          <internalNodes>
            0 -1 43 -31352419 -727219168 -1610509863 -307249057
            -528250737 -523468784 139573691 1073142527</internalNodes>
          <leafValues>
            -5.4489165544509888e-01 4.8726654052734375e-01</leafValues></_>
        <_>
          <internalNodes>
            0 -1 119 1440741171 -1912356592 16826407 -7024316
            -1685389040 81265321 -924786248 -321922645</internalNodes>
          <leafValues>
            -4.3863603472709656e-01 4.7396367788314819e-01</leafValues></_>
        <_>
          <internalNodes>
            0 -1 131 228787007 -2046491367 -805125805 -1154400181
            -1834811381 1166016642 285278281 -1441761200</internalNodes>
          <leafValues>
            -6.1432182788848877e-01 3.4593796730041504e-01</leafValues></_>
        <_>
          <internalNodes>
            0 -1 2 1646424619 1342304272 268468545 -754892474 621009835
            -397705054 537069931 -746964967</internalNodes>
          <leafValues>
            -4.3716007471084595e-01 4.8779383301734924e-01</leafValues></_>
        <_>
          <internalNodes>
            0 -1 56 306238186 -736018429 -788446908 -712835041
            -931014565 -387626993 -1794651682 -144340470</internalNodes>
          <leafValues>
            -4.7889962792396545e-01 4.2867368459701538e-01</leafValues></_>
        <_>
          <internalNodes>
            0 -1 143 -1035814859 -1575763631 -536801057 -1788825250
            -1031728832 1116241944 289489625 -1435741676</internalNodes>
          <leafValues>
            -6.3023561239242554e-01 2.9772254824638367e-01</leafValues></_>
        <_>
          <internalNodes>
            0 -1 4 654813019 236019713 16786521 -964640703 159824
            1141407747 -360656236 -559895880</internalNodes>
          <leafValues>
            -4.5982503890991211e-01 4.5454239845275879e-01</leafValues></_></weakClassifiers></_>
    <!-- stage 8 -->
    <_>
      <maxWeakCount>7</maxWeakCount>
      <stageThreshold>-1.5188859701156616e+00</stageThreshold>
      <weakClassifiers>
        <_>
          <internalNodes>
            0 -1 29 1905719774 -658079728 -2138975851 595689827
            -2138535733 -1702887254 -2002676193 2144059291</internalNodes>
          <leafValues>
            -5.5612683296203613e-01 3.9831158518791199e-01</leafValues></_>
        <_>
          <internalNodes>
            0 -1 106 -723523521 1049772049 -1878588979 2047066243
            -2147299309 -366279885 -2121755876 4196874</internalNodes>
          <leafValues>
            -6.7432355880737305e-01 3.1169366836547852e-01</leafValues></_>
        <_>
          <internalNodes>
            0 -1 97 290453282 -1122626543 -1828679270 -1492591521
            -909538662 -1610530688 -931067210 -1685673026</internalNodes>
          <leafValues>
            -4.6724611520767212e-01 3.9930903911590576e-01</leafValues></_>
        <_>
          <internalNodes>
            0 -1 83 -552373285 1075123923 1410077787 -1000501093
            -1434415020 -1927278464 1889855568 1405743107</internalNodes>
          <leafValues>
            -4.0121865272521973e-01 5.2620154619216919e-01</leafValues></_>
        <_>
          <internalNodes>
            0 -1 93 -1035304442 537526420 268505462 -544141150 973153032
            -1063256056 -1065250098 -1865471262</internalNodes>
          <leafValues>
            -4.7880440950393677e-01 3.7663334608078003e-01</leafValues></_>
        <_>
          <internalNodes>
            0 -1 111 -4735105 527236798 -1342197838 1060564967
            1878900698 -1094778946 -1107309390 -671158278</internalNodes>
          <leafValues>
            -4.2331129312515259e-01 4.6621981263160706e-01</leafValues></_>
        <_>
          <internalNodes>
            0 -1 53 1363707927 1467125911 -905965294 -665157290
            1078487729 1798054016 412113248 -24410450</internalNodes>
          <leafValues>
            -4.3129247426986694e-01 4.4828468561172485e-01</leafValues></_></weakClassifiers></_>
    <!-- stage 9 -->
    <_>
      <maxWeakCount>7</maxWeakCount>
      <stageThreshold>-8.3431994915008545e-01</stageThreshold>
      <weakClassifiers>
        <_>
          <internalNodes>
            0 -1 123 -547367201 1473757198 1360007427 -1773043083
            -1508974193 -586612672 689153614 183231183</internalNodes>
          <leafValues>
            -5.2088260650634766e-01 4.4213154911994934e-01</leafValues></_>
        <_>
          <internalNodes>
            0 -1 28 1828712447 2147303166 1073213306 -1224785946
            -839095228 -318810251 2130534399 -4458625</internalNodes>
          <leafValues>
            -4.2223879694938660e-01 4.9574327468872070e-01</leafValues></_>
        <_>
          <internalNodes>
            0 -1 108 -2012339200 721551572 -1056730476 -1808789420
            -1047887869 -536805244 -1199465848 -662568476</internalNodes>
          <leafValues>
            -5.3207802772521973e-01 3.5714027285575867e-01</leafValues></_>
        <_>
          <internalNodes>
            0 -1 36 -645715970 1502630110 -733999600 -917110576
            176690308 427950093 -578596844 -16637670</internalNodes>
          <leafValues>
            -5.3221595287322998e-01 3.9464119076728821e-01</leafValues></_>
        <_>
          <internalNodes>
            0 -1 1 -528264225 -569978343 -2097114683 1296564238 15070
            -1071923062 1082802297 1799871588</internalNodes>
          <leafValues>
            -5.0552791357040405e-01 3.5870417952537537e-01</leafValues></_>
        <_>
          <internalNodes>
            0 -1 42 -468234217 -1173335501 134239362 1523597568
            -788146027 -209125374 -905738119 1267311130</internalNodes>
          <leafValues>
            -4.7382211685180664e-01 3.9597183465957642e-01</leafValues></_>
        <_>
          <internalNodes>
            0 -1 120 -669259962 554979348 -805041700 325468248
            -1073675423 553748608 -838219038 -2136227339</internalNodes>
          <leafValues>
            -4.7079890966415405e-01 4.3956336379051208e-01</leafValues></_></weakClassifiers></_>
    <!-- stage 10 -->
    <_>
      <maxWeakCount>7</maxWeakCount>
      <stageThreshold>-1.4916601181030273e+00</stageThreshold>
      <weakClassifiers>
        <_>
          <internalNodes>
            0 -1 49 272832817 -1454243807 -771599783 -3145720 1233173408
            -930119671 -1736430376 -611800660</internalNodes>
          <leafValues>
            -5.3032660484313965e-01 4.6621620655059814e-01</leafValues></_>
        <_>
          <internalNodes>
            0 -1 55 922866395 1553057808 1493256410 1057505287
            -232944851 -108492664 -435509033 54569930</internalNodes>
          <leafValues>
            -4.5646393299102783e-01 4.2554897069931030e-01</leafValues></_>
        <_>
          <internalNodes>
            0 -1 80 303810608 211013895 -1023393467 353136659
            -1786763619 -1388451774 -1761394682 1053737723</internalNodes>
          <leafValues>
            -6.5677565336227417e-01 2.7734810113906860e-01</leafValues></_>
        <_>
          <internalNodes>
            0 -1 86 1717446199 495962371 33536 -1717794792 1788871027
            1344799368 824234177 -1915844130</internalNodes>
          <leafValues>
            -5.1939880847930908e-01 3.4307557344436646e-01</leafValues></_>
        <_>
          <internalNodes>
            0 -1 103 -765762936 -620167159 1359036696 -1794014968
            1342210062 1252591754 -1207922228 -112539174</internalNodes>
          <leafValues>
            -4.2423391342163086e-01 4.3184432387351990e-01</leafValues></_>
        <_>
          <internalNodes>
            0 -1 17 1818223355 1074921472 201326673 -1143717868
            -2071020862 -1962309599 -1098871900 -272477368</internalNodes>
          <leafValues>
            -4.0003144741058350e-01 4.6138474345207214e-01</leafValues></_>
        <_>
          <internalNodes>
            0 -1 52 1233327391 605487320 293706395 -2079309737
            -637254343 -266166270 -57982888 -356560128</internalNodes>
          <leafValues>
            -4.3509629368782043e-01 4.2373698949813843e-01</leafValues></_></weakClassifiers></_>
    <!-- stage 11 -->
    <_>
      <maxWeakCount>9</maxWeakCount>
      <stageThreshold>-1.0025869607925415e+00</stageThreshold>
      <weakClassifiers>
        <_>
          <internalNodes>
            0 -1 62 -313791272 -390020975 335561163 211615833
            -1006554689 -929955654 -1014445961 -1970540362</internalNodes>
          <leafValues>
            -5.1765722036361694e-01 3.5981664061546326e-01</leafValues></_>
        <_>
          <internalNodes>
            0 -1 51 -569195 -9572369 -214159 -1443058945 -1644774427
            -1342382609 938775504 -117920821</internalNodes>
          <leafValues>
            -3.9183810353279114e-01 4.8263660073280334e-01</leafValues></_>
        <_>
          <internalNodes>
            0 -1 151 -1477214209 524075007 -16388 -1078186500 -302026753
            -33558785 2147483518 -1358987465</internalNodes>
          <leafValues>
            -3.9980125427246094e-01 4.8769009113311768e-01</leafValues></_>
        <_>
          <internalNodes>
            0 -1 112 1931426525 529326104 -2130695120 -1647148898
            1690511904 982256291 -1324637282 -1195322477</internalNodes>
          <leafValues>
            -4.6402943134307861e-01 3.9060786366462708e-01</leafValues></_>
        <_>
          <internalNodes>
            0 -1 5 -70431490 1354301582 65874 2084570138 -628620800
            453050889 -402620369 -1324930797</internalNodes>
          <leafValues>
            -5.4141974449157715e-01 3.3548143506050110e-01</leafValues></_>
        <_>
          <internalNodes>
            0 -1 20 1096171751 957001946 -2112023630 -1094414262
            1216950659 -2004156275 -2104749870 1253388358</internalNodes>
          <leafValues>
            -5.4622077941894531e-01 3.1839126348495483e-01</leafValues></_>
        <_>
          <internalNodes>
            0 -1 121 -620030155 1179910145 -805142434 -1110408944
            -1845374766 1207967744 -802551804 -1092216192</internalNodes>
          <leafValues>
            -4.1102734208106995e-01 4.2335757613182068e-01</leafValues></_>
        <_>
          <internalNodes>
            0 -1 41 1859355511 491389209 436295702 -931130694 39866736
            1390430208 -1205710222 2092767910</internalNodes>
          <leafValues>
            -6.0127240419387817e-01 2.7127215266227722e-01</leafValues></_>
        <_>
          <internalNodes>
            0 -1 140 1771025202 791138385 134283776 2119946432 136396881
            155713537 -2036264068 1005103851</internalNodes>
          <leafValues>
            -5.7837885618209839e-01 3.2228127121925354e-01</leafValues></_></weakClassifiers></_>
    <!-- stage 12 -->
    <_>
      <maxWeakCount>9</maxWeakCount>
      <stageThreshold>-7.5735074281692505e-01</stageThreshold>
      <weakClassifiers>
        <_>
          <internalNodes>
            0 -1 10 -1048581 -17928454 -9 2013118190 -805351937 -37675
            -4609 -8197</internalNodes>
          <leafValues>
            -3.4555873274803162e-01 6.5241378545761108e-01</leafValues></_>
        <_>
          <internalNodes>
            0 -1 69 2130689877 -67108993 -16385 -705696514 1710751741
            -1073816578 -922755097 -922746945</internalNodes>
          <leafValues>
            -3.2566466927528381e-01 5.8108741044998169e-01</leafValues></_>
        <_>
          <internalNodes>
            0 -1 75 -488921957 -1809956799 -1525661608 269013299
            38324593 -223772640 -1962901296 -350741701</internalNodes>
          <leafValues>
            -4.1532781720161438e-01 4.2540886998176575e-01</leafValues></_>
        <_>
          <internalNodes>
            0 -1 63 1885402798 -635240581 -276844698 1172535073
            -151853410 -591921297 -437063763 -818158066</internalNodes>
          <leafValues>
            -3.7326461076736450e-01 4.7088834643363953e-01</leafValues></_>
        <_>
          <internalNodes>
            0 -1 78 1787170103 731744733 -1861734320 -1713618928
            1342203954 2024902814 -904976191 -375731696</internalNodes>
          <leafValues>
            -5.4395771026611328e-01 3.4671658277511597e-01</leafValues></_>
        <_>
          <internalNodes>
            0 -1 107 -1178586550 -757047216 268553213 1947437573
            50573568 -1962867631 -938347781 1095188488</internalNodes>
          <leafValues>
            -5.1293468475341797e-01 3.5301500558853149e-01</leafValues></_>
        <_>
          <internalNodes>
            0 -1 153 386212734 344113159 -1610267647 522145906
            -779304169 403210370 -751308683 -357771276</internalNodes>
          <leafValues>
            -5.2446275949478149e-01 3.4124594926834106e-01</leafValues></_>
        <_>
          <internalNodes>
            0 -1 126 -195308216 654524547 1074796950 -854245373
            1149354392 257032218 -1845491404 232501498</internalNodes>
          <leafValues>
            -6.2772071361541748e-01 3.4843662381172180e-01</leafValues></_>
        <_>
          <internalNodes>
            0 -1 67 2098127619 1041760580 486637662 26068223 276914884
            -1467367264 -1442793924 747154318</internalNodes>
          <leafValues>
            -5.1931893825531006e-01 3.3914589881896973e-01</leafValues></_></weakClassifiers></_>
    <!-- stage 13 -->
    <_>
      <maxWeakCount>9</maxWeakCount>
      <stageThreshold>-9.3284606933593750e-01</stageThreshold>
      <weakClassifiers>
        <_>
          <internalNodes>
            0 -1 135 -725625419 -117440833 -785 -1091105409 -50341680
            -352649473 -587728744 -1141113105</internalNodes>
          <leafValues>
            -3.6062613129615784e-01 5.7972806692123413e-01</leafValues></_>
        <_>
          <internalNodes>
            0 -1 64 -615832826 1495272240 -201256610 294388498
            -914334060 -1943926704 -922614274 954814592</internalNodes>
          <leafValues>
            -6.5829604864120483e-01 2.7821922302246094e-01</leafValues></_>
        <_>
          <internalNodes>
            0 -1 116 -1051600689 2022936728 151044549 604488067
            1208647695 -385646520 170723394 1073832751</internalNodes>
          <leafValues>
            -5.3721791505813599e-01 3.2986691594123840e-01</leafValues></_>
        <_>
          <internalNodes>
            0 -1 37 2097122225 780074991 -1073759237 -1074332049 -16427
            -370148395 -138626311 -1957950836</internalNodes>
          <leafValues>
            -3.9226388931274414e-01 4.7410842776298523e-01</leafValues></_>
        <_>
          <internalNodes>
            0 -1 115 -665077314 1014268179 1073841424 298960321
            269035912 170921985 940081802 217895803</internalNodes>
          <leafValues>
            -5.5359655618667603e-01 3.0860069394111633e-01</leafValues></_>
        <_>
          <internalNodes>
            0 -1 13 -740297729 -1245937531 17029417 1078329559
            1225120425 -301776695 1098932804 1427842367</internalNodes>
          <leafValues>
            -4.5496898889541626e-01 3.9283117651939392e-01</leafValues></_>
        <_>
          <internalNodes>
            0 -1 134 1520214 738623507 536936727 -1303244670 671744712
            688640 -662486448 -1359062055</internalNodes>
          <leafValues>
            -6.3695824146270752e-01 3.1743821501731873e-01</leafValues></_>
        <_>
          <internalNodes>
            0 -1 146 1372042080 1569777002 -718253790 1430263860
            -2122085696 302156162 -930578233 -330446360</internalNodes>
          <leafValues>
            -4.3833252787590027e-01 4.4434273242950439e-01</leafValues></_>
        <_>
          <internalNodes>
            0 -1 16 -26314753 778895334 -1249297 1744044007 -43548806
            2138931030 2004353006 -75630770</internalNodes>
          <leafValues>
            -3.8180395960807800e-01 5.0375974178314209e-01</leafValues></_></weakClassifiers></_>
    <!-- stage 14 -->
    <_>
      <maxWeakCount>9</maxWeakCount>
      <stageThreshold>-9.8821133375167847e-01</stageThreshold>
      <weakClassifiers>
        <_>
          <internalNodes>
            0 -1 59 -201344201 -1078018433 -9 -1082593477 -67305473
            -8519684 -484424 -284644703</internalNodes>
          <leafValues>
            -4.0389609336853027e-01 5.2903223037719727e-01</leafValues></_>
        <_>
          <internalNodes>
            0 -1 113 184693619 287391874 -1879027433 -1945598955
            1411976321 -385351528 -2079628840 -1429265154</internalNodes>
          <leafValues>
            -6.0244119167327881e-01 3.1187510490417480e-01</leafValues></_>
        <_>
          <internalNodes>
            0 -1 117 2077097471 1728413833 1360675036 219153694
            -1841075517 1216544803 436620123 19075923</internalNodes>
          <leafValues>
            -4.9383771419525146e-01 3.6910715699195862e-01</leafValues></_>
        <_>
          <internalNodes>
            0 -1 94 1992031906 -1615134857 -1359020033 -134283458
            -17334856 -1669300226 -16779348 -587268100</internalNodes>
          <leafValues>
            -3.5712602734565735e-01 5.1206177473068237e-01</leafValues></_>
        <_>
          <internalNodes>
            0 -1 7 840373233 -1432976685 352322450 -2109603746
            -1744633359 -1148649343 -1878512928 1581259342</internalNodes>
          <leafValues>
            -5.7262754440307617e-01 3.0909651517868042e-01</leafValues></_>
        <_>
          <internalNodes>
            0 -1 32 -604374059 -1592671999 16863645 17399822 1237901987
            -117407607 2013481179 223732378</internalNodes>
          <leafValues>
            -4.8523116111755371e-01 3.7209048867225647e-01</leafValues></_>
        <_>
          <internalNodes>
            0 -1 22 501403692 1083050258 286382557 1075861843
            -1635568893 -1626402686 1342730371 1386970557</internalNodes>
          <leafValues>
            -5.8469802141189575e-01 3.0473676323890686e-01</leafValues></_>
        <_>
          <internalNodes>
            0 -1 88 709623861 345085187 1124167953 268582989 -1039982299
            1503264906 -461350406 -1432694582</internalNodes>
          <leafValues>
            -4.9133828282356262e-01 3.6210522055625916e-01</leafValues></_>
        <_>
          <internalNodes>
            0 -1 144 1289745402 205955780 9768962 -1124040651 1082295373
            68683778 1091207594 -452109696</internalNodes>
          <leafValues>
            -4.6102562546730042e-01 3.9716154336929321e-01</leafValues></_></weakClassifiers></_>
    <!-- stage 15 -->
    <_>
      <maxWeakCount>10</maxWeakCount>
      <stageThreshold>-9.0849071741104126e-01</stageThreshold>
      <weakClassifiers>
        <_>
          <internalNodes>
            0 -1 21 -1052886 -1310729 -67585 -4196617 -41951233
            -135530625 -277348881 -75500941</internalNodes>
          <leafValues>
            -3.8314175605773926e-01 5.1991152763366699e-01</leafValues></_>
        <_>
          <internalNodes>
            0 -1 148 -932723745 251379999 536940894 105758995 2039251087
            1656881152 1209622579 1496802067</internalNodes>
          <leafValues>
            -4.4287267327308655e-01 3.9832457900047302e-01</leafValues></_>
        <_>
          <internalNodes>
            0 -1 84 429853422 -528318394 -2143252217 -70376875
            -1795041997 1250558080 -221859537 244156816</internalNodes>
          <leafValues>
            -6.4882516860961914e-01 2.6706966757774353e-01</leafValues></_>
        <_>
          <internalNodes>
            0 -1 54 -1810243371 251942083 1392595387 738246741
            -2138929075 -618070009 -2147438448 1678447274</internalNodes>
          <leafValues>
            -5.1203006505966187e-01 3.3499747514724731e-01</leafValues></_>
        <_>
          <internalNodes>
            0 -1 130 -1647979571 1402028033 1224839353 293654536
            412100156 520224905 1502214168 46238607</internalNodes>
          <leafValues>
            -4.6753767132759094e-01 3.6360335350036621e-01</leafValues></_>
        <_>
          <internalNodes>
            0 -1 147 -622341641 597655561 -2147102711 1631290627
            403266151 1208656000 554221575 1159816453</internalNodes>
          <leafValues>
            -5.4345583915710449e-01 2.9844531416893005e-01</leafValues></_>
        <_>
          <internalNodes>
            0 -1 89 -492138378 2130755586 1367640280 928039447
            -1743634264 -2105408885 679513736 683766411</internalNodes>
          <leafValues>
            -5.4223155975341797e-01 3.3038872480392456e-01</leafValues></_>
        <_>
          <internalNodes>
            0 -1 132 1745880342 -1978658653 553713689 -1123676078
            80347248 -1199374327 -1274998419 -1598674428</internalNodes>
          <leafValues>
            -5.8123302459716797e-01 3.2016584277153015e-01</leafValues></_>
        <_>
          <internalNodes>
            0 -1 39 1343602877 -1155923901 268538329 -368930624
            -1442296129 -1156906974 1645456044 -2012738581</internalNodes>
          <leafValues>
            -4.8489722609519958e-01 3.5145303606987000e-01</leafValues></_>
        <_>
          <internalNodes>
            0 -1 47 1933631747 621805931 1073741889 69275722 -1040050085
            -226260980 1073827854 1165046123</internalNodes>
          <leafValues>
            -6.0811591148376465e-01 2.8181660175323486e-01</leafValues></_></weakClassifiers></_>
    <!-- stage 16 -->
    <_>
      <maxWeakCount>7</maxWeakCount>
      <stageThreshold>-7.7802681922912598e-01</stageThreshold>
      <weakClassifiers>
        <_>
          <internalNodes>
            0 -1 3 1877934059 -2359369 -65537 1605074551 -33554433 -1153
            -8749569 -852101257</internalNodes>
          <leafValues>
            -4.3866944313049316e-01 4.8977604508399963e-01</leafValues></_>
        <_>
          <internalNodes>
            0 -1 128 -665063225 1594200096 67223573 437355473 -788412543
            -1660501886 -535723840 14404040</internalNodes>
          <leafValues>
            -5.4093366861343384e-01 3.9124736189842224e-01</leafValues></_>
        <_>
          <internalNodes>
            0 -1 154 -934482501 1624572049 -2130519289 84312267
            272674979 -2104827895 286417173 1091897697</internalNodes>
          <leafValues>
            -5.7281619310379028e-01 3.2488656044006348e-01</leafValues></_>
        <_>
          <internalNodes>
            0 -1 35 1477124550 -871676847 33751390 -1740533293
            -519927294 -1098350550 270540885 -1658825511</internalNodes>
          <leafValues>
            -4.6264812350273132e-01 4.1588121652603149e-01</leafValues></_>
        <_>
          <internalNodes>
            0 -1 145 -477640945 671191125 -1862135335 -717876783
            805393665 1541177986 -82122282 -4924213</internalNodes>
          <leafValues>
            -4.5525178313255310e-01 4.2371693253517151e-01</leafValues></_>
        <_>
          <internalNodes>
            0 -1 122 1159445925 -1541860863 41859 -157662448 9290112
            -1970667390 -2147122208 -1261565298</internalNodes>
          <leafValues>
            -4.5335420966148376e-01 4.0507179498672485e-01</leafValues></_>
        <_>
          <internalNodes>
            0 -1 141 -1321282602 -1252834723 16781620 337166609
            545439775 -595591168 428376267 92914604</internalNodes>
          <leafValues>
            -4.6869122982025146e-01 4.0869122743606567e-01</leafValues></_></weakClassifiers></_>
    <!-- stage 17 -->
    <_>
      <maxWeakCount>11</maxWeakCount>
      <stageThreshold>-8.9159399271011353e-01</stageThreshold>
      <weakClassifiers>
        <_>
          <internalNodes>
            0 -1 149 222909079 538478791 1883328533 467031320 -346021439
            -1996388063 -234272149 -1571421397</internalNodes>
          <leafValues>
            -4.7186148166656494e-01 3.1558936834335327e-01</leafValues></_>
        <_>
          <internalNodes>
            0 -1 136 1415166815 279134978 554697219 237842 1502695499
            1115686912 1074862634 1107796523</internalNodes>
          <leafValues>
            -4.2881268262863159e-01 3.6555278301239014e-01</leafValues></_>
        <_>
          <internalNodes>
            0 -1 127 -1027210752 -925659056 -989805992 -1738764016
            1744998448 738852867 -2113386368 -1598889260</internalNodes>
          <leafValues>
            -5.3166282176971436e-01 3.0204448103904724e-01</leafValues></_>
        <_>
          <internalNodes>
            0 -1 74 -2129547225 1063366725 -1878949547 756908245 34834
            -1417609076 -2138570640 -1450475368</internalNodes>
          <leafValues>
            -4.0134114027023315e-01 4.0443477034568787e-01</leafValues></_>
        <_>
          <internalNodes>
            0 -1 61 820202219 -75633089 804432895 2138142643 989853657
            -1867285057 -184700226 -1017395078</internalNodes>
          <leafValues>
            -3.4259119629859924e-01 4.3347927927970886e-01</leafValues></_>
        <_>
          <internalNodes>
            0 -1 137 -1987902954 -2147352184 1350606998 -1181089766
            1476397312 -2129985406 -2147284791 -1465513870</internalNodes>
          <leafValues>
            -4.5384532213211060e-01 3.4539842605590820e-01</leafValues></_>
        <_>
          <internalNodes>
            0 -1 27 -1022001026 138478848 -1609564152 -1660059629
            1368082620 688425481 -1976932267 -9666241</internalNodes>
          <leafValues>
            -4.1493955254554749e-01 4.0046700835227966e-01</leafValues></_>
        <_>
          <internalNodes>
            0 -1 99 1497080179 1312817503 1074010251 -2008784870
            -368320196 2013286914 1234212944 -274005069</internalNodes>
          <leafValues>
            -3.7168046832084656e-01 4.3971526622772217e-01</leafValues></_>
        <_>
          <internalNodes>
            0 -1 11 1652619775 1359611024 16779288 -1944813568
            -1836432272 -1442229877 -1039529957 -1383517665</internalNodes>
          <leafValues>
            -4.3586596846580505e-01 3.9740198850631714e-01</leafValues></_>
        <_>
          <internalNodes>
            0 -1 124 1115936268 -1946124093 805339475 1342279697
            -2097028984 813940739 285462683 86708480</internalNodes>
          <leafValues>
            -6.0928553342819214e-01 2.6484814286231995e-01</leafValues></_>
        <_>
          <internalNodes>
            0 -1 6 805679583 2073395209 16778131 1780220122 167976186
            310673414 369225915 1779239563</internalNodes>
          <leafValues>
            -4.4308197498321533e-01 3.6690518260002136e-01</leafValues></_></weakClassifiers></_>
    <!-- stage 18 -->
    <_>
      <maxWeakCount>10</maxWeakCount>
      <stageThreshold>-1.2086523771286011e+00</stageThreshold>
      <weakClassifiers>
        <_>
          <internalNodes>
            0 -1 85 -817515210 2064058634 16849369 1065826709 -770088823
            -1038942079 -1585281846 996741547</internalNodes>
          <leafValues>
            -5.5206286907196045e-01 2.9752066731452942e-01</leafValues></_>
        <_>
          <internalNodes>
            0 -1 150 -642795849 830205683 -1350582412 858816040
            1073479547 -1207959683 -4113 -1074135366</internalNodes>
          <leafValues>
            -3.2104527950286865e-01 5.3163743019104004e-01</leafValues></_>
        <_>
          <internalNodes>
            0 -1 92 -818282561 921693934 1069545325 -1963115400
            -806002866 -1084227713 116870486 152565198</internalNodes>
          <leafValues>
            -3.9895993471145630e-01 4.3330654501914978e-01</leafValues></_>
        <_>
          <internalNodes>
            0 -1 58 1396738026 -574519257 22544533 -510573551
            -2013208434 -1903177663 -922742510 -905805814</internalNodes>
          <leafValues>
            -4.3092539906501770e-01 3.8894784450531006e-01</leafValues></_>
        <_>
          <internalNodes>
            0 -1 138 -994685914 -2004135920 17828347 -787316208
            681181953 1216907336 -1996277704 -200563709</internalNodes>
          <leafValues>
            -4.4238004088401794e-01 3.7825509905815125e-01</leafValues></_>
        <_>
          <internalNodes>
            0 -1 91 -935251355 855983119 285212689 -603864931 -645363648
            2078277633 -1878480714 -91486071</internalNodes>
          <leafValues>
            -4.1606530547142029e-01 4.0078946948051453e-01</leafValues></_>
        <_>
          <internalNodes>
            0 -1 24 -1043349297 276889601 1073750081 604045336 277395856
            -1986527222 -1065299420 -1965369213</internalNodes>
          <leafValues>
            -3.5932669043540955e-01 4.5600965619087219e-01</leafValues></_>
        <_>
          <internalNodes>
            0 -1 96 567645430 421072917 135612544 629194781 -1064628087
            143425737 33555130 -946683262</internalNodes>
          <leafValues>
            -6.0211223363876343e-01 2.7378788590431213e-01</leafValues></_>
        <_>
          <internalNodes>
            0 -1 40 -262846123 -476999671 293732811 -133938093
            -662290321 -2071363455 1343754952 -7022236</internalNodes>
          <leafValues>
            -4.9452874064445496e-01 3.6158406734466553e-01</leafValues></_>
        <_>
          <internalNodes>
            0 -1 90 -423087878 1157714176 285216848 325912839 1610666120
            444600321 942254171 544557579</internalNodes>
          <leafValues>
            -5.9346354007720947e-01 2.9973962903022766e-01</leafValues></_></weakClassifiers></_>
    <!-- stage 19 -->
    <_>
      <maxWeakCount>9</maxWeakCount>
      <stageThreshold>-9.0437972545623779e-01</stageThreshold>
      <weakClassifiers>
        <_>
          <internalNodes>
            0 -1 135 -608513807 -100663617 -66393 -5333909 -58746659
            -33882884 502790392 -1176772949</internalNodes>
          <leafValues>
            -3.3034715056419373e-01 6.7251461744308472e-01</leafValues></_>
        <_>
          <internalNodes>
            0 -1 34 -1072639590 285263298 17305872 -787185600 545800331
            134299656 2186 2055801355</internalNodes>
          <leafValues>
            -5.4579317569732666e-01 3.6924955248832703e-01</leafValues></_>
        <_>
          <internalNodes>
            0 -1 118 1308069072 -167948305 -1124096010 -537018440
            1910347207 -828403748 -1359050034 -571721867</internalNodes>
          <leafValues>
            -3.2070896029472351e-01 6.5277397632598877e-01</leafValues></_>
        <_>
          <internalNodes>
            0 -1 68 -138641703 1560133358 -16846851 -322187308 -69356223
            -160047361 903342868 -1176428717</internalNodes>
          <leafValues>
            -3.9592796564102173e-01 5.0796449184417725e-01</leafValues></_>
        <_>
          <internalNodes>
            0 -1 33 1145040707 1249738622 -1963297289 1174388587
            -1533242429 1458962293 1559614981 -1077149794</internalNodes>
          <leafValues>
            -3.2201686501502991e-01 5.7877105474472046e-01</leafValues></_>
        <_>
          <internalNodes>
            0 -1 101 -800997008 -2112745471 337 -1862270974 -1996447731
            69206017 -1333755750 1225369608</internalNodes>
          <leafValues>
            -4.5394080877304077e-01 4.2953184247016907e-01</leafValues></_>
        <_>
          <internalNodes>
            0 -1 30 805933202 -1660862464 16977940 2014855201 1073799328
            -2096627583 1233258633 170428682</internalNodes>
          <leafValues>
            -4.5779213309288025e-01 4.4982308149337769e-01</leafValues></_>
        <_>
          <internalNodes>
            0 -1 76 -436767334 552692927 -822965389 157396593 2054659541
            1022459767 115663612 -565992374</internalNodes>
          <leafValues>
            -3.5615116357803345e-01 6.0370874404907227e-01</leafValues></_>
        <_>
          <internalNodes>
            0 -1 46 1074294815 268517376 16859136 1495334914 8984715
            -2147481596 807534745 -1173683648</internalNodes>
          <leafValues>
            -4.4142454862594604e-01 5.2384305000305176e-01</leafValues></_></weakClassifiers></_></stages>
  <features>
    <_>
      <rect>
        0 1 11 5</rect></_>
    <_>
      <rect>
        0 2 7 4</rect></_>
    <_>
      <rect>
        0 2 8 4</rect></_>
    <_>
      <rect>
        0 2 10 4</rect></_>
    <_>
      <rect>
        0 5 4 4</rect></_>
    <_>
      <rect>
        0 9 10 3</rect></_>
    <_>
      <rect>
        1 0 2 1</rect></_>
    <_>
      <rect>
        1 0 15 3</rect></_>
    <_>
      <rect>
        1 1 5 4</rect></_>
    <_>
      <rect>
        1 3 9 3</rect></_>
    <_>
      <rect>
        1 8 11 3</rect></_>
    <_>
      <rect>
        1 10 11 3</rect></_>
    <_>
      <rect>
        2 8 9 3</rect></_>
    <_>
      <rect>
        3 1 1 1</rect></_>
    <_>
      <rect>
        3 3 10 4</rect></_>
    <_>
      <rect>
        3 3 10 5</rect></_>
    <_>
      <rect>
        3 7 9 2</rect></_>
    <_>
      <rect>
        3 11 6 3</rect></_>
    <_>
      <rect>
        3 12 12 2</rect></_>
    <_>
      <rect>
        4 0 15 2</rect></_>
    <_>
      <rect>
        4 1 7 3</rect></_>
    <_>
      <rect>
        4 4 8 3</rect></_>
    <_>
      <rect>
        4 4 9 5</rect></_>
    <_>
      <rect>
        4 8 10 4</rect></_>
    <_>
      <rect>
        4 11 6 3</rect></_>
    <_>
      <rect>
        5 2 5 4</rect></_>
    <_>
      <rect>
        5 9 7 2</rect></_>
    <_>
      <rect>
        5 10 4 3</rect></_>
    <_>
      <rect>
        5 10 9 3</rect></_>
    <_>
      <rect>
        6 2 11 6</rect></_>
    <_>
      <rect>
        6 3 14 2</rect></_>
    <_>
      <rect>
        6 8 7 2</rect></_>
    <_>
      <rect>
        6 12 1 1</rect></_>
    <_>
      <rect>
        6 13 5 2</rect></_>
    <_>
      <rect>
        7 9 9 2</rect></_>
    <_>
      <rect>
        8 0 9 2</rect></_>
    <_>
      <rect>
        8 10 5 2</rect></_>
    <_>
      <rect>
        9 1 11 3</rect></_>
    <_>
      <rect>
        9 10 6 2</rect></_>
    <_>
      <rect>
        10 3 13 2</rect></_>
    <_>
      <rect>
        10 5 2 1</rect></_>
    <_>
      <rect>
        10 10 5 3</rect></_>
    <_>
      <rect>
        11 0 13 3</rect></_>
    <_>
      <rect>
        11 2 10 6</rect></_>
    <_>
      <rect>
        11 2 11 6</rect></_>
    <_>
      <rect>
        11 5 5 2</rect></_>
    <_>
      <rect>
        11 8 1 1</rect></_>
    <_>
      <rect>
        11 15 1 1</rect></_>
    <_>
      <rect>
        12 0 9 3</rect></_>
    <_>
      <rect>
        12 3 10 2</rect></_>
    <_>
      <rect>
        12 8 12 4</rect></_>
    <_>
      <rect>
        13 2 7 2</rect></_>
    <_>
      <rect>
        13 8 1 1</rect></_>
    <_>
      <rect>
        13 10 3 2</rect></_>
    <_>
      <rect>
        13 10 12 2</rect></_>
    <_>
      <rect>
        14 3 8 3</rect></_>
    <_>
      <rect>
        14 4 7 3</rect></_>
    <_>
      <rect>
        14 8 7 2</rect></_>
    <_>
      <rect>
        15 4 4 3</rect></_>
    <_>
      <rect>
        16 3 9 2</rect></_>
    <_>
      <rect>
        16 4 7 3</rect></_>
    <_>
      <rect>
        16 5 6 2</rect></_>
    <_>
      <rect>
        16 5 11 3</rect></_>
    <_>
      <rect>
        16 6 5 2</rect></_>
    <_>
      <rect>
        16 7 4 3</rect></_>
    <_>
      <rect>
        16 9 3 1</rect></_>
    <_>
      <rect>
        16 9 10 3</rect></_>
    <_>
      <rect>
        16 10 9 3</rect></_>
    <_>
      <rect>
        17 0 7 2</rect></_>
    <_>
      <rect>
        17 1 11 4</rect></_>
    <_>
      <rect>
        17 6 6 2</rect></_>
    <_>
      <rect>
        17 8 2 1</rect></_>
    <_>
      <rect>
        17 9 3 2</rect></_>
    <_>
      <rect>
        17 10 10 2</rect></_>
    <_>
      <rect>
        17 12 10 1</rect></_>
    <_>
      <rect>
        18 0 8 3</rect></_>
    <_>
      <rect>
        18 6 5 2</rect></_>
    <_>
      <rect>
        18 10 10 2</rect></_>
    <_>
      <rect>
        18 13 4 1</rect></_>
    <_>
      <rect>
        19 2 10 5</rect></_>
    <_>
      <rect>
        19 4 10 5</rect></_>
    <_>
      <rect>
        19 5 10 4</rect></_>
    <_>
      <rect>
        19 11 5 3</rect></_>
    <_>
      <rect>
        20 0 6 2</rect></_>
    <_>
      <rect>
        20 1 7 6</rect></_>
    <_>
      <rect>
        20 7 3 3</rect></_>
    <_>
      <rect>
        20 12 4 2</rect></_>
    <_>
      <rect>
        21 6 3 2</rect></_>
    <_>
      <rect>
        21 7 1 1</rect></_>
    <_>
      <rect>
        21 8 4 2</rect></_>
    <_>
      <rect>
        21 9 4 2</rect></_>
    <_>
      <rect>
        21 14 9 2</rect></_>
    <_>
      <rect>
        21 16 1 1</rect></_>
    <_>
      <rect>
        22 8 3 1</rect></_>
    <_>
      <rect>
        22 8 9 3</rect></_>
    <_>
      <rect>
        22 9 8 2</rect></_>
    <_>
      <rect>
        22 10 7 2</rect></_>
    <_>
      <rect>
        22 11 8 2</rect></_>
    <_>
      <rect>
        22 11 8 3</rect></_>
    <_>
      <rect>
        23 1 4 2</rect></_>
    <_>
      <rect>
        23 2 6 5</rect></_>
    <_>
      <rect>
        23 6 5 2</rect></_>
    <_>
      <rect>
        23 6 8 2</rect></_>
    <_>
      <rect>
        23 8 5 1</rect></_>
    <_>
      <rect>
        23 10 6 2</rect></_>
    <_>
      <rect>
        23 12 3 1</rect></_>
    <_>
      <rect>
        24 0 7 4</rect></_>
    <_>
      <rect>
        24 4 4 3</rect></_>
    <_>
      <rect>
        24 8 1 1</rect></_>
    <_>
      <rect>
        24 8 4 2</rect></_>
    <_>
      <rect>
        24 9 5 3</rect></_>
    <_>
      <rect>
        24 10 6 2</rect></_>
    <_>
      <rect>
        24 11 4 2</rect></_>
    <_>
      <rect>
        24 12 1 1</rect></_>
    <_>
      <rect>
        25 3 7 3</rect></_>
    <_>
      <rect>
        25 9 3 2</rect></_>
    <_>
      <rect>
        25 17 1 1</rect></_>
    <_>
      <rect>
        26 1 1 1</rect></_>
    <_>
      <rect>
        26 8 3 2</rect></_>
    <_>
      <rect>
        26 8 8 4</rect></_>
    <_>
      <rect>
        26 9 2 1</rect></_>
    <_>
      <rect>
        26 10 1 1</rect></_>
    <_>
      <rect>
        26 10 7 3</rect></_>
    <_>
      <rect>
        27 0 7 5</rect></_>
    <_>
      <rect>
        27 4 3 3</rect></_>
    <_>
      <rect>
        27 5 5 4</rect></_>
    <_>
      <rect>
        27 8 5 2</rect></_>
    <_>
      <rect>
        27 9 1 1</rect></_>
    <_>
      <rect>
        28 0 6 4</rect></_>
    <_>
      <rect>
        28 3 4 4</rect></_>
    <_>
      <rect>
        28 5 7 2</rect></_>
    <_>
      <rect>
        28 6 1 1</rect></_>
    <_>
      <rect>
        28 8 1 1</rect></_>
    <_>
      <rect>
        28 9 1 1</rect></_>
    <_>
      <rect>
        28 11 1 1</rect></_>
    <_>
      <rect>
        29 0 7 3</rect></_>
    <_>
      <rect>
        29 2 1 1</rect></_>
    <_>
      <rect>
        29 8 1 1</rect></_>
    <_>
      <rect>
        29 8 2 1</rect></_>
    <_>
      <rect>
        29 10 1 1</rect></_>
    <_>
      <rect>
        29 10 4 3</rect></_>
    <_>
      <rect>
        30 2 6 5</rect></_>
    <_>
      <rect>
        30 4 6 3</rect></_>
    <_>
      <rect>
        31 6 1 1</rect></_>
    <_>
      <rect>
        32 9 3 2</rect></_>
    <_>
      <rect>
        33 9 2 1</rect></_>
    <_>
      <rect>
        34 6 4 4</rect></_>
    <_>
      <rect>
        34 17 1 1</rect></_>
    <_>
      <rect>
        35 0 1 1</rect></_>
    <_>
      <rect>
        35 7 1 1</rect></_>
    <_>
      <rect>
        36 4 2 4</rect></_>
    <_>
      <rect>
        36 6 1 2</rect></_>
    <_>
      <rect>
        37 4 1 2</rect></_>
    <_>
      <rect>
        38 4 4 5</rect></_>
    <_>
      <rect>
        41 16 1 1</rect></_></features></cascade>
</opencv_storage>
