<?xml version="1.0"?>
<opencv_storage>
<stage13>
  <maxWeakCount>9</maxWeakCount>
  <stageThreshold>-9.3284606933593750e-01</stageThreshold>
  <weakClassifiers>
    <_>
      <internalNodes>
        0 -1 21332 -725625419 -117440833 -785 -1091105409 -50341680
        -352649473 -587728744 -1141113105</internalNodes>
      <leafValues>
        -3.6062613129615784e-01 5.7972806692123413e-01</leafValues></_>
    <_>
      <internalNodes>
        0 -1 14344 -615832826 1495272240 -201256610 294388498 -914334060
        -1943926704 -922614274 954814592</internalNodes>
      <leafValues>
        -6.5829604864120483e-01 2.7821922302246094e-01</leafValues></_>
    <_>
      <internalNodes>
        0 -1 19900 -1051600689 2022936728 151044549 604488067 1208647695
        -385646520 170723394 1073832751</internalNodes>
      <leafValues>
        -5.3721791505813599e-01 3.2986691594123840e-01</leafValues></_>
    <_>
      <internalNodes>
        0 -1 8645 2097122225 780074991 -1073759237 -1074332049 -16427
        -370148395 -138626311 -1957950836</internalNodes>
      <leafValues>
        -3.9226388931274414e-01 4.7410842776298523e-01</leafValues></_>
    <_>
      <internalNodes>
        0 -1 19771 -665077314 1014268179 1073841424 298960321 269035912
        170921985 940081802 217895803</internalNodes>
      <leafValues>
        -5.5359655618667603e-01 3.0860069394111633e-01</leafValues></_>
    <_>
      <internalNodes>
        0 -1 3114 -740297729 -1245937531 17029417 1078329559 1225120425
        -301776695 1098932804 1427842367</internalNodes>
      <leafValues>
        -4.5496898889541626e-01 3.9283117651939392e-01</leafValues></_>
    <_>
      <internalNodes>
        0 -1 21210 1520214 738623507 536936727 -1303244670 671744712
        688640 -662486448 -1359062055</internalNodes>
      <leafValues>
        -6.3695824146270752e-01 3.1743821501731873e-01</leafValues></_>
    <_>
      <internalNodes>
        0 -1 23364 1372042080 1569777002 -718253790 1430263860
        -2122085696 302156162 -930578233 -330446360</internalNodes>
      <leafValues>
        -4.3833252787590027e-01 4.4434273242950439e-01</leafValues></_>
    <_>
      <internalNodes>
        0 -1 3612 -26314753 778895334 -1249297 1744044007 -43548806
        2138931030 2004353006 -75630770</internalNodes>
      <leafValues>
        -3.8180395960807800e-01 5.0375974178314209e-01</leafValues></_></weakClassifiers></stage13>
</opencv_storage>
