<?xml version="1.0"?>
<opencv_storage>
<stage19>
  <maxWeakCount>9</maxWeakCount>
  <stageThreshold>-9.0437972545623779e-01</stageThreshold>
  <weakClassifiers>
    <_>
      <internalNodes>
        0 -1 21332 -608513807 -100663617 -66393 -5333909 -58746659
        -33882884 502790392 -1176772949</internalNodes>
      <leafValues>
        -3.3034715056419373e-01 6.7251461744308472e-01</leafValues></_>
    <_>
      <internalNodes>
        0 -1 7396 -1072639590 285263298 17305872 -787185600 545800331
        134299656 2186 2055801355</internalNodes>
      <leafValues>
        -5.4579317569732666e-01 3.6924955248832703e-01</leafValues></_>
    <_>
      <internalNodes>
        0 -1 20245 1308069072 -167948305 -1124096010 -537018440
        1910347207 -828403748 -1359050034 -571721867</internalNodes>
      <leafValues>
        -3.2070896029472351e-01 6.5277397632598877e-01</leafValues></_>
    <_>
      <internalNodes>
        0 -1 14653 -138641703 1560133358 -16846851 -322187308 -69356223
        -160047361 903342868 -1176428717</internalNodes>
      <leafValues>
        -3.9592796564102173e-01 5.0796449184417725e-01</leafValues></_>
    <_>
      <internalNodes>
        0 -1 6652 1145040707 1249738622 -1963297289 1174388587
        -1533242429 1458962293 1559614981 -1077149794</internalNodes>
      <leafValues>
        -3.2201686501502991e-01 5.7877105474472046e-01</leafValues></_>
    <_>
      <internalNodes>
        0 -1 18647 -800997008 -2112745471 337 -1862270974 -1996447731
        69206017 -1333755750 1225369608</internalNodes>
      <leafValues>
        -4.5394080877304077e-01 4.2953184247016907e-01</leafValues></_>
    <_>
      <internalNodes>
        0 -1 6177 805933202 -1660862464 16977940 2014855201 1073799328
        -2096627583 1233258633 170428682</internalNodes>
      <leafValues>
        -4.5779213309288025e-01 4.4982308149337769e-01</leafValues></_>
    <_>
      <internalNodes>
        0 -1 15656 -436767334 552692927 -822965389 157396593 2054659541
        1022459767 115663612 -565992374</internalNodes>
      <leafValues>
        -3.5615116357803345e-01 6.0370874404907227e-01</leafValues></_>
    <_>
      <internalNodes>
        0 -1 10676 1074294815 268517376 16859136 1495334914 8984715
        -2147481596 807534745 -1173683648</internalNodes>
      <leafValues>
        -4.4142454862594604e-01 5.2384305000305176e-01</leafValues></_></weakClassifiers></stage19>
</opencv_storage>
