<?xml version="1.0"?>
<opencv_storage>
<stage10>
  <maxWeakCount>7</maxWeakCount>
  <stageThreshold>-1.4916601181030273e+00</stageThreshold>
  <weakClassifiers>
    <_>
      <internalNodes>
        0 -1 11224 272832817 -1454243807 -771599783 -3145720 1233173408
        -930119671 -1736430376 -611800660</internalNodes>
      <leafValues>
        -5.3032660484313965e-01 4.6621620655059814e-01</leafValues></_>
    <_>
      <internalNodes>
        0 -1 12727 922866395 1553057808 1493256410 1057505287 -232944851
        -108492664 -435509033 54569930</internalNodes>
      <leafValues>
        -4.5646393299102783e-01 4.2554897069931030e-01</leafValues></_>
    <_>
      <internalNodes>
        0 -1 16218 303810608 211013895 -1023393467 353136659 -1786763619
        -1388451774 -1761394682 1053737723</internalNodes>
      <leafValues>
        -6.5677565336227417e-01 2.7734810113906860e-01</leafValues></_>
    <_>
      <internalNodes>
        0 -1 17116 1717446199 495962371 33536 -1717794792 1788871027
        1344799368 824234177 -1915844130</internalNodes>
      <leafValues>
        -5.1939880847930908e-01 3.4307557344436646e-01</leafValues></_>
    <_>
      <internalNodes>
        0 -1 18718 -765762936 -620167159 1359036696 -1794014968
        1342210062 1252591754 -1207922228 -112539174</internalNodes>
      <leafValues>
        -4.2423391342163086e-01 4.3184432387351990e-01</leafValues></_>
    <_>
      <internalNodes>
        0 -1 3806 1818223355 1074921472 201326673 -1143717868
        -2071020862 -1962309599 -1098871900 -272477368</internalNodes>
      <leafValues>
        -4.0003144741058350e-01 4.6138474345207214e-01</leafValues></_>
    <_>
      <internalNodes>
        0 -1 12210 1233327391 605487320 293706395 -2079309737 -637254343
        -266166270 -57982888 -356560128</internalNodes>
      <leafValues>
        -4.3509629368782043e-01 4.2373698949813843e-01</leafValues></_></weakClassifiers></stage10>
</opencv_storage>
