<?xml version="1.0"?>
<opencv_storage>
<stage8>
  <maxWeakCount>7</maxWeakCount>
  <stageThreshold>-1.5188859701156616e+00</stageThreshold>
  <weakClassifiers>
    <_>
      <internalNodes>
        0 -1 6092 1905719774 -658079728 -2138975851 595689827
        -2138535733 -1702887254 -2002676193 2144059291</internalNodes>
      <leafValues>
        -5.5612683296203613e-01 3.9831158518791199e-01</leafValues></_>
    <_>
      <internalNodes>
        0 -1 18939 -723523521 1049772049 -1878588979 2047066243
        -2147299309 -366279885 -2121755876 4196874</internalNodes>
      <leafValues>
        -6.7432355880737305e-01 3.1169366836547852e-01</leafValues></_>
    <_>
      <internalNodes>
        0 -1 18247 290453282 -1122626543 -1828679270 -1492591521
        -909538662 -1610530688 -931067210 -1685673026</internalNodes>
      <leafValues>
        -4.6724611520767212e-01 3.9930903911590576e-01</leafValues></_>
    <_>
      <internalNodes>
        0 -1 16600 -552373285 1075123923 1410077787 -1000501093
        -1434415020 -1927278464 1889855568 1405743107</internalNodes>
      <leafValues>
        -4.0121865272521973e-01 5.2620154619216919e-01</leafValues></_>
    <_>
      <internalNodes>
        0 -1 18143 -1035304442 537526420 268505462 -544141150 973153032
        -1063256056 -1065250098 -1865471262</internalNodes>
      <leafValues>
        -4.7880440950393677e-01 3.7663334608078003e-01</leafValues></_>
    <_>
      <internalNodes>
        0 -1 19300 -4735105 527236798 -1342197838 1060564967 1878900698
        -1094778946 -1107309390 -671158278</internalNodes>
      <leafValues>
        -4.2331129312515259e-01 4.6621981263160706e-01</leafValues></_>
    <_>
      <internalNodes>
        0 -1 12301 1363707927 1467125911 -905965294 -665157290
        1078487729 1798054016 412113248 -24410450</internalNodes>
      <leafValues>
        -4.3129247426986694e-01 4.4828468561172485e-01</leafValues></_></weakClassifiers></stage8>
</opencv_storage>
