<?xml version="1.0"?>
<opencv_storage>
<stage6>
  <maxWeakCount>7</maxWeakCount>
  <stageThreshold>-1.5868250131607056e+00</stageThreshold>
  <weakClassifiers>
    <_>
      <internalNodes>
        0 -1 14447 2140110391 798343312 83955865 1061230359 -611667814
        -1148484984 -1895266120 -1102323537</internalNodes>
      <leafValues>
        -5.6164383888244629e-01 4.6135067939758301e-01</leafValues></_>
    <_>
      <internalNodes>
        0 -1 12991 -564397966 -50233206 67387485 -682290942 -636968401
        2046890025 -421467926 1931678619</internalNodes>
      <leafValues>
        -5.1446861028671265e-01 4.6622878313064575e-01</leafValues></_>
    <_>
      <internalNodes>
        0 -1 5608 -602212870 -687733748 1342230958 -116080624 1074940497
        1999250058 -485783391 -108562357</internalNodes>
      <leafValues>
        -5.2691411972045898e-01 3.8158342242240906e-01</leafValues></_>
    <_>
      <internalNodes>
        0 -1 16463 1177464147 2146414188 805220083 -1677721793
        1299619817 -33767611 1073721203 -859001865</internalNodes>
      <leafValues>
        -4.1633954644203186e-01 4.9211436510086060e-01</leafValues></_>
    <_>
      <internalNodes>
        0 -1 20997 1943182144 -1793932782 -2146975147 -1257142135
        -1341468529 -1459535872 -642745405 1106068363</internalNodes>
      <leafValues>
        -4.8969188332557678e-01 4.3682053685188293e-01</leafValues></_>
    <_>
      <internalNodes>
        0 -1 4054 -724256258 -368361460 356876344 -837287935 -494892144
        -2088075134 -1979647408 1002031642</internalNodes>
      <leafValues>
        -5.3744858503341675e-01 3.8140067458152771e-01</leafValues></_>
    <_>
      <internalNodes>
        0 -1 17505 1510011394 -1056714349 -1073358767 -1853492988
        -1198986502 -1207730165 -2130149140 -2092805876</internalNodes>
      <leafValues>
        -4.8982536792755127e-01 4.2117586731910706e-01</leafValues></_></weakClassifiers></stage6>
</opencv_storage>
