<?xml version="1.0"?>
<opencv_storage>
<stage17>
  <maxWeakCount>11</maxWeakCount>
  <stageThreshold>-8.9159399271011353e-01</stageThreshold>
  <weakClassifiers>
    <_>
      <internalNodes>
        0 -1 23684 222909079 538478791 1883328533 467031320 -346021439
        -1996388063 -234272149 -1571421397</internalNodes>
      <leafValues>
        -4.7186148166656494e-01 3.1558936834335327e-01</leafValues></_>
    <_>
      <internalNodes>
        0 -1 21378 1415166815 279134978 554697219 237842 1502695499
        1115686912 1074862634 1107796523</internalNodes>
      <leafValues>
        -4.2881268262863159e-01 3.6555278301239014e-01</leafValues></_>
    <_>
      <internalNodes>
        0 -1 20727 -1027210752 -925659056 -989805992 -1738764016
        1744998448 738852867 -2113386368 -1598889260</internalNodes>
      <leafValues>
        -5.3166282176971436e-01 3.0204448103904724e-01</leafValues></_>
    <_>
      <internalNodes>
        0 -1 15228 -2129547225 1063366725 -1878949547 756908245 34834
        -1417609076 -2138570640 -1450475368</internalNodes>
      <leafValues>
        -4.0134114027023315e-01 4.0443477034568787e-01</leafValues></_>
    <_>
      <internalNodes>
        0 -1 14257 820202219 -75633089 804432895 2138142643 989853657
        -1867285057 -184700226 -1017395078</internalNodes>
      <leafValues>
        -3.4259119629859924e-01 4.3347927927970886e-01</leafValues></_>
    <_>
      <internalNodes>
        0 -1 21581 -1987902954 -2147352184 1350606998 -1181089766
        1476397312 -2129985406 -2147284791 -1465513870</internalNodes>
      <leafValues>
        -4.5384532213211060e-01 3.4539842605590820e-01</leafValues></_>
    <_>
      <internalNodes>
        0 -1 5645 -1022001026 138478848 -1609564152 -1660059629
        1368082620 688425481 -1976932267 -9666241</internalNodes>
      <leafValues>
        -4.1493955254554749e-01 4.0046700835227966e-01</leafValues></_>
    <_>
      <internalNodes>
        0 -1 18406 1497080179 1312817503 1074010251 -2008784870
        -368320196 2013286914 1234212944 -274005069</internalNodes>
      <leafValues>
        -3.7168046832084656e-01 4.3971526622772217e-01</leafValues></_>
    <_>
      <internalNodes>
        0 -1 1808 1652619775 1359611024 16779288 -1944813568 -1836432272
        -1442229877 -1039529957 -1383517665</internalNodes>
      <leafValues>
        -4.3586596846580505e-01 3.9740198850631714e-01</leafValues></_>
    <_>
      <internalNodes>
        0 -1 20585 1115936268 -1946124093 805339475 1342279697
        -2097028984 813940739 285462683 86708480</internalNodes>
      <leafValues>
        -6.0928553342819214e-01 2.6484814286231995e-01</leafValues></_>
    <_>
      <internalNodes>
        0 -1 1014 805679583 2073395209 16778131 1780220122 167976186
        310673414 369225915 1779239563</internalNodes>
      <leafValues>
        -4.4308197498321533e-01 3.6690518260002136e-01</leafValues></_></weakClassifiers></stage17>
</opencv_storage>
