<?xml version="1.0"?>
<opencv_storage>
<stage1>
  <maxWeakCount>7</maxWeakCount>
  <stageThreshold>-1.6678260564804077e+00</stageThreshold>
  <weakClassifiers>
    <_>
      <internalNodes>
        0 -1 160 1926157311 -685645797 285299099 -988872693 -804484869
        -2012348383 1765984447 2134980955</internalNodes>
      <leafValues>
        -5.8258259296417236e-01 5.6766253709793091e-01</leafValues></_>
    <_>
      <internalNodes>
        0 -1 9145 -791211558 1537474708 336666932 -552595374 1216938101
        2071986208 -535297813 2058321483</internalNodes>
      <leafValues>
        -6.2897467613220215e-01 4.0503096580505371e-01</leafValues></_>
    <_>
      <internalNodes>
        0 -1 21630 -1016692736 131075 1073743884 -1290788206 8531968
        8519688 -1601634168 -1598422470</internalNodes>
      <leafValues>
        -5.3022241592407227e-01 4.6405187249183655e-01</leafValues></_>
    <_>
      <internalNodes>
        0 -1 19241 -792292638 1502871816 1098907807 358699084
        -1577057640 11665408 134220458 32492482</internalNodes>
      <leafValues>
        -5.6642174720764160e-01 4.3180948495864868e-01</leafValues></_>
    <_>
      <internalNodes>
        0 -1 14303 1914959530 1496776507 -8590735 1373660722 -17635618
        -1061683348 -168564758 -955669366</internalNodes>
      <leafValues>
        -3.8596391677856445e-01 5.9767407178878784e-01</leafValues></_>
    <_>
      <internalNodes>
        0 -1 15071 1079216134 823132160 -1052622784 -201310190 268470272
        1207992320 -1719500125 -265306102</internalNodes>
      <leafValues>
        -5.2643650770187378e-01 4.5130872726440430e-01</leafValues></_>
    <_>
      <internalNodes>
        0 -1 18475 -788016548 -1743536109 1073741845 1427308875
        1078583467 -838369272 -938962421 223191178</internalNodes>
      <leafValues>
        -5.9174364805221558e-01 4.4443339109420776e-01</leafValues></_></weakClassifiers></stage1>
</opencv_storage>
