<?xml version="1.0"?>
<opencv_storage>
<stage9>
  <maxWeakCount>7</maxWeakCount>
  <stageThreshold>-8.3431994915008545e-01</stageThreshold>
  <weakClassifiers>
    <_>
      <internalNodes>
        0 -1 20452 -547367201 1473757198 1360007427 -1773043083
        -1508974193 -586612672 689153614 183231183</internalNodes>
      <leafValues>
        -5.2088260650634766e-01 4.4213154911994934e-01</leafValues></_>
    <_>
      <internalNodes>
        0 -1 5660 1828712447 2147303166 1073213306 -1224785946
        -839095228 -318810251 2130534399 -4458625</internalNodes>
      <leafValues>
        -4.2223879694938660e-01 4.9574327468872070e-01</leafValues></_>
    <_>
      <internalNodes>
        0 -1 19228 -2012339200 721551572 -1056730476 -1808789420
        -1047887869 -536805244 -1199465848 -662568476</internalNodes>
      <leafValues>
        -5.3207802772521973e-01 3.5714027285575867e-01</leafValues></_>
    <_>
      <internalNodes>
        0 -1 8308 -645715970 1502630110 -733999600 -917110576 176690308
        427950093 -578596844 -16637670</internalNodes>
      <leafValues>
        -5.3221595287322998e-01 3.9464119076728821e-01</leafValues></_>
    <_>
      <internalNodes>
        0 -1 231 -528264225 -569978343 -2097114683 1296564238 15070
        -1071923062 1082802297 1799871588</internalNodes>
      <leafValues>
        -5.0552791357040405e-01 3.5870417952537537e-01</leafValues></_>
    <_>
      <internalNodes>
        0 -1 10217 -468234217 -1173335501 134239362 1523597568
        -788146027 -209125374 -905738119 1267311130</internalNodes>
      <leafValues>
        -4.7382211685180664e-01 3.9597183465957642e-01</leafValues></_>
    <_>
      <internalNodes>
        0 -1 20271 -669259962 554979348 -805041700 325468248 -1073675423
        553748608 -838219038 -2136227339</internalNodes>
      <leafValues>
        -4.7079890966415405e-01 4.3956336379051208e-01</leafValues></_></weakClassifiers></stage9>
</opencv_storage>
