<?xml version="1.0"?>
<opencv_storage>
<stage12>
  <maxWeakCount>9</maxWeakCount>
  <stageThreshold>-7.5735074281692505e-01</stageThreshold>
  <weakClassifiers>
    <_>
      <internalNodes>
        0 -1 1706 -1048581 -17928454 -9 2013118190 -805351937 -37675
        -4609 -8197</internalNodes>
      <leafValues>
        -3.4555873274803162e-01 6.5241378545761108e-01</leafValues></_>
    <_>
      <internalNodes>
        0 -1 14745 2130689877 -67108993 -16385 -705696514 1710751741
        -1073816578 -922755097 -922746945</internalNodes>
      <leafValues>
        -3.2566466927528381e-01 5.8108741044998169e-01</leafValues></_>
    <_>
      <internalNodes>
        0 -1 15353 -488921957 -1809956799 -1525661608 269013299 38324593
        -223772640 -1962901296 -350741701</internalNodes>
      <leafValues>
        -4.1532781720161438e-01 4.2540886998176575e-01</leafValues></_>
    <_>
      <internalNodes>
        0 -1 14303 1885402798 -635240581 -276844698 1172535073
        -151853410 -591921297 -437063763 -818158066</internalNodes>
      <leafValues>
        -3.7326461076736450e-01 4.7088834643363953e-01</leafValues></_>
    <_>
      <internalNodes>
        0 -1 15875 1787170103 731744733 -1861734320 -1713618928
        1342203954 2024902814 -904976191 -375731696</internalNodes>
      <leafValues>
        -5.4395771026611328e-01 3.4671658277511597e-01</leafValues></_>
    <_>
      <internalNodes>
        0 -1 19101 -1178586550 -757047216 268553213 1947437573 50573568
        -1962867631 -938347781 1095188488</internalNodes>
      <leafValues>
        -5.1293468475341797e-01 3.5301500558853149e-01</leafValues></_>
    <_>
      <internalNodes>
        0 -1 24429 386212734 344113159 -1610267647 522145906 -779304169
        403210370 -751308683 -357771276</internalNodes>
      <leafValues>
        -5.2446275949478149e-01 3.4124594926834106e-01</leafValues></_>
    <_>
      <internalNodes>
        0 -1 20716 -195308216 654524547 1074796950 -854245373 1149354392
        257032218 -1845491404 232501498</internalNodes>
      <leafValues>
        -6.2772071361541748e-01 3.4843662381172180e-01</leafValues></_>
    <_>
      <internalNodes>
        0 -1 14477 2098127619 1041760580 486637662 26068223 276914884
        -1467367264 -1442793924 747154318</internalNodes>
      <leafValues>
        -5.1931893825531006e-01 3.3914589881896973e-01</leafValues></_></weakClassifiers></stage12>
</opencv_storage>
