<?xml version="1.0"?>
<opencv_storage>
<stage14>
  <maxWeakCount>9</maxWeakCount>
  <stageThreshold>-9.8821133375167847e-01</stageThreshold>
  <weakClassifiers>
    <_>
      <internalNodes>
        0 -1 14162 -201344201 -1078018433 -9 -1082593477 -67305473
        -8519684 -484424 -284644703</internalNodes>
      <leafValues>
        -4.0389609336853027e-01 5.2903223037719727e-01</leafValues></_>
    <_>
      <internalNodes>
        0 -1 19332 184693619 287391874 -1879027433 -1945598955
        1411976321 -385351528 -2079628840 -1429265154</internalNodes>
      <leafValues>
        -6.0244119167327881e-01 3.1187510490417480e-01</leafValues></_>
    <_>
      <internalNodes>
        0 -1 19956 2077097471 1728413833 1360675036 219153694
        -1841075517 1216544803 436620123 19075923</internalNodes>
      <leafValues>
        -4.9383771419525146e-01 3.6910715699195862e-01</leafValues></_>
    <_>
      <internalNodes>
        0 -1 18169 1992031906 -1615134857 -1359020033 -134283458
        -17334856 -1669300226 -16779348 -587268100</internalNodes>
      <leafValues>
        -3.5712602734565735e-01 5.1206177473068237e-01</leafValues></_>
    <_>
      <internalNodes>
        0 -1 1094 840373233 -1432976685 352322450 -2109603746
        -1744633359 -1148649343 -1878512928 1581259342</internalNodes>
      <leafValues>
        -5.7262754440307617e-01 3.0909651517868042e-01</leafValues></_>
    <_>
      <internalNodes>
        0 -1 6615 -604374059 -1592671999 16863645 17399822 1237901987
        -117407607 2013481179 223732378</internalNodes>
      <leafValues>
        -4.8523116111755371e-01 3.7209048867225647e-01</leafValues></_>
    <_>
      <internalNodes>
        0 -1 4358 501403692 1083050258 286382557 1075861843 -1635568893
        -1626402686 1342730371 1386970557</internalNodes>
      <leafValues>
        -5.8469802141189575e-01 3.0473676323890686e-01</leafValues></_>
    <_>
      <internalNodes>
        0 -1 17532 709623861 345085187 1124167953 268582989 -1039982299
        1503264906 -461350406 -1432694582</internalNodes>
      <leafValues>
        -4.9133828282356262e-01 3.6210522055625916e-01</leafValues></_>
    <_>
      <internalNodes>
        0 -1 22768 1289745402 205955780 9768962 -1124040651 1082295373
        68683778 1091207594 -452109696</internalNodes>
      <leafValues>
        -4.6102562546730042e-01 3.9716154336929321e-01</leafValues></_></weakClassifiers></stage14>
</opencv_storage>
