<?xml version="1.0"?>
<opencv_storage>
<stage18>
  <maxWeakCount>10</maxWeakCount>
  <stageThreshold>-1.2086523771286011e+00</stageThreshold>
  <weakClassifiers>
    <_>
      <internalNodes>
        0 -1 16949 -817515210 2064058634 16849369 1065826709 -770088823
        -1038942079 -1585281846 996741547</internalNodes>
      <leafValues>
        -5.5206286907196045e-01 2.9752066731452942e-01</leafValues></_>
    <_>
      <internalNodes>
        0 -1 23914 -642795849 830205683 -1350582412 858816040 1073479547
        -1207959683 -4113 -1074135366</internalNodes>
      <leafValues>
        -3.2104527950286865e-01 5.3163743019104004e-01</leafValues></_>
    <_>
      <internalNodes>
        0 -1 17748 -818282561 921693934 1069545325 -1963115400
        -806002866 -1084227713 116870486 152565198</internalNodes>
      <leafValues>
        -3.9895993471145630e-01 4.3330654501914978e-01</leafValues></_>
    <_>
      <internalNodes>
        0 -1 13500 1396738026 -574519257 22544533 -510573551 -2013208434
        -1903177663 -922742510 -905805814</internalNodes>
      <leafValues>
        -4.3092539906501770e-01 3.8894784450531006e-01</leafValues></_>
    <_>
      <internalNodes>
        0 -1 21585 -994685914 -2004135920 17828347 -787316208 681181953
        1216907336 -1996277704 -200563709</internalNodes>
      <leafValues>
        -4.4238004088401794e-01 3.7825509905815125e-01</leafValues></_>
    <_>
      <internalNodes>
        0 -1 17738 -935251355 855983119 285212689 -603864931 -645363648
        2078277633 -1878480714 -91486071</internalNodes>
      <leafValues>
        -4.1606530547142029e-01 4.0078946948051453e-01</leafValues></_>
    <_>
      <internalNodes>
        0 -1 4751 -1043349297 276889601 1073750081 604045336 277395856
        -1986527222 -1065299420 -1965369213</internalNodes>
      <leafValues>
        -3.5932669043540955e-01 4.5600965619087219e-01</leafValues></_>
    <_>
      <internalNodes>
        0 -1 18217 567645430 421072917 135612544 629194781 -1064628087
        143425737 33555130 -946683262</internalNodes>
      <leafValues>
        -6.0211223363876343e-01 2.7378788590431213e-01</leafValues></_>
    <_>
      <internalNodes>
        0 -1 9693 -262846123 -476999671 293732811 -133938093 -662290321
        -2071363455 1343754952 -7022236</internalNodes>
      <leafValues>
        -4.9452874064445496e-01 3.6158406734466553e-01</leafValues></_>
    <_>
      <internalNodes>
        0 -1 17614 -423087878 1157714176 285216848 325912839 1610666120
        444600321 942254171 544557579</internalNodes>
      <leafValues>
        -5.9346354007720947e-01 2.9973962903022766e-01</leafValues></_></weakClassifiers></stage18>
</opencv_storage>
