<?xml version="1.0"?>
<opencv_storage>
<stage5>
  <maxWeakCount>7</maxWeakCount>
  <stageThreshold>-9.3725562095642090e-01</stageThreshold>
  <weakClassifiers>
    <_>
      <internalNodes>
        0 -1 15172 -203 1060765483 -1090568455 1073725375 -269500418
        -1619001345 2080358384 -1073746177</internalNodes>
      <leafValues>
        -5.0607287883758545e-01 6.2753033638000488e-01</leafValues></_>
    <_>
      <internalNodes>
        0 -1 16267 1176316842 68649099 -1073708985 83988883 -1148705271
        -1597988780 34148379 449640083</internalNodes>
      <leafValues>
        -6.3518387079238892e-01 3.5670378804206848e-01</leafValues></_>
    <_>
      <internalNodes>
        0 -1 4623 -430182545 -934002644 -1692384929 67224596 1906855536
        1376141482 -1031190341 -270577014</internalNodes>
      <leafValues>
        -4.6109971404075623e-01 4.4599801301956177e-01</leafValues></_>
    <_>
      <internalNodes>
        0 -1 14208 1103202450 1141051402 9502833 -754876400 -1174305645
        -108953589 -2120183655 1104521738</internalNodes>
      <leafValues>
        -5.3980261087417603e-01 4.0293508768081665e-01</leafValues></_>
    <_>
      <internalNodes>
        0 -1 18659 -624440047 1367556103 337199372 294666247 411074759
        537053192 -1677711143 149549067</internalNodes>
      <leafValues>
        -4.4699555635452271e-01 4.3992814421653748e-01</leafValues></_>
    <_>
      <internalNodes>
        0 -1 1338 1628204559 822317195 25223455 -775896434 1612628156
        -758644703 185214041 1097327722</internalNodes>
      <leafValues>
        -5.2308994531631470e-01 3.9085850119590759e-01</leafValues></_>
    <_>
      <internalNodes>
        0 -1 15118 -230120680 1406156825 197074 524537868 1073951018
        143132677 -897430901 442849860</internalNodes>
      <leafValues>
        -5.7627606391906738e-01 3.8096752762794495e-01</leafValues></_></weakClassifiers></stage5>
</opencv_storage>
