<?xml version="1.0"?>
<opencv_storage>
<stage2>
  <maxWeakCount>7</maxWeakCount>
  <stageThreshold>-1.1156735420227051e+00</stageThreshold>
  <weakClassifiers>
    <_>
      <internalNodes>
        0 -1 3343 -67175682 -3964577 1112834559 -686735013 -502572517
        -82165718 -117179393 2067748991</internalNodes>
      <leafValues>
        -6.1857378482818604e-01 4.8734176158905029e-01</leafValues></_>
    <_>
      <internalNodes>
        0 -1 19580 -102794465 398692657 -2097102633 419676505
        -1165397777 -72678901 -888407316 16505707</internalNodes>
      <leafValues>
        -4.9469405412673950e-01 5.0786209106445312e-01</leafValues></_>
    <_>
      <internalNodes>
        0 -1 5121 -2072564737 990623507 1124155859 -283951102 1611363199
        -242515703 1213418487 2082689040</internalNodes>
      <leafValues>
        -6.0851967334747314e-01 3.6881968379020691e-01</leafValues></_>
    <_>
      <internalNodes>
        0 -1 19274 496741147 -1615888173 21041178 232501517 185213274
        -1911652136 -2117551682 -1547969858</internalNodes>
      <leafValues>
        -4.6429824829101562e-01 4.4619572162628174e-01</leafValues></_>
    <_>
      <internalNodes>
        0 -1 6458 1566372426 67133514 5039 1163444481 1611358546
        -82313215 -882814753 -162520518</internalNodes>
      <leafValues>
        -5.3819680213928223e-01 3.7397295236587524e-01</leafValues></_>
    <_>
      <internalNodes>
        0 -1 20631 2139454360 444812043 17416341 386519760 -939027660
        -2029845368 -939091905 599574526</internalNodes>
      <leafValues>
        -5.7327270507812500e-01 3.2908818125724792e-01</leafValues></_>
    <_>
      <internalNodes>
        0 -1 11501 1253695763 169530946 319414747 520278107 -939226853
        -74906876 807438356 251038111</internalNodes>
      <leafValues>
        -5.4385316371917725e-01 3.5921806097030640e-01</leafValues></_></weakClassifiers></stage2>
</opencv_storage>
