<?xml version="1.0"?>
<opencv_storage>
<stage0>
  <maxWeakCount>5</maxWeakCount>
  <stageThreshold>-8.2986283302307129e-01</stageThreshold>
  <weakClassifiers>
    <_>
      <internalNodes>
        0 -1 3342 2146368219 -13926402 -1 2142219891 2138439679 -8946836
        2138800127 1935106635</internalNodes>
      <leafValues>
        -6.3835614919662476e-01 7.9405939579010010e-01</leafValues></_>
    <_>
      <internalNodes>
        0 -1 10364 1363393240 1485869401 1073758297 286507281
        -2137274238 1476460544 1242269802 460143279</internalNodes>
      <leafValues>
        -6.6777873039245605e-01 5.6480979919433594e-01</leafValues></_>
    <_>
      <internalNodes>
        0 -1 18781 -384323210 1065517383 65558 386957584 -603387000
        143196160 -1605678934 -1450595702</internalNodes>
      <leafValues>
        -5.3097832202911377e-01 5.8622139692306519e-01</leafValues></_>
    <_>
      <internalNodes>
        0 -1 21168 -1073709056 -332398592 4224 -1279115256 33554945
        -2004353024 -536674136 -1532353998</internalNodes>
      <leafValues>
        -5.1530492305755615e-01 5.7899594306945801e-01</leafValues></_>
    <_>
      <internalNodes>
        0 -1 11012 -2142988043 285221067 25231510 956825994 -804726568
        -1417084800 -1593245088 1361060570</internalNodes>
      <leafValues>
        -6.8894529342651367e-01 4.2971983551979065e-01</leafValues></_></weakClassifiers></stage0>
</opencv_storage>
