<?xml version="1.0"?>
<opencv_storage>
<stage11>
  <maxWeakCount>5</maxWeakCount>
  <stageThreshold>-1.1224136352539062e+00</stageThreshold>
  <weakClassifiers>
    <_>
      <internalNodes>
        0 -1 1066 -842727009 -217966801 819462219 -490401401 1087340779
        -1475346276 47546803 -246120173</internalNodes>
      <leafValues>
        -7.1238350868225098e-01 3.8310411572456360e-01</leafValues></_>
    <_>
      <internalNodes>
        0 -1 20245 -788270752 -1826482505 -1124070140 -586939902
        276865444 -1851785040 -2147359528 -1997304933</internalNodes>
      <leafValues>
        -6.4119493961334229e-01 4.5869433879852295e-01</leafValues></_>
    <_>
      <internalNodes>
        0 -1 20235 2030156293 100958997 1359364166 -581763025 -490228292
        -1708883716 552309290 -863286358</internalNodes>
      <leafValues>
        -5.6472247838973999e-01 5.4613775014877319e-01</leafValues></_>
    <_>
      <internalNodes>
        0 -1 10484 -194569598 -1526201315 1564479111 -721051611
        160269779 -1207394295 -276178941 -1322151902</internalNodes>
      <leafValues>
        -6.6148781776428223e-01 4.7128000855445862e-01</leafValues></_>
    <_>
      <internalNodes>
        0 -1 9871 -1831389812 -1659099903 -1459615978 -100652839
        1346636532 2015428670 -1593761390 -1731649448</internalNodes>
      <leafValues>
        -7.5337445735931396e-01 4.1729736328125000e-01</leafValues></_></weakClassifiers></stage11>
</opencv_storage>
