<?xml version="1.0"?>
<opencv_storage>
<cascade>
  <stageType>BOOST</stageType>
  <featureType>LBP</featureType>
  <height>20</height>
  <width>50</width>
  <stageParams>
    <boostType>GAB</boostType>
    <minHitRate>9.9500000476837158e-01</minHitRate>
    <maxFalseAlarm>5.0000000000000000e-01</maxFalseAlarm>
    <weightTrimRate>9.4999999999999996e-01</weightTrimRate>
    <maxDepth>1</maxDepth>
    <maxWeakCount>100</maxWeakCount></stageParams>
  <featureParams>
    <maxCatCount>256</maxCatCount>
    <featSize>1</featSize></featureParams>
  <stageNum>22</stageNum>
  <stages>
    <!-- stage 0 -->
    <_>
      <maxWeakCount>5</maxWeakCount>
      <stageThreshold>-9.0325403213500977e-01</stageThreshold>
      <weakClassifiers>
        <_>
          <internalNodes>
            0 -1 8 2137979899 -33866753 -1 2146118327 2139029503
            -28082178 2137489403 1802988383</internalNodes>
          <leafValues>
            -6.5259516239166260e-01 7.7801048755645752e-01</leafValues></_>
        <_>
          <internalNodes>
            0 -1 101 1494399156 360845589 212 990974345 -1585378424
            143294488 -922515302 -1344537666</internalNodes>
          <leafValues>
            -5.6587976217269897e-01 6.3806068897247314e-01</leafValues></_>
        <_>
          <internalNodes>
            0 -1 49 1909829812 272850962 285245457 293142811 -1425956445
            -636385279 673292335 34372523</internalNodes>
          <leafValues>
            -6.8080878257751465e-01 4.6860557794570923e-01</leafValues></_>
        <_>
          <internalNodes>
            0 -1 81 -234684368 276987905 1358955848 -1627062272
            1073741826 536870912 -1476320856 -131923886</internalNodes>
          <leafValues>
            -6.1835587024688721e-01 5.0530886650085449e-01</leafValues></_>
        <_>
          <internalNodes>
            0 -1 137 -1073709056 32768 -1862254576 805834770 545259520
            128 -536178648 -2003697152</internalNodes>
          <leafValues>
            -5.9636414051055908e-01 4.9072077870368958e-01</leafValues></_></weakClassifiers></_>
    <!-- stage 1 -->
    <_>
      <maxWeakCount>5</maxWeakCount>
      <stageThreshold>-7.9889613389968872e-01</stageThreshold>
      <weakClassifiers>
        <_>
          <internalNodes>
            0 -1 25 450553566 -647810661 -649985763 -721354377
            -2146893409 -1995767742 1224851963 1536909307</internalNodes>
          <leafValues>
            -6.6273188591003418e-01 4.8270180821418762e-01</leafValues></_>
        <_>
          <internalNodes>
            0 -1 121 1432330462 949129299 4292736 353976576 26085786
            722075786 34275978 248300318</internalNodes>
          <leafValues>
            -6.6312348842620850e-01 3.7851405143737793e-01</leafValues></_>
        <_>
          <internalNodes>
            0 -1 35 1400892015 -1591766757 1074200831 -745287654
            1342953899 -471760605 2014517339 1912817162</internalNodes>
          <leafValues>
            -5.0501459836959839e-01 4.9042174220085144e-01</leafValues></_>
        <_>
          <internalNodes>
            0 -1 65 1128516346 -135137282 -1 -1309292702 -12976397
            -67404293 -71308033 -750722534</internalNodes>
          <leafValues>
            -3.9531487226486206e-01 6.2015342712402344e-01</leafValues></_>
        <_>
          <internalNodes>
            0 -1 134 -1065107452 1208090624 -2129555182 -242085352
            655360 134381568 -2013233076 -1585225150</internalNodes>
          <leafValues>
            -5.6673491001129150e-01 4.3185240030288696e-01</leafValues></_></weakClassifiers></_>
    <!-- stage 2 -->
    <_>
      <maxWeakCount>8</maxWeakCount>
      <stageThreshold>-1.2689608335494995e+00</stageThreshold>
      <weakClassifiers>
        <_>
          <internalNodes>
            0 -1 104 -1145046213 1060175659 -1409384453 1073479551
            -83906630 -1397434441 1073723358 -1073741825</internalNodes>
          <leafValues>
            -5.2588558197021484e-01 6.1373388767242432e-01</leafValues></_>
        <_>
          <internalNodes>
            0 -1 129 -134228137 1911816063 -268436037 1610559335
            -134312465 1971224542 -16866229 184543999</internalNodes>
          <leafValues>
            -3.8687565922737122e-01 6.1724609136581421e-01</leafValues></_>
        <_>
          <internalNodes>
            0 -1 16 250210803 -81879022 453067093 2067976402 2013870366
            1133383689 696343515 1515849310</internalNodes>
          <leafValues>
            -5.6041634082794189e-01 4.0767759084701538e-01</leafValues></_>
        <_>
          <internalNodes>
            0 -1 44 393165715 659981457 152111615 -1854885566 -75394855
            -1415872359 1107892752 155984872</internalNodes>
          <leafValues>
            -5.9178972244262695e-01 3.4097832441329956e-01</leafValues></_>
        <_>
          <internalNodes>
            0 -1 32 770359534 -1249929982 -1073721229 -1173004153
            -1610130998 -1744084856 990073695 -2008948205</internalNodes>
          <leafValues>
            -4.5208510756492615e-01 4.4180989265441895e-01</leafValues></_>
        <_>
          <internalNodes>
            0 -1 12 -379326176 -352173757 -871772719 -8076416
            -1039941407 1199702531 1216350453 -226488197</internalNodes>
          <leafValues>
            -5.1207280158996582e-01 3.6305278539657593e-01</leafValues></_>
        <_>
          <internalNodes>
            0 -1 114 1055759614 771186686 -1276153927 2146299837
            -1392746916 -1925202434 -1610760326 -1715946241</internalNodes>
          <leafValues>
            -4.2903700470924377e-01 4.5783928036689758e-01</leafValues></_>
        <_>
          <internalNodes>
            0 -1 117 -192210084 -636206965 67223955 -16695181 -905404382
            -276283392 -1048319774 34442958</internalNodes>
          <leafValues>
            -5.6392079591751099e-01 3.6955702304840088e-01</leafValues></_></weakClassifiers></_>
    <!-- stage 3 -->
    <_>
      <maxWeakCount>7</maxWeakCount>
      <stageThreshold>-1.5593242645263672e+00</stageThreshold>
      <weakClassifiers>
        <_>
          <internalNodes>
            0 -1 15 -205322498 1443053696 -652093099 -36515810 595609719
            2130837504 -49506053 -1348917</internalNodes>
          <leafValues>
            -6.3074207305908203e-01 4.0536278486251831e-01</leafValues></_>
        <_>
          <internalNodes>
            0 -1 113 -215235876 -804394862 4231647 1128644931
            -1608916822 -1970765639 1294635 230280119</internalNodes>
          <leafValues>
            -5.9137272834777832e-01 3.9953675866127014e-01</leafValues></_>
        <_>
          <internalNodes>
            0 -1 38 730171893 -1419444017 1359055248 -43870866
            -1207320407 -1038120805 -884954988 1201930442</internalNodes>
          <leafValues>
            -5.4467767477035522e-01 3.6506253480911255e-01</leafValues></_>
        <_>
          <internalNodes>
            0 -1 85 1370149139 492650512 66713 -1353264931 1250607642
            -1416986480 -897576780 -1706307221</internalNodes>
          <leafValues>
            -3.9770004153251648e-01 5.0744897127151489e-01</leafValues></_>
        <_>
          <internalNodes>
            0 -1 6 -302043141 2126200783 -33558649 -273682840 629143415
            -1291854017 2121268287 2071983482</internalNodes>
          <leafValues>
            -3.7384435534477234e-01 5.5466628074645996e-01</leafValues></_>
        <_>
          <internalNodes>
            0 -1 141 -1651815693 295293073 16797783 118554945 -662660721
            1502658690 1225296460 162718120</internalNodes>
          <leafValues>
            -4.7662097215652466e-01 4.3039822578430176e-01</leafValues></_>
        <_>
          <internalNodes>
            0 -1 14 -850188877 -1270783984 1074856415 1887584384
            -1069236185 -2134671230 -1992228123 -1401801646</internalNodes>
          <leafValues>
            -4.8749053478240967e-01 4.2363232374191284e-01</leafValues></_></weakClassifiers></_>
    <!-- stage 4 -->
    <_>
      <maxWeakCount>7</maxWeakCount>
      <stageThreshold>-8.8480466604232788e-01</stageThreshold>
      <weakClassifiers>
        <_>
          <internalNodes>
            0 -1 84 2147483445 1065057855 805142517 1069285247 -262
            -1879048193 -16781316 -268439557</internalNodes>
          <leafValues>
            -4.9273449182510376e-01 6.1625283956527710e-01</leafValues></_>
        <_>
          <internalNodes>
            0 -1 56 1258551426 -787381444 1342243357 -1878933247
            -133529272 -385286113 1224786314 587227146</internalNodes>
          <leafValues>
            -6.0774558782577515e-01 3.6108931899070740e-01</leafValues></_>
        <_>
          <internalNodes>
            0 -1 132 1572068827 -754515957 17842240 219265375 -670939057
            2017198114 -1726758705 266161071</internalNodes>
          <leafValues>
            -4.4132646918296814e-01 4.5570760965347290e-01</leafValues></_>
        <_>
          <internalNodes>
            0 -1 69 -711101230 -1310715838 272637213 462471622 50424683
            1258496018 -1827628854 1364537954</internalNodes>
          <leafValues>
            -5.7079559564590454e-01 3.6409926414489746e-01</leafValues></_>
        <_>
          <internalNodes>
            0 -1 95 2000681507 1916763952 -1346425049 -301996106
            1879031662 -1157628033 -1073762570 -1100021946</internalNodes>
          <leafValues>
            -3.7273508310317993e-01 5.4635894298553467e-01</leafValues></_>
        <_>
          <internalNodes>
            0 -1 3 1229112721 1767178317 402768704 756974926 33783975
            1344962570 134305955 1303390486</internalNodes>
          <leafValues>
            -5.5994302034378052e-01 3.3987179398536682e-01</leafValues></_>
        <_>
          <internalNodes>
            0 -1 57 675522746 -234155888 1514192979 -335457552
            -1677684487 269224065 1493801177 1183853163</internalNodes>
          <leafValues>
            -5.5972623825073242e-01 3.6362662911415100e-01</leafValues></_></weakClassifiers></_>
    <!-- stage 5 -->
    <_>
      <maxWeakCount>7</maxWeakCount>
      <stageThreshold>-9.2962020635604858e-01</stageThreshold>
      <weakClassifiers>
        <_>
          <internalNodes>
            0 -1 89 2147211807 1067827123 801079097 1073217535
            -268959750 -1627406206 -805323076 -74725153</internalNodes>
          <leafValues>
            -5.1705318689346313e-01 5.9743040800094604e-01</leafValues></_>
        <_>
          <internalNodes>
            0 -1 78 -628035470 -787234288 268435665 -250493952
            -2029922061 -267026425 -1987737190 65241642</internalNodes>
          <leafValues>
            -5.3553920984268188e-01 4.1399589180946350e-01</leafValues></_>
        <_>
          <internalNodes>
            0 -1 126 2032058527 -1705438768 1410896274 -2013035643
            1511235657 -1617321695 -393631288 1883108202</internalNodes>
          <leafValues>
            -4.7503465414047241e-01 4.0282452106475830e-01</leafValues></_>
        <_>
          <internalNodes>
            0 -1 47 2119631098 1586548802 1098973210 506214526 855720573
            1493237768 -2096956675 963464219</internalNodes>
          <leafValues>
            -6.6983735561370850e-01 2.8428483009338379e-01</leafValues></_>
        <_>
          <internalNodes>
            0 -1 31 -395514065 -286294018 -1 -1430327306 -195815468
            -1895940098 -1216878603 -941350982</internalNodes>
          <leafValues>
            -3.9163881540298462e-01 5.1249623298645020e-01</leafValues></_>
        <_>
          <internalNodes>
            0 -1 115 -736132158 1497813009 -1610605546 -715583151
            21143976 176816296 681631880 1006106850</internalNodes>
          <leafValues>
            -5.0431966781616211e-01 4.2116287350654602e-01</leafValues></_>
        <_>
          <internalNodes>
            0 -1 27 -472928584 1384298688 -1589640386 356966402 459893
            -1979105023 -1476007725 2065656330</internalNodes>
          <leafValues>
            -5.5225843191146851e-01 3.8180845975875854e-01</leafValues></_></weakClassifiers></_>
    <!-- stage 6 -->
    <_>
      <maxWeakCount>7</maxWeakCount>
      <stageThreshold>-7.6910465955734253e-01</stageThreshold>
      <weakClassifiers>
        <_>
          <internalNodes>
            0 -1 74 -661792971 1044480795 324223769 1063507615
            -628569939 -1968570237 -654310928 2115822031</internalNodes>
          <leafValues>
            -5.6071150302886963e-01 4.7425475716590881e-01</leafValues></_>
        <_>
          <internalNodes>
            0 -1 5 958553343 -192097088 1358973233 -854595440 -100038549
            -90566647 -1459028421 1266436943</internalNodes>
          <leafValues>
            -5.4936379194259644e-01 3.9720600843429565e-01</leafValues></_>
        <_>
          <internalNodes>
            0 -1 156 -859832345 855474174 -1073741841 -1310721
            2147418111 2147287039 -805339593 -1432193229</internalNodes>
          <leafValues>
            -4.0014204382896423e-01 4.9409252405166626e-01</leafValues></_>
        <_>
          <internalNodes>
            0 -1 66 1911618250 1474378363 871732215 1911940835
            -1250453633 -365560198 -956851032 -139352062</internalNodes>
          <leafValues>
            -4.3370026350021362e-01 4.7571861743927002e-01</leafValues></_>
        <_>
          <internalNodes>
            0 -1 82 1690903399 173904001 -2130640879 -2076241913
            1493403746 -612237184 -937785118 -1414833513</internalNodes>
          <leafValues>
            -4.9070155620574951e-01 4.3383941054344177e-01</leafValues></_>
        <_>
          <internalNodes>
            0 -1 149 173965845 -1994837429 -2092842669 -1253899391
            1745027182 -385777534 -1065352503 -1426312592</internalNodes>
          <leafValues>
            -6.2014728784561157e-01 3.1495907902717590e-01</leafValues></_>
        <_>
          <internalNodes>
            0 -1 39 1879043710 -567251282 -114689 1996488702 1736342868
            -1073840771 -151003400 -188482276</internalNodes>
          <leafValues>
            -4.4253262877464294e-01 4.8262712359428406e-01</leafValues></_></weakClassifiers></_>
    <!-- stage 7 -->
    <_>
      <maxWeakCount>7</maxWeakCount>
      <stageThreshold>-8.0872106552124023e-01</stageThreshold>
      <weakClassifiers>
        <_>
          <internalNodes>
            0 -1 23 -581774866 -1744186987 25346311 353476621
            -2134329125 -1064762238 134316155 1069543391</internalNodes>
          <leafValues>
            -5.9554415941238403e-01 4.0145984292030334e-01</leafValues></_>
        <_>
          <internalNodes>
            0 -1 29 861902135 -1806958583 1359524298 -192520171
            -402124335 -1853324792 -654242832 -905378904</internalNodes>
          <leafValues>
            -4.8884212970733643e-01 4.4976663589477539e-01</leafValues></_>
        <_>
          <internalNodes>
            0 -1 136 1535098651 775164288 37818516 -1861685038 713066884
            -1660944375 -1568037744 -1362958177</internalNodes>
          <leafValues>
            -5.0627303123474121e-01 4.2286232113838196e-01</leafValues></_>
        <_>
          <internalNodes>
            0 -1 7 845297721 1476870300 1073972521 1561137162 1090963555
            -1129676613 135217512 2071157068</internalNodes>
          <leafValues>
            -5.5950886011123657e-01 3.5339659452438354e-01</leafValues></_>
        <_>
          <internalNodes>
            0 -1 10 -345920782 1258504215 33599578 -12025206 -1970798492
            -1803550711 -2004308789 -1447901941</internalNodes>
          <leafValues>
            -5.0939977169036865e-01 4.0333572030067444e-01</leafValues></_>
        <_>
          <internalNodes>
            0 -1 68 822069306 -587436289 -150998019 -176194566
            -671088947 -1728745481 -1669339143 -2139758849</internalNodes>
          <leafValues>
            -4.5854246616363525e-01 5.1154923439025879e-01</leafValues></_>
        <_>
          <internalNodes>
            0 -1 105 -993353148 355684402 -2146959344 -788524032
            -1727346606 -1046282238 -1592882720 -1045788670</internalNodes>
          <leafValues>
            -4.4370794296264648e-01 4.8374837636947632e-01</leafValues></_></weakClassifiers></_>
    <!-- stage 8 -->
    <_>
      <maxWeakCount>7</maxWeakCount>
      <stageThreshold>-1.5511987209320068e+00</stageThreshold>
      <weakClassifiers>
        <_>
          <internalNodes>
            0 -1 45 -246165445 -247381929 1157695967 -598750953
            -2012550261 -746094578 -2138930797 -2138194673</internalNodes>
          <leafValues>
            -5.2030652761459351e-01 4.3744292855262756e-01</leafValues></_>
        <_>
          <internalNodes>
            0 -1 60 1740947394 -803700479 1426424731 -4095945
            -1744708925 -402538365 -1867794405 2144582654</internalNodes>
          <leafValues>
            -4.8583212494850159e-01 4.1492110490798950e-01</leafValues></_>
        <_>
          <internalNodes>
            0 -1 144 563026271 109732294 277434405 -1580703740
            2030723263 -1283452765 2059667628 -1162954038</internalNodes>
          <leafValues>
            -5.9931790828704834e-01 3.3079105615615845e-01</leafValues></_>
        <_>
          <internalNodes>
            0 -1 20 -1031208099 -926857015 16863564 -1877688175
            -2138513129 -804650879 58826816 -67039222</internalNodes>
          <leafValues>
            -4.8438939452171326e-01 4.5500123500823975e-01</leafValues></_>
        <_>
          <internalNodes>
            0 -1 79 -120093986 -194010573 -570536897 1036225591
            1878986217 -92472598 -838892306 -912308150</internalNodes>
          <leafValues>
            -3.7131941318511963e-01 5.4364800453186035e-01</leafValues></_>
        <_>
          <internalNodes>
            0 -1 11 -1896894769 921253664 1828597471 2146484142
            1459613594 -143229086 1958088257 -1374224521</internalNodes>
          <leafValues>
            -3.9197030663490295e-01 5.3275793790817261e-01</leafValues></_>
        <_>
          <internalNodes>
            0 -1 50 1465772357 773283920 1098989823 17879194 1887088673
            715727040 269191788 105551507</internalNodes>
          <leafValues>
            -6.2210083007812500e-01 3.4418749809265137e-01</leafValues></_></weakClassifiers></_>
    <!-- stage 9 -->
    <_>
      <maxWeakCount>8</maxWeakCount>
      <stageThreshold>-7.6839882135391235e-01</stageThreshold>
      <weakClassifiers>
        <_>
          <internalNodes>
            0 -1 90 1941684988 -1056734478 1343242573 18022489
            -2134898517 -913031032 -1826955217 262120943</internalNodes>
          <leafValues>
            -6.3184082508087158e-01 3.1182795763015747e-01</leafValues></_>
        <_>
          <internalNodes>
            0 -1 54 -16794083 -1207963729 2130344957 -202199045
            2112831462 -1987051667 -50491736 -620479698</internalNodes>
          <leafValues>
            -4.1957741975784302e-01 4.6949836611747742e-01</leafValues></_>
        <_>
          <internalNodes>
            0 -1 70 1796877136 1505509746 -1342176242 1360004390
            1217024237 1082851360 -930977552 533033056</internalNodes>
          <leafValues>
            -7.3764264583587646e-01 2.5158163905143738e-01</leafValues></_>
        <_>
          <internalNodes>
            0 -1 111 1923817847 945067153 286263372 -1102020587
            1237340385 461373448 -1065317156 -1431680341</internalNodes>
          <leafValues>
            -4.6387588977813721e-01 4.1049697995185852e-01</leafValues></_>
        <_>
          <internalNodes>
            0 -1 131 -779897788 -1877899007 -2130603634 -1185934837
            1904871696 956956800 1076281480 -2075237791</internalNodes>
          <leafValues>
            -4.9793997406959534e-01 3.6955872178077698e-01</leafValues></_>
        <_>
          <internalNodes>
            0 -1 1 -535623639 -787871722 4231264 -989822976 -1878261214
            839585955 134827587 1590116354</internalNodes>
          <leafValues>
            -5.3771185874938965e-01 3.7604847550392151e-01</leafValues></_>
        <_>
          <internalNodes>
            0 -1 34 1121185383 -2075049710 1090519398 -1710096320
            -131473312 -754843647 -895950667 -1094135646</internalNodes>
          <leafValues>
            -4.4455507397651672e-01 4.4377014040946960e-01</leafValues></_>
        <_>
          <internalNodes>
            0 -1 146 1233805794 659720 1610711090 1597264144 134791940
            10160537 -2147340204 1672471499</internalNodes>
          <leafValues>
            -6.1709845066070557e-01 3.3379748463630676e-01</leafValues></_></weakClassifiers></_>
    <!-- stage 10 -->
    <_>
      <maxWeakCount>9</maxWeakCount>
      <stageThreshold>-1.1831073760986328e+00</stageThreshold>
      <weakClassifiers>
        <_>
          <internalNodes>
            0 -1 102 -749479798 -1625632487 -2059086953 -1617563391
            -1736193654 -2004351830 -2103400690 -557057295</internalNodes>
          <leafValues>
            -4.8148149251937866e-01 4.0575674176216125e-01</leafValues></_>
        <_>
          <internalNodes>
            0 -1 30 1187926698 -593786029 -788442731 -1995321211
            -803536662 -1727045504 -645610853 808548383</internalNodes>
          <leafValues>
            -5.7232105731964111e-01 3.1372886896133423e-01</leafValues></_>
        <_>
          <internalNodes>
            0 -1 64 2147465919 1878409214 -285331910 2130591550
            1434219925 2004701119 -805306628 -179308801</internalNodes>
          <leafValues>
            -3.9944201707839966e-01 4.6240684390068054e-01</leafValues></_>
        <_>
          <internalNodes>
            0 -1 159 -49876993 -339480441 184594881 105599923 1628631643
            1342185512 344080967 1141352565</internalNodes>
          <leafValues>
            -5.0305640697479248e-01 3.5639002919197083e-01</leafValues></_>
        <_>
          <internalNodes>
            0 -1 157 -979240353 -1077771806 -1878851571 969327043
            -1307737365 -662552440 -494927736 -1929881036</internalNodes>
          <leafValues>
            -4.5676326751708984e-01 4.4204077124595642e-01</leafValues></_>
        <_>
          <internalNodes>
            0 -1 80 -915809450 -775942910 289542455 1602392337 805989375
            960110594 -1072947528 377768908</internalNodes>
          <leafValues>
            -5.5334013700485229e-01 3.2579421997070312e-01</leafValues></_>
        <_>
          <internalNodes>
            0 -1 77 844169846 335665167 1074873553 1728184642 1451352460
            -914225126 -1844804613 1124844686</internalNodes>
          <leafValues>
            -4.4135257601737976e-01 4.2679861187934875e-01</leafValues></_>
        <_>
          <internalNodes>
            0 -1 150 1870467547 -1721479022 -1002185709 1162298752
            168536077 444862618 310860803 1088280647</internalNodes>
          <leafValues>
            -6.0495561361312866e-01 2.7924254536628723e-01</leafValues></_>
        <_>
          <internalNodes>
            0 -1 73 51064583 -1554939884 -2080288377 -2142842029
            269097010 17433922 -385732216 -2103154671</internalNodes>
          <leafValues>
            -6.8099468946456909e-01 3.1213814020156860e-01</leafValues></_></weakClassifiers></_>
    <!-- stage 11 -->
    <_>
      <maxWeakCount>8</maxWeakCount>
      <stageThreshold>-1.1304273605346680e+00</stageThreshold>
      <weakClassifiers>
        <_>
          <internalNodes>
            0 -1 61 -665464801 -653016879 1090591647 265324309
            1241546989 -894795357 675580312 135060155</internalNodes>
          <leafValues>
            -5.5300354957580566e-01 3.3596214652061462e-01</leafValues></_>
        <_>
          <internalNodes>
            0 -1 147 -5251277 -1876891720 2130673441 -143393290
            1060450096 754958333 -1476994081 -34619905</internalNodes>
          <leafValues>
            -3.5705485939979553e-01 5.2375227212905884e-01</leafValues></_>
        <_>
          <internalNodes>
            0 -1 120 -565395162 2081521739 -1073737538 -750600000
            1076485136 1210761266 -1879000432 -2064191070</internalNodes>
          <leafValues>
            -4.5319485664367676e-01 3.9552867412567139e-01</leafValues></_>
        <_>
          <internalNodes>
            0 -1 18 1321892076 -2012708736 289444055 218468446 67787345
            -1289223677 -536682325 -45876642</internalNodes>
          <leafValues>
            -4.7407382726669312e-01 3.8114127516746521e-01</leafValues></_>
        <_>
          <internalNodes>
            0 -1 151 -291109 1044320189 1869282627 536735579 -1346486480
            -8913026 -1360613502 1743515626</internalNodes>
          <leafValues>
            -3.1767496466636658e-01 5.6415265798568726e-01</leafValues></_>
        <_>
          <internalNodes>
            0 -1 128 1238859860 2101478191 1342247125 -1723166331
            -1073688122 -2095017560 -1341009255 9167744</internalNodes>
          <leafValues>
            -6.0885429382324219e-01 2.7344956994056702e-01</leafValues></_>
        <_>
          <internalNodes>
            0 -1 51 -849931093 1079971090 -1878966123 210128898
            -259477466 -71761767 -1836512687 892690953</internalNodes>
          <leafValues>
            -4.9074611067771912e-01 4.3081039190292358e-01</leafValues></_>
        <_>
          <internalNodes>
            0 -1 112 1637491255 965478672 -2129588107 -1885072485 270507
            -1299734398 -1878971926 -283473197</internalNodes>
          <leafValues>
            -4.9041250348091125e-01 3.7999427318572998e-01</leafValues></_></weakClassifiers></_>
    <!-- stage 12 -->
    <_>
      <maxWeakCount>8</maxWeakCount>
      <stageThreshold>-1.5025196075439453e+00</stageThreshold>
      <weakClassifiers>
        <_>
          <internalNodes>
            0 -1 48 -804009613 123109586 16979990 -221740991 -1333059092
            -125106005 -863311848 135061311</internalNodes>
          <leafValues>
            -6.1433088779449463e-01 2.6395589113235474e-01</leafValues></_>
        <_>
          <internalNodes>
            0 -1 72 521343484 -804018164 285229583 -783990527
            -1018077867 -342796159 -103951349 1069390055</internalNodes>
          <leafValues>
            -5.7902574539184570e-01 2.8712356090545654e-01</leafValues></_>
        <_>
          <internalNodes>
            0 -1 127 1231027147 249757783 -2080143287 -938241449
            136437903 -93716470 59441495 4655163</internalNodes>
          <leafValues>
            -4.7588443756103516e-01 3.7454581260681152e-01</leafValues></_>
        <_>
          <internalNodes>
            0 -1 17 1369080146 -1026030241 57348 -1811001122 -2138111455
            -921925464 809697412 150997642</internalNodes>
          <leafValues>
            -6.1553722620010376e-01 2.9970559477806091e-01</leafValues></_>
        <_>
          <internalNodes>
            0 -1 33 1644319342 67404048 16877575 -1726889823 -668991438
            1578762848 1074236107 -83363286</internalNodes>
          <leafValues>
            -4.7784063220024109e-01 3.7534242868423462e-01</leafValues></_>
        <_>
          <internalNodes>
            0 -1 133 -2116321017 -1409122175 352436561 -1959493613
            -922611108 1904771202 1367905176 -192624176</internalNodes>
          <leafValues>
            -6.0938864946365356e-01 2.7876281738281250e-01</leafValues></_>
        <_>
          <internalNodes>
            0 -1 92 1893658842 1474186360 2147412991 468908267 478148044
            -8388609 -1056972562 -78911336</internalNodes>
          <leafValues>
            -3.9112198352813721e-01 4.9069949984550476e-01</leafValues></_>
        <_>
          <internalNodes>
            0 -1 163 -1050883598 -149307256 -1877540837 1158647835
            -1031733111 1107427464 1082609740 1095205387</internalNodes>
          <leafValues>
            -4.2107114195823669e-01 4.4264736771583557e-01</leafValues></_></weakClassifiers></_>
    <!-- stage 13 -->
    <_>
      <maxWeakCount>9</maxWeakCount>
      <stageThreshold>-9.8570734262466431e-01</stageThreshold>
      <weakClassifiers>
        <_>
          <internalNodes>
            0 -1 123 -16788233 -83919107 -23 -117711313 -654770979
            -34144257 -239144712 -67436609</internalNodes>
          <leafValues>
            -3.8262477517127991e-01 5.4182755947113037e-01</leafValues></_>
        <_>
          <internalNodes>
            0 -1 9 1880338746 -771510265 1343314362 1396953358 420713706
            -628620791 1115710335 1473108717</internalNodes>
          <leafValues>
            -5.4045420885086060e-01 3.3381175994873047e-01</leafValues></_>
        <_>
          <internalNodes>
            0 -1 153 -426822821 168833153 268734558 -669712174
            1438846993 2055438338 -1807206592 -1164217422</internalNodes>
          <leafValues>
            -4.4081279635429382e-01 3.9801591634750366e-01</leafValues></_>
        <_>
          <internalNodes>
            0 -1 122 -205138993 -535330688 -1056734976 554271025
            -381124081 -331251710 587677987 1464159023</internalNodes>
          <leafValues>
            -4.6751818060874939e-01 3.9969065785408020e-01</leafValues></_>
        <_>
          <internalNodes>
            0 -1 4 1078991055 1526891904 -2129424245 1502134796
            134754411 -1996437502 1375737976 1764580168</internalNodes>
          <leafValues>
            -5.2677100896835327e-01 3.6448606848716736e-01</leafValues></_>
        <_>
          <internalNodes>
            0 -1 97 -745626994 -443318177 1459732565 1694520068
            -469137269 -1444528127 -1853758736 -209293272</internalNodes>
          <leafValues>
            -4.8593571782112122e-01 3.7319871783256531e-01</leafValues></_>
        <_>
          <internalNodes>
            0 -1 148 1649029892 -1407025151 1146901 -1240825472
            1098912565 1803681952 1619730736 -1501388058</internalNodes>
          <leafValues>
            -5.8675616979598999e-01 3.5556930303573608e-01</leafValues></_>
        <_>
          <internalNodes>
            0 -1 28 -1024998965 1342701897 536936486 1862402384
            1932255837 -1969616886 -998183980 2038496009</internalNodes>
          <leafValues>
            -4.8244327306747437e-01 3.7395846843719482e-01</leafValues></_>
        <_>
          <internalNodes>
            0 -1 0 1398920143 894664897 20971664 537464843 1375944859
            118186241 1879248959 358207667</internalNodes>
          <leafValues>
            -5.6425756216049194e-01 3.4641835093498230e-01</leafValues></_></weakClassifiers></_>
    <!-- stage 14 -->
    <_>
      <maxWeakCount>10</maxWeakCount>
      <stageThreshold>-7.7365040779113770e-01</stageThreshold>
      <weakClassifiers>
        <_>
          <internalNodes>
            0 -1 110 -2062047818 521720045 -2130607628 -1344716400
            -1753111876 763400193 -2097051906 -1409562128</internalNodes>
          <leafValues>
            -5.9006214141845703e-01 2.5801953673362732e-01</leafValues></_>
        <_>
          <internalNodes>
            0 -1 26 424874267 -418283261 826282458 -2006939197 281678515
            -1952939584 -134118736 771762824</internalNodes>
          <leafValues>
            -5.3127592802047729e-01 3.2518485188484192e-01</leafValues></_>
        <_>
          <internalNodes>
            0 -1 40 -145241388 1360158941 1073822722 1507397979
            1799379400 -1199105688 -771688021 1791750845</internalNodes>
          <leafValues>
            -4.0268823504447937e-01 4.3181672692298889e-01</leafValues></_>
        <_>
          <internalNodes>
            0 -1 124 1880215812 -1055829693 268566810 1162154003
            -1836580672 2681616 -905843796 -1528061149</internalNodes>
          <leafValues>
            -4.4843319058418274e-01 3.9430594444274902e-01</leafValues></_>
        <_>
          <internalNodes>
            0 -1 43 554144227 -930544944 -1693345528 -1442545214
            -1423398089 -233766775 -1979179181 2130620585</internalNodes>
          <leafValues>
            -5.2535206079483032e-01 3.0846804380416870e-01</leafValues></_>
        <_>
          <internalNodes>
            0 -1 21 764224270 1228939401 1077936577 -2008905534
            -1073638491 -1023278582 285263837 -42181172</internalNodes>
          <leafValues>
            -5.2862685918807983e-01 2.9691264033317566e-01</leafValues></_>
        <_>
          <internalNodes>
            0 -1 67 1518581554 776520707 806371871 528597276 405279310
            -1131872064 587367352 1019512961</internalNodes>
          <leafValues>
            -6.2025153636932373e-01 3.0871629714965820e-01</leafValues></_>
        <_>
          <internalNodes>
            0 -1 36 -1457895437 1138315279 -1073620715 529027277
            -628410223 -1337229254 -2096902016 137478669</internalNodes>
          <leafValues>
            -4.6401101350784302e-01 3.8401511311531067e-01</leafValues></_>
        <_>
          <internalNodes>
            0 -1 130 1355665806 1897955571 -2129637165 1361019138
            -1073528662 -670400512 152512931 -986502912</internalNodes>
          <leafValues>
            -4.6257725358009338e-01 3.7667930126190186e-01</leafValues></_>
        <_>
          <internalNodes>
            0 -1 154 1190606433 -8412169 2097097489 1454358071
            1308475189 -1360625665 2104876758 -574990531</internalNodes>
          <leafValues>
            -3.8119202852249146e-01 4.5292994379997253e-01</leafValues></_></weakClassifiers></_>
    <!-- stage 15 -->
    <_>
      <maxWeakCount>9</maxWeakCount>
      <stageThreshold>-9.0196800231933594e-01</stageThreshold>
      <weakClassifiers>
        <_>
          <internalNodes>
            0 -1 109 -725366642 -1910554605 805355712 -585019321
            289067196 -2003258111 -528062280 -825259861</internalNodes>
          <leafValues>
            -5.6651979684829712e-01 3.5019764304161072e-01</leafValues></_>
        <_>
          <internalNodes>
            0 -1 142 -707015649 1062259293 483887290 -1648995190
            1493867701 674863234 -1660844504 -946386454</internalNodes>
          <leafValues>
            -4.1505149006843567e-01 4.2026466131210327e-01</leafValues></_>
        <_>
          <internalNodes>
            0 -1 22 -771533827 771883043 1376850142 1925290067
            -1685541964 -1157103606 -1474262368 -602240485</internalNodes>
          <leafValues>
            -4.0996113419532776e-01 4.3040338158607483e-01</leafValues></_>
        <_>
          <internalNodes>
            0 -1 46 -536887301 -17661969 -561612 -1544536066 1979015084
            -1108050049 -427860908 -1493172737</internalNodes>
          <leafValues>
            -3.7758710980415344e-01 4.5981603860855103e-01</leafValues></_>
        <_>
          <internalNodes>
            0 -1 158 -112602977 1233981485 1360050195 46503107
            1074635003 159973377 622139915 1159020815</internalNodes>
          <leafValues>
            -4.6079039573669434e-01 3.9397406578063965e-01</leafValues></_>
        <_>
          <internalNodes>
            0 -1 116 -687741598 1443995658 -686272496 286576663
            -1030700988 -1736048503 -1557413116 -1531714854</internalNodes>
          <leafValues>
            -4.8179456591606140e-01 3.7098819017410278e-01</leafValues></_>
        <_>
          <internalNodes>
            0 -1 58 1401536268 -1540759401 276889800 -1633705799
            -267996017 -267976704 1208668238 1032583880</internalNodes>
          <leafValues>
            -5.0718551874160767e-01 3.7014868855476379e-01</leafValues></_>
        <_>
          <internalNodes>
            0 -1 37 420860703 382009617 1073741955 1174829243 1351533267
            436273152 1761798158 18343379</internalNodes>
          <leafValues>
            -5.4846048355102539e-01 3.3612844347953796e-01</leafValues></_>
        <_>
          <internalNodes>
            0 -1 139 1650428653 -1718562286 1347010839 456884231
            -1068400213 -661978976 700744458 26101742</internalNodes>
          <leafValues>
            -5.1784539222717285e-01 3.6022132635116577e-01</leafValues></_></weakClassifiers></_>
    <!-- stage 16 -->
    <_>
      <maxWeakCount>9</maxWeakCount>
      <stageThreshold>-8.0435770750045776e-01</stageThreshold>
      <weakClassifiers>
        <_>
          <internalNodes>
            0 -1 2 1761798923 -2057756200 286331101 546164867
            -1332576101 -1063092095 -536180577 1380407671</internalNodes>
          <leafValues>
            -6.3190186023712158e-01 2.9395216703414917e-01</leafValues></_>
        <_>
          <internalNodes>
            0 -1 143 1968556641 1237946464 83988820 9244673 134750385
            -1423769391 -1845407564 -125060577</internalNodes>
          <leafValues>
            -3.8258594274520874e-01 4.7466000914573669e-01</leafValues></_>
        <_>
          <internalNodes>
            0 -1 96 2054283167 -786186109 1360330819 135954458
            1075217035 276889730 285433857 72088331</internalNodes>
          <leafValues>
            -4.2811775207519531e-01 3.8134238123893738e-01</leafValues></_>
        <_>
          <internalNodes>
            0 -1 87 1945817287 -633549474 -285293313 1509532898
            -302536752 -923488907 -923283780 -884226546</internalNodes>
          <leafValues>
            -3.0145964026451111e-01 5.8637249469757080e-01</leafValues></_>
        <_>
          <internalNodes>
            0 -1 63 -1357657818 17993741 1832911070 -590311212
            1451379313 268435586 -368490475 -1193281228</internalNodes>
          <leafValues>
            -6.1862397193908691e-01 3.3796361088752747e-01</leafValues></_>
        <_>
          <internalNodes>
            0 -1 88 5968469 1615888464 1258471513 1494368512 -889126655
            -1157431168 -1295790031 -123538333</internalNodes>
          <leafValues>
            -5.2851277589797974e-01 3.4707382321357727e-01</leafValues></_>
        <_>
          <internalNodes>
            0 -1 75 1089459811 1689484087 788474662 -17825793 134082221
            -1342840859 -1090846733 -50430499</internalNodes>
          <leafValues>
            -3.5604768991470337e-01 5.4092180728912354e-01</leafValues></_>
        <_>
          <internalNodes>
            0 -1 94 -800859894 -565080047 -1274851106 512172290
            -666893674 -1098776407 -804802238 1147162460</internalNodes>
          <leafValues>
            -5.7236480712890625e-01 3.3302593231201172e-01</leafValues></_>
        <_>
          <internalNodes>
            0 -1 13 358039701 -251461602 -1475805104 -1051590198
            1879048619 -654245760 -2130048315 687628918</internalNodes>
          <leafValues>
            -4.8362353444099426e-01 3.8106393814086914e-01</leafValues></_></weakClassifiers></_>
    <!-- stage 17 -->
    <_>
      <maxWeakCount>10</maxWeakCount>
      <stageThreshold>-1.4097511768341064e+00</stageThreshold>
      <weakClassifiers>
        <_>
          <internalNodes>
            0 -1 103 -744889889 -236990318 -2097131145 1834782735
            1208197753 -100237175 1210089807 1297065251</internalNodes>
          <leafValues>
            -4.3993994593620300e-01 3.6142322421073914e-01</leafValues></_>
        <_>
          <internalNodes>
            0 -1 55 1368731669 -2019422207 352387579 -233168893
            -754285638 -341364519 -75318616 -1995926100</internalNodes>
          <leafValues>
            -4.8343056440353394e-01 3.2906726002693176e-01</leafValues></_>
        <_>
          <internalNodes>
            0 -1 138 -1454688300 977455235 231638 -1396043308 1212810965
            -1191018336 -1576826108 -1427238226</internalNodes>
          <leafValues>
            -5.0213575363159180e-01 2.9406949877738953e-01</leafValues></_>
        <_>
          <internalNodes>
            0 -1 24 1094962134 671113418 -1056873202 1369022878
            -1182769056 -895481715 -1879012882 461920399</internalNodes>
          <leafValues>
            -5.0153487920761108e-01 3.2025885581970215e-01</leafValues></_>
        <_>
          <internalNodes>
            0 -1 107 -950281004 155254816 9453907 358207504 -536790616
            244219905 436968842 -1758403686</internalNodes>
          <leafValues>
            -5.0117641687393188e-01 2.8806522488594055e-01</leafValues></_>
        <_>
          <internalNodes>
            0 -1 76 1129529429 805355635 88735746 -636583131 839495840
            1476534281 151030468 2049571626</internalNodes>
          <leafValues>
            -4.4957542419433594e-01 3.4822964668273926e-01</leafValues></_>
        <_>
          <internalNodes>
            0 -1 108 -528447440 -762183645 -1862204976 320209024
            -2013091668 -1073348472 -520085272 -442339471</internalNodes>
          <leafValues>
            -4.4349768757820129e-01 3.8073611259460449e-01</leafValues></_>
        <_>
          <internalNodes>
            0 -1 135 -716687620 1372340241 1393566038 -1182641919
            1151015848 2139685001 957426142 451072899</internalNodes>
          <leafValues>
            -3.9480790495872498e-01 3.9528661966323853e-01</leafValues></_>
        <_>
          <internalNodes>
            0 -1 125 -540781726 1715438595 152129669 1816199256
            -2139029455 461504650 184676401 -1347605952</internalNodes>
          <leafValues>
            -5.2310508489608765e-01 2.9883146286010742e-01</leafValues></_>
        <_>
          <internalNodes>
            0 -1 145 -926682153 -2129162238 268501124 899486081
            -2092855026 -1316511607 -636912902 718003102</internalNodes>
          <leafValues>
            -4.1414344310760498e-01 4.0261667966842651e-01</leafValues></_></weakClassifiers></_>
    <!-- stage 18 -->
    <_>
      <maxWeakCount>9</maxWeakCount>
      <stageThreshold>-1.3479198217391968e+00</stageThreshold>
      <weakClassifiers>
        <_>
          <internalNodes>
            0 -1 42 -234229506 1396703316 -1879026598 -615448064
            1216369068 818417803 -922746632 -75242998</internalNodes>
          <leafValues>
            -4.5344436168670654e-01 3.6978682875633240e-01</leafValues></_>
        <_>
          <internalNodes>
            0 -1 93 -937770914 -570064763 1073860758 428165511
            -1065217624 146833536 437359071 851262094</internalNodes>
          <leafValues>
            -5.0858271121978760e-01 3.3092176914215088e-01</leafValues></_>
        <_>
          <internalNodes>
            0 -1 52 -1816560037 -839385137 -822153535 1878990825
            -155812073 -1962967113 -1133005465 -1098949025</internalNodes>
          <leafValues>
            -3.4220564365386963e-01 5.3508603572845459e-01</leafValues></_>
        <_>
          <internalNodes>
            0 -1 155 1100132765 16826385 1207960725 -1861681119
            1988636693 281290752 -1476359704 -1979332578</internalNodes>
          <leafValues>
            -4.0585398674011230e-01 4.4236239790916443e-01</leafValues></_>
        <_>
          <internalNodes>
            0 -1 100 -1476857598 1554179437 -151077889 -705120325
            1862018517 -822116361 -1243304291 -884766678</internalNodes>
          <leafValues>
            -3.2030847668647766e-01 5.6360185146331787e-01</leafValues></_>
        <_>
          <internalNodes>
            0 -1 106 -1012756280 1074331665 1090601232 1527333633
            -2044493128 169869641 -1744747574 -1438723576</internalNodes>
          <leafValues>
            -5.0668984651565552e-01 3.7783154845237732e-01</leafValues></_>
        <_>
          <internalNodes>
            0 -1 53 -1589394953 1078050889 1 1430274309 -527196017
            1342177280 536969483 -105096699</internalNodes>
          <leafValues>
            -5.5359655618667603e-01 3.7647423148155212e-01</leafValues></_>
        <_>
          <internalNodes>
            0 -1 140 -720949153 218300417 1342197783 1704263747 262159
            16777224 537022486 7331851</internalNodes>
          <leafValues>
            -4.5206323266029358e-01 4.3948787450790405e-01</leafValues></_>
        <_>
          <internalNodes>
            0 -1 98 536969237 -2113662974 82073 1397162001 -528351214
            402849792 570589321 -502398944</internalNodes>
          <leafValues>
            -5.1070719957351685e-01 3.6651936173439026e-01</leafValues></_></weakClassifiers></_>
    <!-- stage 19 -->
    <_>
      <maxWeakCount>8</maxWeakCount>
      <stageThreshold>-5.9519338607788086e-01</stageThreshold>
      <weakClassifiers>
        <_>
          <internalNodes>
            0 -1 161 -5579977 -1817461342 -1075663088 891370241
            -1118438594 -268541953 -176734450 -1450722294</internalNodes>
          <leafValues>
            -3.7808376550674438e-01 6.9863015413284302e-01</leafValues></_>
        <_>
          <internalNodes>
            0 -1 59 -847389067 -848609556 -413290937 203451885
            -562696299 1089765212 -690863 -85243965</internalNodes>
          <leafValues>
            -3.2630151510238647e-01 7.1891176700592041e-01</leafValues></_>
        <_>
          <internalNodes>
            0 -1 83 269697607 1476935680 1 285278224 1342212115
            671092753 134250888 1636485146</internalNodes>
          <leafValues>
            -5.3262102603912354e-01 4.6833306550979614e-01</leafValues></_>
        <_>
          <internalNodes>
            0 -1 19 -493792829 135331840 1073807378 1073938443 42467330
            -1610088440 671121665 553943177</internalNodes>
          <leafValues>
            -5.0708013772964478e-01 5.0986284017562866e-01</leafValues></_>
        <_>
          <internalNodes>
            0 -1 160 420815505 -2129428478 -1862205371 -2013200376
            1074266499 671105156 1073745944 1183414540</internalNodes>
          <leafValues>
            -5.1074266433715820e-01 5.1100295782089233e-01</leafValues></_>
        <_>
          <internalNodes>
            0 -1 119 -253203418 1106341806 -84070474 -512628995
            -722086724 -922779649 1073603784 -336648734</internalNodes>
          <leafValues>
            -3.5143062472343445e-01 7.7616137266159058e-01</leafValues></_>
        <_>
          <internalNodes>
            0 -1 62 1275134082 -922681344 33571028 1082212353 142606336
            0 -939425758 998494255</internalNodes>
          <leafValues>
            -5.4555726051330566e-01 4.9040403962135315e-01</leafValues></_>
        <_>
          <internalNodes>
            0 -1 152 1538759195 -1825624199 -1350795360 -566837910
            259335462 117145076 1006600054 -2066317858</internalNodes>
          <leafValues>
            -4.8301902413368225e-01 6.0136109590530396e-01</leafValues></_></weakClassifiers></_>
    <!-- stage 20 -->
    <_>
      <maxWeakCount>4</maxWeakCount>
      <stageThreshold>-9.0649175643920898e-01</stageThreshold>
      <weakClassifiers>
        <_>
          <internalNodes>
            0 -1 118 1358987330 -805240832 0 285212672 34952 4
            -2130706304 -385777151</internalNodes>
          <leafValues>
            -5.9277707338333130e-01 9.4710326194763184e-01</leafValues></_>
        <_>
          <internalNodes>
            0 -1 41 -1438669214 -1561202842 587135602 1730438959
            -8439818 -1485471897 2013231090 545095644</internalNodes>
          <leafValues>
            -5.5986177921295166e-01 8.3882695436477661e-01</leafValues></_>
        <_>
          <internalNodes>
            0 -1 91 1089407252 486427756 2147479416 -1922150725
            2147384957 787740668 -1761748739 -1056374266</internalNodes>
          <leafValues>
            -5.0682604312896729e-01 8.9123880863189697e-01</leafValues></_>
        <_>
          <internalNodes>
            0 -1 99 -805224348 1610678274 16777224 -1862205439
            -2147450880 0 8912898 134316160</internalNodes>
          <leafValues>
            -6.4509171247482300e-01 7.6772445440292358e-01</leafValues></_></weakClassifiers></_>
    <!-- stage 21 -->
    <_>
      <maxWeakCount>3</maxWeakCount>
      <stageThreshold>-5.7038855552673340e-01</stageThreshold>
      <weakClassifiers>
        <_>
          <internalNodes>
            0 -1 162 -2147434488 1073741824 0 65536 2 0 33587200
            11206664</internalNodes>
          <leafValues>
            -7.5913399457931519e-01 1.</leafValues></_>
        <_>
          <internalNodes>
            0 -1 71 16777216 -2126446591 64 16777216 -2147450752
            -2147483647 32768 8388608</internalNodes>
          <leafValues>
            -6.8298107385635376e-01 1.</leafValues></_>
        <_>
          <internalNodes>
            0 -1 86 -2147221376 -2146435072 8404993 16777217 1073774592
            0 64 553844736</internalNodes>
          <leafValues>
            -7.3680722713470459e-01 8.7172651290893555e-01</leafValues></_></weakClassifiers></_></stages>
  <features>
    <_>
      <rect>
        0 0 1 1</rect></_>
    <_>
      <rect>
        0 0 6 4</rect></_>
    <_>
      <rect>
        0 0 11 5</rect></_>
    <_>
      <rect>
        0 3 13 2</rect></_>
    <_>
      <rect>
        0 4 7 3</rect></_>
    <_>
      <rect>
        0 4 12 4</rect></_>
    <_>
      <rect>
        1 1 7 5</rect></_>
    <_>
      <rect>
        1 2 7 4</rect></_>
    <_>
      <rect>
        1 2 11 5</rect></_>
    <_>
      <rect>
        1 6 15 3</rect></_>
    <_>
      <rect>
        1 9 10 3</rect></_>
    <_>
      <rect>
        1 11 6 3</rect></_>
    <_>
      <rect>
        2 0 6 3</rect></_>
    <_>
      <rect>
        2 0 6 4</rect></_>
    <_>
      <rect>
        2 1 6 3</rect></_>
    <_>
      <rect>
        2 8 9 3</rect></_>
    <_>
      <rect>
        2 8 11 3</rect></_>
    <_>
      <rect>
        3 0 12 3</rect></_>
    <_>
      <rect>
        3 7 8 2</rect></_>
    <_>
      <rect>
        3 11 4 3</rect></_>
    <_>
      <rect>
        4 0 13 2</rect></_>
    <_>
      <rect>
        4 1 3 5</rect></_>
    <_>
      <rect>
        4 1 15 2</rect></_>
    <_>
      <rect>
        4 2 12 6</rect></_>
    <_>
      <rect>
        4 7 9 4</rect></_>
    <_>
      <rect>
        5 2 9 6</rect></_>
    <_>
      <rect>
        5 3 14 2</rect></_>
    <_>
      <rect>
        5 7 7 4</rect></_>
    <_>
      <rect>
        5 11 5 3</rect></_>
    <_>
      <rect>
        6 0 12 3</rect></_>
    <_>
      <rect>
        6 1 7 5</rect></_>
    <_>
      <rect>
        6 11 10 3</rect></_>
    <_>
      <rect>
        7 4 7 3</rect></_>
    <_>
      <rect>
        7 7 6 2</rect></_>
    <_>
      <rect>
        7 11 6 3</rect></_>
    <_>
      <rect>
        8 2 5 4</rect></_>
    <_>
      <rect>
        8 2 7 3</rect></_>
    <_>
      <rect>
        8 15 1 1</rect></_>
    <_>
      <rect>
        9 3 9 2</rect></_>
    <_>
      <rect>
        9 7 5 3</rect></_>
    <_>
      <rect>
        9 8 6 3</rect></_>
    <_>
      <rect>
        9 8 8 2</rect></_>
    <_>
      <rect>
        9 9 5 2</rect></_>
    <_>
      <rect>
        9 17 9 1</rect></_>
    <_>
      <rect>
        10 1 10 3</rect></_>
    <_>
      <rect>
        10 1 13 4</rect></_>
    <_>
      <rect>
        10 10 4 2</rect></_>
    <_>
      <rect>
        10 10 7 2</rect></_>
    <_>
      <rect>
        11 1 13 3</rect></_>
    <_>
      <rect>
        11 4 12 4</rect></_>
    <_>
      <rect>
        11 10 13 3</rect></_>
    <_>
      <rect>
        12 0 9 2</rect></_>
    <_>
      <rect>
        12 1 8 1</rect></_>
    <_>
      <rect>
        12 3 1 2</rect></_>
    <_>
      <rect>
        12 3 10 2</rect></_>
    <_>
      <rect>
        12 3 11 2</rect></_>
    <_>
      <rect>
        12 4 5 3</rect></_>
    <_>
      <rect>
        12 4 9 3</rect></_>
    <_>
      <rect>
        12 4 9 5</rect></_>
    <_>
      <rect>
        13 0 4 2</rect></_>
    <_>
      <rect>
        13 2 8 6</rect></_>
    <_>
      <rect>
        13 4 12 2</rect></_>
    <_>
      <rect>
        13 7 6 2</rect></_>
    <_>
      <rect>
        13 10 2 1</rect></_>
    <_>
      <rect>
        13 10 3 2</rect></_>
    <_>
      <rect>
        14 2 6 4</rect></_>
    <_>
      <rect>
        14 6 7 2</rect></_>
    <_>
      <rect>
        14 9 11 3</rect></_>
    <_>
      <rect>
        15 7 9 2</rect></_>
    <_>
      <rect>
        15 9 6 2</rect></_>
    <_>
      <rect>
        15 10 5 2</rect></_>
    <_>
      <rect>
        15 11 9 3</rect></_>
    <_>
      <rect>
        16 1 10 6</rect></_>
    <_>
      <rect>
        16 6 1 1</rect></_>
    <_>
      <rect>
        16 10 10 2</rect></_>
    <_>
      <rect>
        16 11 6 3</rect></_>
    <_>
      <rect>
        17 0 11 3</rect></_>
    <_>
      <rect>
        17 5 6 2</rect></_>
    <_>
      <rect>
        17 5 6 3</rect></_>
    <_>
      <rect>
        17 6 7 2</rect></_>
    <_>
      <rect>
        17 9 5 2</rect></_>
    <_>
      <rect>
        17 11 3 1</rect></_>
    <_>
      <rect>
        17 14 9 2</rect></_>
    <_>
      <rect>
        18 5 5 2</rect></_>
    <_>
      <rect>
        18 10 10 2</rect></_>
    <_>
      <rect>
        18 11 10 2</rect></_>
    <_>
      <rect>
        19 5 7 5</rect></_>
    <_>
      <rect>
        19 6 5 2</rect></_>
    <_>
      <rect>
        19 8 1 1</rect></_>
    <_>
      <rect>
        19 9 9 3</rect></_>
    <_>
      <rect>
        20 0 10 6</rect></_>
    <_>
      <rect>
        20 3 5 3</rect></_>
    <_>
      <rect>
        20 6 5 2</rect></_>
    <_>
      <rect>
        20 7 4 3</rect></_>
    <_>
      <rect>
        20 8 3 2</rect></_>
    <_>
      <rect>
        20 11 10 3</rect></_>
    <_>
      <rect>
        21 1 1 1</rect></_>
    <_>
      <rect>
        21 6 3 2</rect></_>
    <_>
      <rect>
        21 7 1 1</rect></_>
    <_>
      <rect>
        21 14 7 2</rect></_>
    <_>
      <rect>
        22 6 3 2</rect></_>
    <_>
      <rect>
        22 8 7 3</rect></_>
    <_>
      <rect>
        22 8 9 3</rect></_>
    <_>
      <rect>
        23 1 1 1</rect></_>
    <_>
      <rect>
        23 7 8 4</rect></_>
    <_>
      <rect>
        23 8 2 1</rect></_>
    <_>
      <rect>
        23 8 5 2</rect></_>
    <_>
      <rect>
        23 8 7 2</rect></_>
    <_>
      <rect>
        23 9 1 1</rect></_>
    <_>
      <rect>
        23 9 9 2</rect></_>
    <_>
      <rect>
        23 10 6 2</rect></_>
    <_>
      <rect>
        23 12 3 1</rect></_>
    <_>
      <rect>
        23 13 3 1</rect></_>
    <_>
      <rect>
        24 2 7 5</rect></_>
    <_>
      <rect>
        24 7 5 3</rect></_>
    <_>
      <rect>
        24 8 4 2</rect></_>
    <_>
      <rect>
        24 9 3 1</rect></_>
    <_>
      <rect>
        25 1 6 5</rect></_>
    <_>
      <rect>
        25 7 3 2</rect></_>
    <_>
      <rect>
        25 8 2 1</rect></_>
    <_>
      <rect>
        25 9 2 1</rect></_>
    <_>
      <rect>
        25 9 3 2</rect></_>
    <_>
      <rect>
        25 17 1 1</rect></_>
    <_>
      <rect>
        26 0 8 3</rect></_>
    <_>
      <rect>
        26 9 3 1</rect></_>
    <_>
      <rect>
        26 14 7 2</rect></_>
    <_>
      <rect>
        27 0 7 4</rect></_>
    <_>
      <rect>
        27 1 1 1</rect></_>
    <_>
      <rect>
        27 4 5 3</rect></_>
    <_>
      <rect>
        27 4 7 3</rect></_>
    <_>
      <rect>
        27 5 3 2</rect></_>
    <_>
      <rect>
        27 10 2 1</rect></_>
    <_>
      <rect>
        28 3 7 4</rect></_>
    <_>
      <rect>
        28 5 2 1</rect></_>
    <_>
      <rect>
        28 8 2 1</rect></_>
    <_>
      <rect>
        28 9 3 2</rect></_>
    <_>
      <rect>
        28 9 5 3</rect></_>
    <_>
      <rect>
        28 10 1 1</rect></_>
    <_>
      <rect>
        28 11 1 1</rect></_>
    <_>
      <rect>
        29 0 7 5</rect></_>
    <_>
      <rect>
        29 1 1 1</rect></_>
    <_>
      <rect>
        29 4 7 3</rect></_>
    <_>
      <rect>
        29 10 4 2</rect></_>
    <_>
      <rect>
        29 11 3 3</rect></_>
    <_>
      <rect>
        29 12 1 1</rect></_>
    <_>
      <rect>
        30 1 6 4</rect></_>
    <_>
      <rect>
        30 8 4 2</rect></_>
    <_>
      <rect>
        30 8 6 4</rect></_>
    <_>
      <rect>
        30 9 1 1</rect></_>
    <_>
      <rect>
        31 6 1 1</rect></_>
    <_>
      <rect>
        31 16 1 1</rect></_>
    <_>
      <rect>
        32 1 6 5</rect></_>
    <_>
      <rect>
        32 8 6 4</rect></_>
    <_>
      <rect>
        32 10 1 1</rect></_>
    <_>
      <rect>
        33 13 5 2</rect></_>
    <_>
      <rect>
        34 8 2 1</rect></_>
    <_>
      <rect>
        36 5 1 2</rect></_>
    <_>
      <rect>
        36 6 1 1</rect></_>
    <_>
      <rect>
        37 1 1 1</rect></_>
    <_>
      <rect>
        37 17 1 1</rect></_>
    <_>
      <rect>
        38 5 3 3</rect></_>
    <_>
      <rect>
        38 7 2 2</rect></_>
    <_>
      <rect>
        39 11 3 2</rect></_>
    <_>
      <rect>
        40 17 1 1</rect></_></features></cascade>
</opencv_storage>
