<?xml version="1.0"?>
<opencv_storage>
<stage18>
  <maxWeakCount>9</maxWeakCount>
  <stageThreshold>-1.3479198217391968e+00</stageThreshold>
  <weakClassifiers>
    <_>
      <internalNodes>
        0 -1 9103 -234229506 1396703316 -1879026598 -615448064
        1216369068 818417803 -922746632 -75242998</internalNodes>
      <leafValues>
        -4.5344436168670654e-01 3.6978682875633240e-01</leafValues></_>
    <_>
      <internalNodes>
        0 -1 16953 -937770914 -570064763 1073860758 428165511
        -1065217624 146833536 437359071 851262094</internalNodes>
      <leafValues>
        -5.0858271121978760e-01 3.3092176914215088e-01</leafValues></_>
    <_>
      <internalNodes>
        0 -1 11076 -1816560037 -839385137 -822153535 1878990825
        -155812073 -1962967113 -1133005465 -1098949025</internalNodes>
      <leafValues>
        -3.4220564365386963e-01 5.3508603572845459e-01</leafValues></_>
    <_>
      <internalNodes>
        0 -1 23393 1100132765 16826385 1207960725 -1861681119 1988636693
        281290752 -1476359704 -1979332578</internalNodes>
      <leafValues>
        -4.0585398674011230e-01 4.4236239790916443e-01</leafValues></_>
    <_>
      <internalNodes>
        0 -1 18072 -1476857598 1554179437 -151077889 -705120325
        1862018517 -822116361 -1243304291 -884766678</internalNodes>
      <leafValues>
        -3.2030847668647766e-01 5.6360185146331787e-01</leafValues></_>
    <_>
      <internalNodes>
        0 -1 18719 -1012756280 1074331665 1090601232 1527333633
        -2044493128 169869641 -1744747574 -1438723576</internalNodes>
      <leafValues>
        -5.0668984651565552e-01 3.7783154845237732e-01</leafValues></_>
    <_>
      <internalNodes>
        0 -1 11179 -1589394953 1078050889 1 1430274309 -527196017
        1342177280 536969483 -105096699</internalNodes>
      <leafValues>
        -5.5359655618667603e-01 3.7647423148155212e-01</leafValues></_>
    <_>
      <internalNodes>
        0 -1 21336 -720949153 218300417 1342197783 1704263747 262159
        16777224 537022486 7331851</internalNodes>
      <leafValues>
        -4.5206323266029358e-01 4.3948787450790405e-01</leafValues></_>
    <_>
      <internalNodes>
        0 -1 17532 536969237 -2113662974 82073 1397162001 -528351214
        402849792 570589321 -502398944</internalNodes>
      <leafValues>
        -5.1070719957351685e-01 3.6651936173439026e-01</leafValues></_></weakClassifiers></stage18>
</opencv_storage>
