<?xml version="1.0"?>
<opencv_storage>
<stage11>
  <maxWeakCount>8</maxWeakCount>
  <stageThreshold>-1.1304273605346680e+00</stageThreshold>
  <weakClassifiers>
    <_>
      <internalNodes>
        0 -1 12050 -665464801 -653016879 1090591647 265324309 1241546989
        -894795357 675580312 135060155</internalNodes>
      <leafValues>
        -5.5300354957580566e-01 3.3596214652061462e-01</leafValues></_>
    <_>
      <internalNodes>
        0 -1 22004 -5251277 -1876891720 2130673441 -143393290 1060450096
        754958333 -1476994081 -34619905</internalNodes>
      <leafValues>
        -3.5705485939979553e-01 5.2375227212905884e-01</leafValues></_>
    <_>
      <internalNodes>
        0 -1 19767 -565395162 2081521739 -1073737538 -750600000
        1076485136 1210761266 -1879000432 -2064191070</internalNodes>
      <leafValues>
        -4.5319485664367676e-01 3.9552867412567139e-01</leafValues></_>
    <_>
      <internalNodes>
        0 -1 3608 1321892076 -2012708736 289444055 218468446 67787345
        -1289223677 -536682325 -45876642</internalNodes>
      <leafValues>
        -4.7407382726669312e-01 3.8114127516746521e-01</leafValues></_>
    <_>
      <internalNodes>
        0 -1 22561 -291109 1044320189 1869282627 536735579 -1346486480
        -8913026 -1360613502 1743515626</internalNodes>
      <leafValues>
        -3.1767496466636658e-01 5.6415265798568726e-01</leafValues></_>
    <_>
      <internalNodes>
        0 -1 20595 1238859860 2101478191 1342247125 -1723166331
        -1073688122 -2095017560 -1341009255 9167744</internalNodes>
      <leafValues>
        -6.0885429382324219e-01 2.7344956994056702e-01</leafValues></_>
    <_>
      <internalNodes>
        0 -1 11011 -849931093 1079971090 -1878966123 210128898
        -259477466 -71761767 -1836512687 892690953</internalNodes>
      <leafValues>
        -4.9074611067771912e-01 4.3081039190292358e-01</leafValues></_>
    <_>
      <internalNodes>
        0 -1 18841 1637491255 965478672 -2129588107 -1885072485 270507
        -1299734398 -1878971926 -283473197</internalNodes>
      <leafValues>
        -4.9041250348091125e-01 3.7999427318572998e-01</leafValues></_></weakClassifiers></stage11>
</opencv_storage>
