<?xml version="1.0"?>
<opencv_storage>
<stage6>
  <maxWeakCount>7</maxWeakCount>
  <stageThreshold>-7.6910465955734253e-01</stageThreshold>
  <weakClassifiers>
    <_>
      <internalNodes>
        0 -1 14479 -661792971 1044480795 324223769 1063507615 -628569939
        -1968570237 -654310928 2115822031</internalNodes>
      <leafValues>
        -5.6071150302886963e-01 4.7425475716590881e-01</leafValues></_>
    <_>
      <internalNodes>
        0 -1 426 958553343 -192097088 1358973233 -854595440 -100038549
        -90566647 -1459028421 1266436943</internalNodes>
      <leafValues>
        -5.4936379194259644e-01 3.9720600843429565e-01</leafValues></_>
    <_>
      <internalNodes>
        0 -1 23927 -859832345 855474174 -1073741841 -1310721 2147418111
        2147287039 -805339593 -1432193229</internalNodes>
      <leafValues>
        -4.0014204382896423e-01 4.9409252405166626e-01</leafValues></_>
    <_>
      <internalNodes>
        0 -1 12895 1911618250 1474378363 871732215 1911940835
        -1250453633 -365560198 -956851032 -139352062</internalNodes>
      <leafValues>
        -4.3370026350021362e-01 4.7571861743927002e-01</leafValues></_>
    <_>
      <internalNodes>
        0 -1 15271 1690903399 173904001 -2130640879 -2076241913
        1493403746 -612237184 -937785118 -1414833513</internalNodes>
      <leafValues>
        -4.9070155620574951e-01 4.3383941054344177e-01</leafValues></_>
    <_>
      <internalNodes>
        0 -1 22311 173965845 -1994837429 -2092842669 -1253899391
        1745027182 -385777534 -1065352503 -1426312592</internalNodes>
      <leafValues>
        -6.2014728784561157e-01 3.1495907902717590e-01</leafValues></_>
    <_>
      <internalNodes>
        0 -1 9004 1879043710 -567251282 -114689 1996488702 1736342868
        -1073840771 -151003400 -188482276</internalNodes>
      <leafValues>
        -4.4253262877464294e-01 4.8262712359428406e-01</leafValues></_></weakClassifiers></stage6>
</opencv_storage>
