<?xml version="1.0"?>
<opencv_storage>
<stage7>
  <maxWeakCount>7</maxWeakCount>
  <stageThreshold>-8.0872106552124023e-01</stageThreshold>
  <weakClassifiers>
    <_>
      <internalNodes>
        0 -1 4220 -581774866 -1744186987 25346311 353476621 -2134329125
        -1064762238 134316155 1069543391</internalNodes>
      <leafValues>
        -5.9554415941238403e-01 4.0145984292030334e-01</leafValues></_>
    <_>
      <internalNodes>
        0 -1 5927 861902135 -1806958583 1359524298 -192520171 -402124335
        -1853324792 -654242832 -905378904</internalNodes>
      <leafValues>
        -4.8884212970733643e-01 4.4976663589477539e-01</leafValues></_>
    <_>
      <internalNodes>
        0 -1 21182 1535098651 775164288 37818516 -1861685038 713066884
        -1660944375 -1568037744 -1362958177</internalNodes>
      <leafValues>
        -5.0627303123474121e-01 4.2286232113838196e-01</leafValues></_>
    <_>
      <internalNodes>
        0 -1 1239 845297721 1476870300 1073972521 1561137162 1090963555
        -1129676613 135217512 2071157068</internalNodes>
      <leafValues>
        -5.5950886011123657e-01 3.5339659452438354e-01</leafValues></_>
    <_>
      <internalNodes>
        0 -1 1757 -345920782 1258504215 33599578 -12025206 -1970798492
        -1803550711 -2004308789 -1447901941</internalNodes>
      <leafValues>
        -5.0939977169036865e-01 4.0333572030067444e-01</leafValues></_>
    <_>
      <internalNodes>
        0 -1 13670 822069306 -587436289 -150998019 -176194566 -671088947
        -1728745481 -1669339143 -2139758849</internalNodes>
      <leafValues>
        -4.5854246616363525e-01 5.1154923439025879e-01</leafValues></_>
    <_>
      <internalNodes>
        0 -1 18706 -993353148 355684402 -2146959344 -788524032
        -1727346606 -1046282238 -1592882720 -1045788670</internalNodes>
      <leafValues>
        -4.4370794296264648e-01 4.8374837636947632e-01</leafValues></_></weakClassifiers></stage7>
</opencv_storage>
