<?xml version="1.0"?>
<opencv_storage>
<stage10>
  <maxWeakCount>9</maxWeakCount>
  <stageThreshold>-1.1831073760986328e+00</stageThreshold>
  <weakClassifiers>
    <_>
      <internalNodes>
        0 -1 18169 -749479798 -1625632487 -2059086953 -1617563391
        -1736193654 -2004351830 -2103400690 -557057295</internalNodes>
      <leafValues>
        -4.8148149251937866e-01 4.0575674176216125e-01</leafValues></_>
    <_>
      <internalNodes>
        0 -1 5983 1187926698 -593786029 -788442731 -1995321211
        -803536662 -1727045504 -645610853 808548383</internalNodes>
      <leafValues>
        -5.7232105731964111e-01 3.1372886896133423e-01</leafValues></_>
    <_>
      <internalNodes>
        0 -1 12301 2147465919 1878409214 -285331910 2130591550
        1434219925 2004701119 -805306628 -179308801</internalNodes>
      <leafValues>
        -3.9944201707839966e-01 4.6240684390068054e-01</leafValues></_>
    <_>
      <internalNodes>
        0 -1 24314 -49876993 -339480441 184594881 105599923 1628631643
        1342185512 344080967 1141352565</internalNodes>
      <leafValues>
        -5.0305640697479248e-01 3.5639002919197083e-01</leafValues></_>
    <_>
      <internalNodes>
        0 -1 23946 -979240353 -1077771806 -1878851571 969327043
        -1307737365 -662552440 -494927736 -1929881036</internalNodes>
      <leafValues>
        -4.5676326751708984e-01 4.4204077124595642e-01</leafValues></_>
    <_>
      <internalNodes>
        0 -1 15124 -915809450 -775942910 289542455 1602392337 805989375
        960110594 -1072947528 377768908</internalNodes>
      <leafValues>
        -5.5334013700485229e-01 3.2579421997070312e-01</leafValues></_>
    <_>
      <internalNodes>
        0 -1 14950 844169846 335665167 1074873553 1728184642 1451352460
        -914225126 -1844804613 1124844686</internalNodes>
      <leafValues>
        -4.4135257601737976e-01 4.2679861187934875e-01</leafValues></_>
    <_>
      <internalNodes>
        0 -1 22479 1870467547 -1721479022 -1002185709 1162298752
        168536077 444862618 310860803 1088280647</internalNodes>
      <leafValues>
        -6.0495561361312866e-01 2.7924254536628723e-01</leafValues></_>
    <_>
      <internalNodes>
        0 -1 14286 51064583 -1554939884 -2080288377 -2142842029
        269097010 17433922 -385732216 -2103154671</internalNodes>
      <leafValues>
        -6.8099468946456909e-01 3.1213814020156860e-01</leafValues></_></weakClassifiers></stage10>
</opencv_storage>
