<?xml version="1.0"?>
<opencv_storage>
<stage15>
  <maxWeakCount>9</maxWeakCount>
  <stageThreshold>-9.0196800231933594e-01</stageThreshold>
  <weakClassifiers>
    <_>
      <internalNodes>
        0 -1 18763 -725366642 -1910554605 805355712 -585019321 289067196
        -2003258111 -528062280 -825259861</internalNodes>
      <leafValues>
        -5.6651979684829712e-01 3.5019764304161072e-01</leafValues></_>
    <_>
      <internalNodes>
        0 -1 21640 -707015649 1062259293 483887290 -1648995190
        1493867701 674863234 -1660844504 -946386454</internalNodes>
      <leafValues>
        -4.1505149006843567e-01 4.2026466131210327e-01</leafValues></_>
    <_>
      <internalNodes>
        0 -1 4144 -771533827 771883043 1376850142 1925290067 -1685541964
        -1157103606 -1474262368 -602240485</internalNodes>
      <leafValues>
        -4.0996113419532776e-01 4.3040338158607483e-01</leafValues></_>
    <_>
      <internalNodes>
        0 -1 9958 -536887301 -17661969 -561612 -1544536066 1979015084
        -1108050049 -427860908 -1493172737</internalNodes>
      <leafValues>
        -3.7758710980415344e-01 4.5981603860855103e-01</leafValues></_>
    <_>
      <internalNodes>
        0 -1 24090 -112602977 1233981485 1360050195 46503107 1074635003
        159973377 622139915 1159020815</internalNodes>
      <leafValues>
        -4.6079039573669434e-01 3.9397406578063965e-01</leafValues></_>
    <_>
      <internalNodes>
        0 -1 19266 -687741598 1443995658 -686272496 286576663
        -1030700988 -1736048503 -1557413116 -1531714854</internalNodes>
      <leafValues>
        -4.8179456591606140e-01 3.7098819017410278e-01</leafValues></_>
    <_>
      <internalNodes>
        0 -1 11282 1401536268 -1540759401 276889800 -1633705799
        -267996017 -267976704 1208668238 1032583880</internalNodes>
      <leafValues>
        -5.0718551874160767e-01 3.7014868855476379e-01</leafValues></_>
    <_>
      <internalNodes>
        0 -1 8463 420860703 382009617 1073741955 1174829243 1351533267
        436273152 1761798158 18343379</internalNodes>
      <leafValues>
        -5.4846048355102539e-01 3.3612844347953796e-01</leafValues></_>
    <_>
      <internalNodes>
        0 -1 21334 1650428653 -1718562286 1347010839 456884231
        -1068400213 -661978976 700744458 26101742</internalNodes>
      <leafValues>
        -5.1784539222717285e-01 3.6022132635116577e-01</leafValues></_></weakClassifiers></stage15>
</opencv_storage>
