<?xml version="1.0"?>
<opencv_storage>
<stage5>
  <maxWeakCount>7</maxWeakCount>
  <stageThreshold>-9.2962020635604858e-01</stageThreshold>
  <weakClassifiers>
    <_>
      <internalNodes>
        0 -1 16415 2147211807 1067827123 801079097 1073217535 -268959750
        -1627406206 -805323076 -74725153</internalNodes>
      <leafValues>
        -5.1705318689346313e-01 5.9743040800094604e-01</leafValues></_>
    <_>
      <internalNodes>
        0 -1 14951 -628035470 -787234288 268435665 -250493952
        -2029922061 -267026425 -1987737190 65241642</internalNodes>
      <leafValues>
        -5.3553920984268188e-01 4.1399589180946350e-01</leafValues></_>
    <_>
      <internalNodes>
        0 -1 20451 2032058527 -1705438768 1410896274 -2013035643
        1511235657 -1617321695 -393631288 1883108202</internalNodes>
      <leafValues>
        -4.7503465414047241e-01 4.0282452106475830e-01</leafValues></_>
    <_>
      <internalNodes>
        0 -1 9967 2119631098 1586548802 1098973210 506214526 855720573
        1493237768 -2096956675 963464219</internalNodes>
      <leafValues>
        -6.6983735561370850e-01 2.8428483009338379e-01</leafValues></_>
    <_>
      <internalNodes>
        0 -1 6602 -395514065 -286294018 -1 -1430327306 -195815468
        -1895940098 -1216878603 -941350982</internalNodes>
      <leafValues>
        -3.9163881540298462e-01 5.1249623298645020e-01</leafValues></_>
    <_>
      <internalNodes>
        0 -1 19241 -736132158 1497813009 -1610605546 -715583151 21143976
        176816296 681631880 1006106850</internalNodes>
      <leafValues>
        -5.0431966781616211e-01 4.2116287350654602e-01</leafValues></_>
    <_>
      <internalNodes>
        0 -1 5496 -472928584 1384298688 -1589640386 356966402 459893
        -1979105023 -1476007725 2065656330</internalNodes>
      <leafValues>
        -5.5225843191146851e-01 3.8180845975875854e-01</leafValues></_></weakClassifiers></stage5>
</opencv_storage>
