<?xml version="1.0"?>
<opencv_storage>
<stage19>
  <maxWeakCount>8</maxWeakCount>
  <stageThreshold>-5.9519338607788086e-01</stageThreshold>
  <weakClassifiers>
    <_>
      <internalNodes>
        0 -1 24471 -5579977 -1817461342 -1075663088 891370241
        -1118438594 -268541953 -176734450 -1450722294</internalNodes>
      <leafValues>
        -3.7808376550674438e-01 6.9863015413284302e-01</leafValues></_>
    <_>
      <internalNodes>
        0 -1 11737 -847389067 -848609556 -413290937 203451885 -562696299
        1089765212 -690863 -85243965</internalNodes>
      <leafValues>
        -3.2630151510238647e-01 7.1891176700592041e-01</leafValues></_>
    <_>
      <internalNodes>
        0 -1 15610 269697607 1476935680 1 285278224 1342212115 671092753
        134250888 1636485146</internalNodes>
      <leafValues>
        -5.3262102603912354e-01 4.6833306550979614e-01</leafValues></_>
    <_>
      <internalNodes>
        0 -1 3800 -493792829 135331840 1073807378 1073938443 42467330
        -1610088440 671121665 553943177</internalNodes>
      <leafValues>
        -5.0708013772964478e-01 5.0986284017562866e-01</leafValues></_>
    <_>
      <internalNodes>
        0 -1 24442 420815505 -2129428478 -1862205371 -2013200376
        1074266499 671105156 1073745944 1183414540</internalNodes>
      <leafValues>
        -5.1074266433715820e-01 5.1100295782089233e-01</leafValues></_>
    <_>
      <internalNodes>
        0 -1 19736 -253203418 1106341806 -84070474 -512628995 -722086724
        -922779649 1073603784 -336648734</internalNodes>
      <leafValues>
        -3.5143062472343445e-01 7.7616137266159058e-01</leafValues></_>
    <_>
      <internalNodes>
        0 -1 12183 1275134082 -922681344 33571028 1082212353 142606336 0
        -939425758 998494255</internalNodes>
      <leafValues>
        -5.4555726051330566e-01 4.9040403962135315e-01</leafValues></_>
    <_>
      <internalNodes>
        0 -1 22760 1538759195 -1825624199 -1350795360 -566837910
        259335462 117145076 1006600054 -2066317858</internalNodes>
      <leafValues>
        -4.8301902413368225e-01 6.0136109590530396e-01</leafValues></_></weakClassifiers></stage19>
</opencv_storage>
