<?xml version="1.0"?>
<opencv_storage>
<cascade>
  <stageType>BOOST</stageType>
  <featureType>LBP</featureType>
  <height>20</height>
  <width>50</width>
  <stageParams>
    <boostType>GAB</boostType>
    <minHitRate>9.9500000476837158e-01</minHitRate>
    <maxFalseAlarm>5.0000000000000000e-01</maxFalseAlarm>
    <weightTrimRate>9.4999999999999996e-01</weightTrimRate>
    <maxDepth>1</maxDepth>
    <maxWeakCount>100</maxWeakCount></stageParams>
  <featureParams>
    <maxCatCount>256</maxCatCount>
    <featSize>1</featSize></featureParams>
  <stageNum>20</stageNum>
  <stages>
    <!-- stage 0 -->
    <_>
      <maxWeakCount>5</maxWeakCount>
      <stageThreshold>-1.7470511198043823e+00</stageThreshold>
      <weakClassifiers>
        <_>
          <internalNodes>
            0 -1 50 -750456098 -787938293 145 1364262931 -268201777
            1779040256 1611346347 726608555</internalNodes>
          <leafValues>
            -7.1410655975341797e-01 6.6832739114761353e-01</leafValues></_>
        <_>
          <internalNodes>
            0 -1 98 1388495312 1997864961 1048597 420556880 427844539
            429932552 100606 75590315</internalNodes>
          <leafValues>
            -6.2449645996093750e-01 4.9424445629119873e-01</leafValues></_>
        <_>
          <internalNodes>
            0 -1 14 1162002935 -1793916926 1090633793 85131522 168501434
            -1972271101 1476623195 1128620615</internalNodes>
          <leafValues>
            -5.3576099872589111e-01 4.9656748771667480e-01</leafValues></_>
        <_>
          <internalNodes>
            0 -1 131 1358200974 1365274286 -1102681 368418468
            -1795357544 1307839949 -2131448919 -504890354</internalNodes>
          <leafValues>
            -4.4903004169464111e-01 5.4093325138092041e-01</leafValues></_>
        <_>
          <internalNodes>
            0 -1 110 276955136 320995328 268996610 -1325400064
            -2147473408 -2147467264 -2139086712 -394133344</internalNodes>
          <leafValues>
            -5.4239797592163086e-01 4.5462945103645325e-01</leafValues></_></weakClassifiers></_>
    <!-- stage 1 -->
    <_>
      <maxWeakCount>7</maxWeakCount>
      <stageThreshold>-9.7790497541427612e-01</stageThreshold>
      <weakClassifiers>
        <_>
          <internalNodes>
            0 -1 15 1064238015 -75497489 -65537 -72389013 -44564485
            -8946691 -8781857 2136302463</internalNodes>
          <leafValues>
            -5.4473388195037842e-01 6.1750406026840210e-01</leafValues></_>
        <_>
          <internalNodes>
            0 -1 113 -765986274 1574944779 272700633 155680863
            -1067654197 -906395645 -629056629 208585374</internalNodes>
          <leafValues>
            -5.3611594438552856e-01 4.7564429044723511e-01</leafValues></_>
        <_>
          <internalNodes>
            0 -1 77 -748733732 1364525056 151002397 521142301
            -2013113921 159977488 -1157547381 426341001</internalNodes>
          <leafValues>
            -5.6960040330886841e-01 4.3360805511474609e-01</leafValues></_>
        <_>
          <internalNodes>
            0 -1 129 -1031355648 -1845493502 -805269256 -805306368
            -1576884192 131080 -1610481512 -1300076528</internalNodes>
          <leafValues>
            -4.6307912468910217e-01 4.3499147891998291e-01</leafValues></_>
        <_>
          <internalNodes>
            0 -1 17 1616543978 -1124032510 1350598800 -951189246
            -2147286960 -2115829568 -620115217 1776712266</internalNodes>
          <leafValues>
            -5.5405139923095703e-01 4.2542466521263123e-01</leafValues></_>
        <_>
          <internalNodes>
            0 -1 132 1515163390 889893130 26280149 2098843864
            -2013232424 -1291321204 12498 953143982</internalNodes>
          <leafValues>
            -5.5211323499679565e-01 3.6174219846725464e-01</leafValues></_>
        <_>
          <internalNodes>
            0 -1 7 1342425235 1091829781 268521874 234934284 134218419
            134774920 1895827554 1780744910</internalNodes>
          <leafValues>
            -5.7334548234939575e-01 3.8320884108543396e-01</leafValues></_></weakClassifiers></_>
    <!-- stage 2 -->
    <_>
      <maxWeakCount>7</maxWeakCount>
      <stageThreshold>-1.5483636856079102e+00</stageThreshold>
      <weakClassifiers>
        <_>
          <internalNodes>
            0 -1 130 -178797364 -1726625774 17897939 -685292025
            1510079139 -1903484510 -2130589905 221236111</internalNodes>
          <leafValues>
            -6.3150686025619507e-01 4.6883118152618408e-01</leafValues></_>
        <_>
          <internalNodes>
            0 -1 32 437800030 -774795053 -1858076225 -50134181
            -1568059237 -1860480984 1209123519 1604864895</internalNodes>
          <leafValues>
            -6.2651211023330688e-01 3.4856137633323669e-01</leafValues></_>
        <_>
          <internalNodes>
            0 -1 37 -26216774 1898213166 -353452161 2037639015
            2139060054 -67797163 -34081025 -8423553</internalNodes>
          <leafValues>
            -4.1823664307594299e-01 4.6172609925270081e-01</leafValues></_>
        <_>
          <internalNodes>
            0 -1 159 -1068859388 -1605238398 -2126511662 -1273737184
            147460 8945808 -528440624 -2132357600</internalNodes>
          <leafValues>
            -5.6506460905075073e-01 3.4116676449775696e-01</leafValues></_>
        <_>
          <internalNodes>
            0 -1 116 672906032 596385034 152045400 1067024662 1745035784
            781090826 681740958 1070000842</internalNodes>
          <leafValues>
            -6.0434955358505249e-01 2.9189944267272949e-01</leafValues></_>
        <_>
          <internalNodes>
            0 -1 54 2147204947 648003310 -285234342 2009890687 -25189803
            -1380139009 -138587140 -540206901</internalNodes>
          <leafValues>
            -3.2188543677330017e-01 5.7175105810165405e-01</leafValues></_>
        <_>
          <internalNodes>
            0 -1 82 -1272719738 522310513 2147407743 -1757419792
            -215820382 -131737607 1815210154 -853285686</internalNodes>
          <leafValues>
            -3.7739551067352295e-01 4.9705258011817932e-01</leafValues></_></weakClassifiers></_>
    <!-- stage 3 -->
    <_>
      <maxWeakCount>9</maxWeakCount>
      <stageThreshold>-1.1358904838562012e+00</stageThreshold>
      <weakClassifiers>
        <_>
          <internalNodes>
            0 -1 22 1599004667 -40521453 -938239781 1862599239
            -657752017 -913733591 -1928656658 2068934479</internalNodes>
          <leafValues>
            -5.4986876249313354e-01 4.3224930763244629e-01</leafValues></_>
        <_>
          <internalNodes>
            0 -1 161 2105007959 1607986813 -630793 91356795 1056960439
            -1375830785 -1358984370 787458287</internalNodes>
          <leafValues>
            -4.2909145355224609e-01 4.6640759706497192e-01</leafValues></_>
        <_>
          <internalNodes>
            0 -1 117 -933366058 386991502 285802876 1023971350
            -1334639998 144765063 -1471600387 283506751</internalNodes>
          <leafValues>
            -5.2492493391036987e-01 3.6590400338172913e-01</leafValues></_>
        <_>
          <internalNodes>
            0 -1 9 1335222526 -243220398 302072788 -803733296 -926398445
            1493184513 -1521578197 -1483708341</internalNodes>
          <leafValues>
            -4.7317108511924744e-01 3.9307752251625061e-01</leafValues></_>
        <_>
          <internalNodes>
            0 -1 69 -1916042277 1796887706 1091719537 -49118966
            1090685292 -1450078069 -1761374880 -559643670</internalNodes>
          <leafValues>
            -4.4657564163208008e-01 3.8695681095123291e-01</leafValues></_>
        <_>
          <internalNodes>
            0 -1 80 819167786 -1668234214 1107613877 -1085026082
            1075986967 -905822078 -2113174843 1359013962</internalNodes>
          <leafValues>
            -5.7499772310256958e-01 2.7527958154678345e-01</leafValues></_>
        <_>
          <internalNodes>
            0 -1 151 1640803103 1058951426 -2122244067 -1659449322
            -1595207510 673775778 1403134718 -1461302330</internalNodes>
          <leafValues>
            -4.2716887593269348e-01 4.1934454441070557e-01</leafValues></_>
        <_>
          <internalNodes>
            0 -1 101 -1881443055 -734269230 276910426 26042692
            -939223766 -1564893166 1283634058 151833403</internalNodes>
          <leafValues>
            -4.7726356983184814e-01 3.4864547848701477e-01</leafValues></_>
        <_>
          <internalNodes>
            0 -1 51 1742679140 986714640 1444073808 1496848794
            1671453006 2060451984 1392531581 1575561453</internalNodes>
          <leafValues>
            -6.7498540878295898e-01 2.4148143827915192e-01</leafValues></_></weakClassifiers></_>
    <!-- stage 4 -->
    <_>
      <maxWeakCount>8</maxWeakCount>
      <stageThreshold>-9.8279225826263428e-01</stageThreshold>
      <weakClassifiers>
        <_>
          <internalNodes>
            0 -1 144 2073281756 -669417336 -1056210669 -715964285
            -670268245 -268402560 -519456325 459902915</internalNodes>
          <leafValues>
            -5.7418495416641235e-01 4.4288578629493713e-01</leafValues></_>
        <_>
          <internalNodes>
            0 -1 92 2147483447 993357429 -1090519105 796393343
            -536875042 -1627455497 -49220 -84148741</internalNodes>
          <leafValues>
            -3.8622581958770752e-01 5.8292502164840698e-01</leafValues></_>
        <_>
          <internalNodes>
            0 -1 84 -356025640 1294865 -2080305961 487477271 -1174206304
            -2138439679 -1870472671 517526714</internalNodes>
          <leafValues>
            -4.9255466461181641e-01 3.9640772342681885e-01</leafValues></_>
        <_>
          <internalNodes>
            0 -1 5 -1275379873 -33558737 1996484327 -269554642 318713196
            -704675843 1027044949 -8388786</internalNodes>
          <leafValues>
            -3.7027922272682190e-01 5.0919628143310547e-01</leafValues></_>
        <_>
          <internalNodes>
            0 -1 79 1925301146 314736790 138514835 -1643425769
            -552994603 -929988449 -1936869165 -355433846</internalNodes>
          <leafValues>
            -4.1515821218490601e-01 4.4449111819267273e-01</leafValues></_>
        <_>
          <internalNodes>
            0 -1 21 -420583449 -1561399442 -268468362 -328433987
            -1535177130 -50331777 -428347469 -1111888458</internalNodes>
          <leafValues>
            -4.1502073407173157e-01 4.2289334535598755e-01</leafValues></_>
        <_>
          <internalNodes>
            0 -1 120 -423659749 1877921515 -553652233 -741650577
            -562213954 2104227812 -33652769 197315087</internalNodes>
          <leafValues>
            -3.7281399965286255e-01 4.5924067497253418e-01</leafValues></_>
        <_>
          <internalNodes>
            0 -1 35 1259438323 1125552390 294376377 1696125342
            -2147368909 -1453776887 -2113541623 56979456</internalNodes>
          <leafValues>
            -5.1548576354980469e-01 3.7243384122848511e-01</leafValues></_></weakClassifiers></_>
    <!-- stage 5 -->
    <_>
      <maxWeakCount>9</maxWeakCount>
      <stageThreshold>-1.0478692054748535e+00</stageThreshold>
      <weakClassifiers>
        <_>
          <internalNodes>
            0 -1 64 -201 1061027647 -1079033989 968884095 -3 -1358954505
            2122301340 2078277631</internalNodes>
          <leafValues>
            -4.9280178546905518e-01 5.7788944244384766e-01</leafValues></_>
        <_>
          <internalNodes>
            0 -1 152 -241083656 1342294029 -1857978029 1493598283
            -484275795 -1744306165 453607947 1073060787</internalNodes>
          <leafValues>
            -5.0274330377578735e-01 4.3251451849937439e-01</leafValues></_>
        <_>
          <internalNodes>
            0 -1 76 1444057769 -1575972846 1493696733 1514291840
            541162383 -366231032 -1040146233 -783768886</internalNodes>
          <leafValues>
            -4.4580668210983276e-01 4.2016109824180603e-01</leafValues></_>
        <_>
          <internalNodes>
            0 -1 89 285459559 -868679662 1358955475 -1795029950
            -703862040 1219068050 -2013232952 1133715466</internalNodes>
          <leafValues>
            -4.3818628787994385e-01 4.2026492953300476e-01</leafValues></_>
        <_>
          <internalNodes>
            0 -1 171 1596960530 305446834 1073692192 1048510386
            352100000 410845176 -142707032 -538181778</internalNodes>
          <leafValues>
            -4.2425775527954102e-01 4.7826686501502991e-01</leafValues></_>
        <_>
          <internalNodes>
            0 -1 70 1077969482 1159041374 1158677972 -24063929
            -1035327329 -1056882560 -1056611942 1094042138</internalNodes>
          <leafValues>
            -5.7495248317718506e-01 3.1126317381858826e-01</leafValues></_>
        <_>
          <internalNodes>
            0 -1 26 873171662 -1018109878 1358977234 1079895106
            1745571145 1208553792 -133541767 608847924</internalNodes>
          <leafValues>
            -6.4111632108688354e-01 2.6692411303520203e-01</leafValues></_>
        <_>
          <internalNodes>
            0 -1 56 507693258 524341252 1225055449 1954660375 -502683581
            -134152119 1380028530 -550909828</internalNodes>
          <leafValues>
            -4.4235917925834656e-01 3.9736801385879517e-01</leafValues></_>
        <_>
          <internalNodes>
            0 -1 63 302193942 -804238318 88115421 591462592 -1157224056
            403308544 1242269786 336362332</internalNodes>
          <leafValues>
            -6.1905050277709961e-01 3.0613508820533752e-01</leafValues></_></weakClassifiers></_>
    <!-- stage 6 -->
    <_>
      <maxWeakCount>9</maxWeakCount>
      <stageThreshold>-1.0306484699249268e+00</stageThreshold>
      <weakClassifiers>
        <_>
          <internalNodes>
            0 -1 103 -4210757 774619067 -1342591179 -1073742081
            -16793958 -1124155395 -276 -1091829761</internalNodes>
          <leafValues>
            -5.1497697830200195e-01 5.4905062913894653e-01</leafValues></_>
        <_>
          <internalNodes>
            0 -1 33 990559986 -1609985855 -1055893157 -609894144
            -771722553 -1601671040 17563455 1330534974</internalNodes>
          <leafValues>
            -5.7315164804458618e-01 3.3033427596092224e-01</leafValues></_>
        <_>
          <internalNodes>
            0 -1 71 1944318715 -776734133 -671790599 -168050002
            -268437509 -1158185089 -160174593 -478437270</internalNodes>
          <leafValues>
            -3.0317041277885437e-01 5.8186978101730347e-01</leafValues></_>
        <_>
          <internalNodes>
            0 -1 25 1477711191 1858212048 1224955436 1083835736
            -233275373 -944717695 830642176 1579245579</internalNodes>
          <leafValues>
            -5.0999134778976440e-01 3.3764299750328064e-01</leafValues></_>
        <_>
          <internalNodes>
            0 -1 160 841652795 92389457 -1870544426 185946182
            -1442151889 -7487360 -1323822072 162418446</internalNodes>
          <leafValues>
            -5.1205593347549438e-01 3.5689517855644226e-01</leafValues></_>
        <_>
          <internalNodes>
            0 -1 134 -526982910 -2097019637 1359007830 -1319583482
            143370272 -622616547 -2139051788 -777340544</internalNodes>
          <leafValues>
            -4.9620479345321655e-01 3.4611177444458008e-01</leafValues></_>
        <_>
          <internalNodes>
            0 -1 46 -2112359954 1200130 -2147413030 -775663590 688028259
            1770146465 1276441 -614667494</internalNodes>
          <leafValues>
            -4.7748935222625732e-01 3.6247500777244568e-01</leafValues></_>
        <_>
          <internalNodes>
            0 -1 81 791679040 -1910059006 135366128 1683859 -972439621
            -2003599132 1124242181 706537620</internalNodes>
          <leafValues>
            -7.3018395900726318e-01 1.9764880836009979e-01</leafValues></_>
        <_>
          <internalNodes>
            0 -1 167 -68161737 2121662304 998222597 -84426870
            -1409897024 804634465 -2013288984 2128525263</internalNodes>
          <leafValues>
            -3.1229051947593689e-01 5.4299092292785645e-01</leafValues></_></weakClassifiers></_>
    <!-- stage 7 -->
    <_>
      <maxWeakCount>10</maxWeakCount>
      <stageThreshold>-1.1591446399688721e+00</stageThreshold>
      <weakClassifiers>
        <_>
          <internalNodes>
            0 -1 127 -50332067 -41943321 -1 -536879105 -16789521
            -570425378 -1744875633 -828379777</internalNodes>
          <leafValues>
            -3.8393297791481018e-01 5.9629249572753906e-01</leafValues></_>
        <_>
          <internalNodes>
            0 -1 2 2090024431 1962967051 289571161 -549117940 1912809979
            -2004092773 268453961 -9470628</internalNodes>
          <leafValues>
            -4.0726187825202942e-01 4.4268676638603210e-01</leafValues></_>
        <_>
          <internalNodes>
            0 -1 133 -1541398268 -1262451708 -250539758 -582608896
            -1874079744 -2004238143 -2004236048 -529872864</internalNodes>
          <leafValues>
            -5.1879990100860596e-01 3.4932538866996765e-01</leafValues></_>
        <_>
          <internalNodes>
            0 -1 78 1583087377 252861776 -1593622501 756367438 302172253
            -1141698141 -2147372940 -20257669</internalNodes>
          <leafValues>
            -4.7376546263694763e-01 3.6347222328186035e-01</leafValues></_>
        <_>
          <internalNodes>
            0 -1 165 -679499217 934277111 -2187 -1082655455 -17352713
            -554238081 -335655368 -1499315184</internalNodes>
          <leafValues>
            -3.9552098512649536e-01 4.6451887488365173e-01</leafValues></_>
        <_>
          <internalNodes>
            0 -1 1 -909428879 -863633328 1107403394 -1836302314
            -2012575517 1804435600 -401907194 1815806238</internalNodes>
          <leafValues>
            -4.5513084530830383e-01 3.5130017995834351e-01</leafValues></_>
        <_>
          <internalNodes>
            0 -1 88 -1310635290 -260892657 -151074819 -1577347925
            -218219527 -218778722 1584806095 -844788054</internalNodes>
          <leafValues>
            -3.4019252657890320e-01 4.9178180098533630e-01</leafValues></_>
        <_>
          <internalNodes>
            0 -1 87 386266904 415978176 92327942 -1513897776 1241974202
            -1128267120 411243019 1054623986</internalNodes>
          <leafValues>
            -6.2197029590606689e-01 2.7811768651008606e-01</leafValues></_>
        <_>
          <internalNodes>
            0 -1 48 -891906591 -1315957119 1376866455 -1233119471
            -519880479 -1467383672 -2130074823 -176126838</internalNodes>
          <leafValues>
            -4.5344531536102295e-01 3.8119015097618103e-01</leafValues></_>
        <_>
          <internalNodes>
            0 -1 111 1658757478 -2003206059 -1073020847 -955809426
            268578883 604602402 -1062717352 -134860446</internalNodes>
          <leafValues>
            -4.6333724260330200e-01 3.6162373423576355e-01</leafValues></_></weakClassifiers></_>
    <!-- stage 8 -->
    <_>
      <maxWeakCount>9</maxWeakCount>
      <stageThreshold>-1.4581552743911743e+00</stageThreshold>
      <weakClassifiers>
        <_>
          <internalNodes>
            0 -1 57 1863293175 1603110926 792799 500285783 1115790986
            964882560 -198575974 2139738589</internalNodes>
          <leafValues>
            -5.4271036386489868e-01 4.4698545336723328e-01</leafValues></_>
        <_>
          <internalNodes>
            0 -1 42 -585109483 424116609 -1056763636 475534748
            -763275024 -1425440760 -897430991 1242041099</internalNodes>
          <leafValues>
            -4.5528063178062439e-01 4.0885266661643982e-01</leafValues></_>
        <_>
          <internalNodes>
            0 -1 28 -185861413 -18092190 -1895858325 -4755968 348110843
            -1094713379 1553166173 -579633281</internalNodes>
          <leafValues>
            -3.1311017274856567e-01 5.5142885446548462e-01</leafValues></_>
        <_>
          <internalNodes>
            0 -1 135 -761866926 264655379 335545351 -1140551413
            -2012675992 26214537 -1998012100 1000788474</internalNodes>
          <leafValues>
            -5.0645577907562256e-01 3.2470566034317017e-01</leafValues></_>
        <_>
          <internalNodes>
            0 -1 142 2147434495 1068810239 -8393282 -1644384337
            1610465237 1073512447 -1090568195 -1367885825</internalNodes>
          <leafValues>
            -3.5392752289772034e-01 4.8760938644409180e-01</leafValues></_>
        <_>
          <internalNodes>
            0 -1 102 1946153584 -613103699 2088089851 -42875687
            1560253396 -488184208 -1795258741 -1075334183</internalNodes>
          <leafValues>
            -3.0018234252929688e-01 5.8525013923645020e-01</leafValues></_>
        <_>
          <internalNodes>
            0 -1 24 1775370449 -880672703 1141023762 -1362193400
            436895975 -469630848 1854087489 1830832282</internalNodes>
          <leafValues>
            -5.6087666749954224e-01 3.1484648585319519e-01</leafValues></_>
        <_>
          <internalNodes>
            0 -1 94 -195870974 1149374464 1142031474 -1675771839
            176892224 -490438526 195290180 -946194083</internalNodes>
          <leafValues>
            -4.8188266158103943e-01 3.5307559370994568e-01</leafValues></_>
        <_>
          <internalNodes>
            0 -1 13 1573992142 -1865887663 1342210444 1342279809
            -1736408553 -1971290106 -2121884833 1724775318</internalNodes>
          <leafValues>
            -5.3197932243347168e-01 3.4938627481460571e-01</leafValues></_></weakClassifiers></_>
    <!-- stage 9 -->
    <_>
      <maxWeakCount>7</maxWeakCount>
      <stageThreshold>-8.4183889627456665e-01</stageThreshold>
      <weakClassifiers>
        <_>
          <internalNodes>
            0 -1 39 -269766933 -4202505 2147483639 -8655754 -270537729
            -41943041 -8519685 -366744989</internalNodes>
          <leafValues>
            -4.5685839653015137e-01 5.2516776323318481e-01</leafValues></_>
        <_>
          <internalNodes>
            0 -1 139 -334705545 1574109456 369213651 361333009
            -395171103 526057571 1652619484 1143728927</internalNodes>
          <leafValues>
            -4.6252259612083435e-01 4.3284207582473755e-01</leafValues></_>
        <_>
          <internalNodes>
            0 -1 141 -335404288 -227376634 -2145925826 -11370488
            -534544368 -524123893 -384176032 -1599061440</internalNodes>
          <leafValues>
            -5.5767178535461426e-01 3.2533416152000427e-01</leafValues></_>
        <_>
          <internalNodes>
            0 -1 149 521402643 169000961 -1744545661 -552316471
            620889232 -1417672558 -1054698244 -898532989</internalNodes>
          <leafValues>
            -4.5525878667831421e-01 3.6890670657157898e-01</leafValues></_>
        <_>
          <internalNodes>
            0 -1 122 -1608882428 71315819 -1849077673 -1271889856
            268527809 -134151680 -1193670367 -1594692864</internalNodes>
          <leafValues>
            -5.4352825880050659e-01 3.2251632213592529e-01</leafValues></_>
        <_>
          <internalNodes>
            0 -1 60 2074072015 -1055235623 -1860779561 68829190
            -531922783 1904312330 1744867587 1399968595</internalNodes>
          <leafValues>
            -5.3967142105102539e-01 3.3328625559806824e-01</leafValues></_>
        <_>
          <internalNodes>
            0 -1 20 1737484523 844512612 -1434571139 -1078626394
            249460434 -1616396291 -298410156 -133628186</internalNodes>
          <leafValues>
            -3.6730545759201050e-01 4.8346227407455444e-01</leafValues></_></weakClassifiers></_>
    <!-- stage 10 -->
    <_>
      <maxWeakCount>10</maxWeakCount>
      <stageThreshold>-1.3021305799484253e+00</stageThreshold>
      <weakClassifiers>
        <_>
          <internalNodes>
            0 -1 62 1591721663 -1679364113 1006572543 -206866694 -131075
            -3145731 -14114 453552872</internalNodes>
          <leafValues>
            -4.4608399271965027e-01 4.7334411740303040e-01</leafValues></_>
        <_>
          <internalNodes>
            0 -1 45 -452229631 2069206299 -1067409377 1296908703
            -1878994786 -376831981 -800144645 712463130</internalNodes>
          <leafValues>
            -4.5493066310882568e-01 4.2916455864906311e-01</leafValues></_>
        <_>
          <internalNodes>
            0 -1 106 2080321407 2122117119 -1090552262 -1107361794
            2138406807 -17006721 -1082689636 -554303489</internalNodes>
          <leafValues>
            -3.8872134685516357e-01 4.3392112851142883e-01</leafValues></_>
        <_>
          <internalNodes>
            0 -1 163 1058406947 353863815 1640777 553771013 -502724543
            1384583336 58827276 198068778</internalNodes>
          <leafValues>
            -5.2051454782485962e-01 2.9876899719238281e-01</leafValues></_>
        <_>
          <internalNodes>
            0 -1 145 1342165198 754925180 -17039439 -1158943185
            -235209540 2138800127 -109587792 1799088570</internalNodes>
          <leafValues>
            -3.7066695094108582e-01 4.7624272108078003e-01</leafValues></_>
        <_>
          <internalNodes>
            0 -1 148 1172044032 1259389172 -2129540796 1459884032 840
            151027714 248014 1602689208</internalNodes>
          <leafValues>
            -5.2700585126876831e-01 2.8857818245887756e-01</leafValues></_>
        <_>
          <internalNodes>
            0 -1 58 -33690689 1996238604 2147430395 -352915466 886390778
            1190952831 -237595 -570687500</internalNodes>
          <leafValues>
            -3.2165619730949402e-01 5.1223337650299072e-01</leafValues></_>
        <_>
          <internalNodes>
            0 -1 95 599496214 814780817 -2053111716 10129488 1627390228
            1568669704 -2134326280 -1532876744</internalNodes>
          <leafValues>
            -5.5036520957946777e-01 2.7525442838668823e-01</leafValues></_>
        <_>
          <internalNodes>
            0 -1 65 -949005827 1108541570 1091043699 1746551817
            -779530192 -1593802622 1099514721 1831680712</internalNodes>
          <leafValues>
            -4.4330388307571411e-01 3.6994248628616333e-01</leafValues></_>
        <_>
          <internalNodes>
            0 -1 105 226790416 755810449 79151 88133829 -1073536871
            436600841 1761711284 684561314</internalNodes>
          <leafValues>
            -6.7785489559173584e-01 2.5236096978187561e-01</leafValues></_></weakClassifiers></_>
    <!-- stage 11 -->
    <_>
      <maxWeakCount>10</maxWeakCount>
      <stageThreshold>-1.0832026004791260e+00</stageThreshold>
      <weakClassifiers>
        <_>
          <internalNodes>
            0 -1 61 -52561970 -268369385 1075921350 -908998365
            -267656189 -1063255036 -242252567 2119908310</internalNodes>
          <leafValues>
            -5.6341278553009033e-01 3.1371393799781799e-01</leafValues></_>
        <_>
          <internalNodes>
            0 -1 125 -545522017 -1623195781 800915327 -37748993
            -33644610 -1358956548 -1208156178 -16842793</internalNodes>
          <leafValues>
            -2.9646205902099609e-01 5.7751339673995972e-01</leafValues></_>
        <_>
          <internalNodes>
            0 -1 66 135002327 235987543 285774110 711418115 402891168
            -66910040 -352261504 992635291</internalNodes>
          <leafValues>
            -3.7498694658279419e-01 3.8450679183006287e-01</leafValues></_>
        <_>
          <internalNodes>
            0 -1 126 -978110754 -1333346061 -938762078 -611647103
            -75594915 -1860037742 -292955949 1095223931</internalNodes>
          <leafValues>
            -3.8824647665023804e-01 4.0068942308425903e-01</leafValues></_>
        <_>
          <internalNodes>
            0 -1 23 -1156403204 2081947800 -1858023024 -648359932
            1250052208 159910273 419555983 1581287528</internalNodes>
          <leafValues>
            -5.8479684591293335e-01 2.5083711743354797e-01</leafValues></_>
        <_>
          <internalNodes>
            0 -1 112 -109055525 -518585910 1627455690 104976467
            -855514753 -938983293 18043172 1230722283</internalNodes>
          <leafValues>
            -3.8684201240539551e-01 4.3237087130546570e-01</leafValues></_>
        <_>
          <internalNodes>
            0 -1 73 2034627861 705712260 352493023 59935177 411058952
            -88358686 1610630264 48925831</internalNodes>
          <leafValues>
            -5.1803469657897949e-01 3.0520281195640564e-01</leafValues></_>
        <_>
          <internalNodes>
            0 -1 96 -1006432826 -686731248 1073877149 -640497141
            -1071644542 -1909519990 671830218 1543590234</internalNodes>
          <leafValues>
            -5.0256896018981934e-01 2.8824803233146667e-01</leafValues></_>
        <_>
          <internalNodes>
            0 -1 156 -1377368715 -1111687172 -65 -53385 1744666101
            -33685505 -557982537 -1497162187</internalNodes>
          <leafValues>
            -3.6014211177825928e-01 4.3623641133308411e-01</leafValues></_>
        <_>
          <internalNodes>
            0 -1 137 2129524579 1886224241 -1359057339 -1355366431
            2147401701 -1350565897 -289671262 -1250023434</internalNodes>
          <leafValues>
            -3.2245343923568726e-01 4.7429606318473816e-01</leafValues></_></weakClassifiers></_>
    <!-- stage 12 -->
    <_>
      <maxWeakCount>9</maxWeakCount>
      <stageThreshold>-1.0442836284637451e+00</stageThreshold>
      <weakClassifiers>
        <_>
          <internalNodes>
            0 -1 181 -1361051777 -1090715649 -557057 -1078067201
            -269008897 -1610616833 -17008689 -1359052993</internalNodes>
          <leafValues>
            -3.8721606135368347e-01 4.8148149251937866e-01</leafValues></_>
        <_>
          <internalNodes>
            0 -1 85 -33748201 2105540607 268382002 -34734081 1333229495
            -1644331009 -92833867 -1107951626</internalNodes>
          <leafValues>
            -3.8789528608322144e-01 4.2651280760765076e-01</leafValues></_>
        <_>
          <internalNodes>
            0 -1 74 9449992 -199895844 17420631 1108148557 2021781637
            -611680211 -347150127 1610721962</internalNodes>
          <leafValues>
            -5.0796490907669067e-01 3.1101691722869873e-01</leafValues></_>
        <_>
          <internalNodes>
            0 -1 10 -889205045 47594787 1828613247 2143057850
            -1224802342 -1775239306 -29577264 -1156579595</internalNodes>
          <leafValues>
            -3.0906867980957031e-01 4.8918887972831726e-01</leafValues></_>
        <_>
          <internalNodes>
            0 -1 0 482484411 -636436213 1074840153 1091518478 269032262
            55946 1149259899 1930187804</internalNodes>
          <leafValues>
            -5.8078706264495850e-01 2.5814816355705261e-01</leafValues></_>
        <_>
          <internalNodes>
            0 -1 18 272788979 -1497182136 -1995865746 877316480
            789080098 -346011104 46723131 1124100890</internalNodes>
          <leafValues>
            -5.6327909231185913e-01 2.9142117500305176e-01</leafValues></_>
        <_>
          <internalNodes>
            0 -1 68 2055346760 -833285687 8433731 -2078998503 704813104
            -367458255 134224385 1311492427</internalNodes>
          <leafValues>
            -4.5101511478424072e-01 3.4523570537567139e-01</leafValues></_>
        <_>
          <internalNodes>
            0 -1 55 1778599878 -1655881478 -1862236776 1880114395
            -1199314793 -275709797 17402249 36807722</internalNodes>
          <leafValues>
            -5.4165571928024292e-01 2.6750990748405457e-01</leafValues></_>
        <_>
          <internalNodes>
            0 -1 119 1006767288 -1329213382 288424139 489996688
            403277329 -1132100342 -1851930189 382914882</internalNodes>
          <leafValues>
            -6.1445367336273193e-01 3.0530419945716858e-01</leafValues></_></weakClassifiers></_>
    <!-- stage 13 -->
    <_>
      <maxWeakCount>11</maxWeakCount>
      <stageThreshold>-1.2419022321701050e+00</stageThreshold>
      <weakClassifiers>
        <_>
          <internalNodes>
            0 -1 93 -205 1064271695 -1073758217 -1342242889 1040187333
            -425993 -16781316 -1074790913</internalNodes>
          <leafValues>
            -3.7927350401878357e-01 4.5212766528129578e-01</leafValues></_>
        <_>
          <internalNodes>
            0 -1 34 2046841552 337530905 269488144 -1340437489
            -1733785168 -1602219895 -888602368 -838243553</internalNodes>
          <leafValues>
            -4.6519926190376282e-01 3.3494403958320618e-01</leafValues></_>
        <_>
          <internalNodes>
            0 -1 172 -104991821 -598609679 37769479 792826138 -784078269
            1358954651 1107444071 5103695</internalNodes>
          <leafValues>
            -4.1519397497177124e-01 3.4998127818107605e-01</leafValues></_>
        <_>
          <internalNodes>
            0 -1 146 1755631803 -1748937587 -2096605874 404455637
            -1514442544 -175471934 34208138 552792046</internalNodes>
          <leafValues>
            -4.4465869665145874e-01 3.2460218667984009e-01</leafValues></_>
        <_>
          <internalNodes>
            0 -1 166 -997719292 545427985 -2088070224 -998080226 84512
            696488067 -2136460752 -1599190428</internalNodes>
          <leafValues>
            -5.9566086530685425e-01 2.6544839143753052e-01</leafValues></_>
        <_>
          <internalNodes>
            0 -1 124 -511126954 1443203138 -1023110502 923029504
            1212837932 -2074998266 1627928744 134556586</internalNodes>
          <leafValues>
            -5.9661853313446045e-01 2.1128454804420471e-01</leafValues></_>
        <_>
          <internalNodes>
            0 -1 38 -1227228207 1827520191 -293725389 804880111
            401598363 -1879212051 1472951822 528954443</internalNodes>
          <leafValues>
            -3.4923976659774780e-01 4.3559738993644714e-01</leafValues></_>
        <_>
          <internalNodes>
            0 -1 104 76744964 1074794512 -2130685951 -99483648
            -134209440 54526089 -2087009911 -2136308960</internalNodes>
          <leafValues>
            -5.3047138452529907e-01 3.1110158562660217e-01</leafValues></_>
        <_>
          <internalNodes>
            0 -1 52 2036173546 -800423659 4194398 -1847685038 1078528131
            2055372802 -394179863 -1160787854</internalNodes>
          <leafValues>
            -4.2734026908874512e-01 3.4423226118087769e-01</leafValues></_>
        <_>
          <internalNodes>
            0 -1 8 88091823 -368459432 1074316759 1142579418 1224933538
            -2113925120 1099333936 1540267688</internalNodes>
          <leafValues>
            -4.8274335265159607e-01 3.0019438266754150e-01</leafValues></_>
        <_>
          <internalNodes>
            0 -1 97 -267972124 -233664256 -2145380904 -1623195638
            1074014448 1814775808 -528413991 1573206208</internalNodes>
          <leafValues>
            -5.7685685157775879e-01 2.6441931724548340e-01</leafValues></_></weakClassifiers></_>
    <!-- stage 14 -->
    <_>
      <maxWeakCount>11</maxWeakCount>
      <stageThreshold>-1.2743687629699707e+00</stageThreshold>
      <weakClassifiers>
        <_>
          <internalNodes>
            0 -1 4 830402702 -804011319 4441375 -1588916775 -2089621429
            -2146774968 -2134148549 2130726132</internalNodes>
          <leafValues>
            -6.2408757209777832e-01 2.5420168042182922e-01</leafValues></_>
        <_>
          <internalNodes>
            0 -1 180 -552623553 408125827 88166871 -1243450929
            1850439311 -394256237 -99644995 -1462744783</internalNodes>
          <leafValues>
            -4.7901558876037598e-01 3.6112049221992493e-01</leafValues></_>
        <_>
          <internalNodes>
            0 -1 43 -875967530 834703450 -805300202 1392513052
            1853966352 -134004606 -1198728653 -20460754</internalNodes>
          <leafValues>
            -4.5169660449028015e-01 3.4322208166122437e-01</leafValues></_>
        <_>
          <internalNodes>
            0 -1 59 -548539417 -1824185333 16859547 608583685 -922685013
            131073 1480708809 74781557</internalNodes>
          <leafValues>
            -4.3450474739074707e-01 3.6080798506736755e-01</leafValues></_>
        <_>
          <internalNodes>
            0 -1 176 1154415360 59425154 -784219650 1603682372 813931012
            1116416450 -754284318 -1010570448</internalNodes>
          <leafValues>
            -4.5177879929542542e-01 3.3555215597152710e-01</leafValues></_>
        <_>
          <internalNodes>
            0 -1 6 1103448071 -1047788888 219514199 -847100862 134295801
            -2002124552 8552565 -1075838350</internalNodes>
          <leafValues>
            -5.2174526453018188e-01 2.7558296918869019e-01</leafValues></_>
        <_>
          <internalNodes>
            0 -1 128 -1403681612 -1928040102 17323458 -1715122027
            -1559517110 8945672 157542910 -1532009550</internalNodes>
          <leafValues>
            -4.8020482063293457e-01 3.5002812743186951e-01</leafValues></_>
        <_>
          <internalNodes>
            0 -1 178 844601634 1167147544 1074942209 1410334742
            1208277531 -1975107446 -1341685374 -51770396</internalNodes>
          <leafValues>
            -4.0146094560623169e-01 3.9409261941909790e-01</leafValues></_>
        <_>
          <internalNodes>
            0 -1 31 491197428 676417609 1426067742 -2042478123
            -1719008203 -519503701 -846712768 168329996</internalNodes>
          <leafValues>
            -5.5190885066986084e-01 2.8479444980621338e-01</leafValues></_>
        <_>
          <internalNodes>
            0 -1 110 -2098429103 -1330626390 -2138849271 -1297334256
            -670887887 -1404763776 -632696127 -1397779232</internalNodes>
          <leafValues>
            -4.3859359622001648e-01 3.5294374823570251e-01</leafValues></_>
        <_>
          <internalNodes>
            0 -1 47 1351603128 1141309466 -1795157289 -1147633651
            -1996258426 -670971893 1216989447 1074363091</internalNodes>
          <leafValues>
            -5.2478706836700439e-01 3.1104815006256104e-01</leafValues></_></weakClassifiers></_>
    <!-- stage 15 -->
    <_>
      <maxWeakCount>10</maxWeakCount>
      <stageThreshold>-9.5069694519042969e-01</stageThreshold>
      <weakClassifiers>
        <_>
          <internalNodes>
            0 -1 162 -90975609 2001322112 1174753363 320163909
            -1456150399 -1283243861 -1039420534 176320667</internalNodes>
          <leafValues>
            -4.6616542339324951e-01 3.8746437430381775e-01</leafValues></_>
        <_>
          <internalNodes>
            0 -1 177 -126357001 -1059368813 1073746177 1105449089
            -2146266577 2023751680 67293443 1158013463</internalNodes>
          <leafValues>
            -4.4138488173484802e-01 3.5365536808967590e-01</leafValues></_>
        <_>
          <internalNodes>
            0 -1 154 -728546049 403865741 1359058126 -1978642413
            -767459263 -914358229 629393 721611657</internalNodes>
          <leafValues>
            -4.2981564998626709e-01 3.8306877017021179e-01</leafValues></_>
        <_>
          <internalNodes>
            0 -1 90 458744554 -1790853119 273685973 424011015
            -2146309630 671121408 847510230 160807450</internalNodes>
          <leafValues>
            -5.4627603292465210e-01 2.8041869401931763e-01</leafValues></_>
        <_>
          <internalNodes>
            0 -1 157 546005766 403931144 1904939288 -82410751 134234144
            77744290 -1475712466 -206360242</internalNodes>
          <leafValues>
            -4.1450998187065125e-01 3.9533147215843201e-01</leafValues></_>
        <_>
          <internalNodes>
            0 -1 174 -1912222169 1395540123 1745539468 -654142717
            -1198431349 822806536 1791346841 540046849</internalNodes>
          <leafValues>
            -6.3074952363967896e-01 2.3855391144752502e-01</leafValues></_>
        <_>
          <internalNodes>
            0 -1 169 -70404653 -476835747 39456801 -2108079715
            1124111049 1207994472 50559249 1078313551</internalNodes>
          <leafValues>
            -4.4599947333335876e-01 3.4811517596244812e-01</leafValues></_>
        <_>
          <internalNodes>
            0 -1 121 -457832806 -1925865472 312668 1027866801
            -1375190296 572309504 168096220 516735184</internalNodes>
          <leafValues>
            -5.6097275018692017e-01 2.8236255049705505e-01</leafValues></_>
        <_>
          <internalNodes>
            0 -1 49 -1601764715 2112917841 -1073671871 -230551551
            1225326777 -2096529361 -780098892 1778911764</internalNodes>
          <leafValues>
            -5.5484664440155029e-01 2.6135095953941345e-01</leafValues></_>
        <_>
          <internalNodes>
            0 -1 36 1095442699 -2117435277 -1810791203 823378127
            1151410225 -1142390751 1090916617 1840986662</internalNodes>
          <leafValues>
            -4.9855208396911621e-01 3.1384587287902832e-01</leafValues></_></weakClassifiers></_>
    <!-- stage 16 -->
    <_>
      <maxWeakCount>10</maxWeakCount>
      <stageThreshold>-1.0856623649597168e+00</stageThreshold>
      <weakClassifiers>
        <_>
          <internalNodes>
            0 -1 40 -792604194 1536250243 -855570414 -174647652
            1481185465 1922768904 -905646965 -374342069</internalNodes>
          <leafValues>
            -4.4621026515960693e-01 3.8856303691864014e-01</leafValues></_>
        <_>
          <internalNodes>
            0 -1 75 1242500565 -1308622638 -2013265420 -468401829
            -242304748 -645799430 -364843003 -1113224503</internalNodes>
          <leafValues>
            -4.4137865304946899e-01 3.5067597031593323e-01</leafValues></_>
        <_>
          <internalNodes>
            0 -1 114 -117519826 -151736850 1013983993 -570710386
            1291100885 -831112120 -2030596965 -1435252515</internalNodes>
          <leafValues>
            -3.5863855481147766e-01 4.0497460961341858e-01</leafValues></_>
        <_>
          <internalNodes>
            0 -1 143 -14166049 -449183937 1853841366 1294689367
            -1074290850 1567555447 1581595963 1415043071</internalNodes>
          <leafValues>
            -3.4588757157325745e-01 4.0284657478332520e-01</leafValues></_>
        <_>
          <internalNodes>
            0 -1 140 1611781100 -687816573 830505297 361759246
            -492765175 -243236727 1612902907 1157827584</internalNodes>
          <leafValues>
            -4.4893658161163330e-01 3.2875266671180725e-01</leafValues></_>
        <_>
          <internalNodes>
            0 -1 179 2080324403 1571946460 2141142816 1369501496
            1593113899 1022853119 -1207975945 -287121472</internalNodes>
          <leafValues>
            -3.5160127282142639e-01 4.3267968297004700e-01</leafValues></_>
        <_>
          <internalNodes>
            0 -1 91 2147417957 -1153581061 -1359151121 922484735
            1073709051 -1661059201 1065320184 741986292</internalNodes>
          <leafValues>
            -3.5834267735481262e-01 4.1012823581695557e-01</leafValues></_>
        <_>
          <internalNodes>
            0 -1 29 1743351471 -5505414 -67603 -336861457 -276832257
            2146170879 -277119633 -629681541</internalNodes>
          <leafValues>
            -3.7518078088760376e-01 3.9948293566703796e-01</leafValues></_>
        <_>
          <internalNodes>
            0 -1 170 1574925092 142792522 -787377960 -1959641072
            411058176 520244751 -1995853512 1306352494</internalNodes>
          <leafValues>
            -6.0757589340209961e-01 2.5567290186882019e-01</leafValues></_>
        <_>
          <internalNodes>
            0 -1 115 -924446185 135925889 -2130579111 -1793945597
            1491632356 1518567424 -2113730415 -1534445504</internalNodes>
          <leafValues>
            -4.7369447350502014e-01 3.1180825829505920e-01</leafValues></_></weakClassifiers></_>
    <!-- stage 17 -->
    <_>
      <maxWeakCount>10</maxWeakCount>
      <stageThreshold>-1.2103800773620605e+00</stageThreshold>
      <weakClassifiers>
        <_>
          <internalNodes>
            0 -1 86 -720242159 -687273967 -83578635 -540569211
            -2147372611 -886505342 -2012507700 -871634010</internalNodes>
          <leafValues>
            -4.9719974398612976e-01 4.3000718951225281e-01</leafValues></_>
        <_>
          <internalNodes>
            0 -1 108 -162436537 74719281 319291736 -1408286315 415823955
            -1295935264 1895942305 -1409611257</internalNodes>
          <leafValues>
            -4.6245166659355164e-01 3.5446518659591675e-01</leafValues></_>
        <_>
          <internalNodes>
            0 -1 41 -273699857 -395063747 -268435462 2090729187
            -1343751172 -3 -272695298 -93850765</internalNodes>
          <leafValues>
            -3.2503011822700500e-01 5.3490269184112549e-01</leafValues></_>
        <_>
          <internalNodes>
            0 -1 155 -1185442593 -75431800 403804624 447333613 -55865186
            -2096921469 -1574711656 771941</internalNodes>
          <leafValues>
            -4.2991364002227783e-01 4.3206387758255005e-01</leafValues></_>
        <_>
          <internalNodes>
            0 -1 11 782032879 145100944 -2130589657 119345156 -12023292
            -1149237110 1602401250 -1214209872</internalNodes>
          <leafValues>
            -4.4213190674781799e-01 4.0744298696517944e-01</leafValues></_>
        <_>
          <internalNodes>
            0 -1 44 21483711 199037123 402804763 1124942086 -519970161
            1669924880 1208107917 269863087</internalNodes>
          <leafValues>
            -4.6172252297401428e-01 4.1026270389556885e-01</leafValues></_>
        <_>
          <internalNodes>
            0 -1 16 219027902 1501692934 286376072 -805220202 135889053
            -1022820312 1211148894 1724171280</internalNodes>
          <leafValues>
            -5.4024654626846313e-01 3.5648339986801147e-01</leafValues></_>
        <_>
          <internalNodes>
            0 -1 150 -939486932 -254537663 -1861741934 -1831304941
            145883520 277422339 -1132264671 -1330365483</internalNodes>
          <leafValues>
            -4.9077907204627991e-01 3.4832739830017090e-01</leafValues></_>
        <_>
          <internalNodes>
            0 -1 183 294463271 549601740 -2130361271 -2084269019
            285446674 -905871360 -805199840 -219617040</internalNodes>
          <leafValues>
            -4.7392311692237854e-01 3.9720699191093445e-01</leafValues></_>
        <_>
          <internalNodes>
            0 -1 164 -380247697 271679623 285295905 -1680752383
            -2104810869 -1718943615 -1073704179 -333131404</internalNodes>
          <leafValues>
            -4.9855029582977295e-01 3.7454134225845337e-01</leafValues></_></weakClassifiers></_>
    <!-- stage 18 -->
    <_>
      <maxWeakCount>11</maxWeakCount>
      <stageThreshold>-9.3384575843811035e-01</stageThreshold>
      <weakClassifiers>
        <_>
          <internalNodes>
            0 -1 118 1230045435 500744534 -2130639610 1023822367
            411238587 297044144 -1115096701 -19801445</internalNodes>
          <leafValues>
            -4.7455090284347534e-01 2.6081731915473938e-01</leafValues></_>
        <_>
          <internalNodes>
            0 -1 72 1795412067 -215960719 -118497347 -1255021007
            -91032384 -401386512 -298586454 -1978412358</internalNodes>
          <leafValues>
            -3.1555554270744324e-01 4.1826999187469482e-01</leafValues></_>
        <_>
          <internalNodes>
            0 -1 99 -109320449 -1636892737 -827392207 -1434714587
            1568145405 -1217167492 1979676531 68386687</internalNodes>
          <leafValues>
            -3.5051685571670532e-01 3.6715090274810791e-01</leafValues></_>
        <_>
          <internalNodes>
            0 -1 168 1166281017 1028450689 -1856860008 638977038
            555229600 1082691744 -509013996 -270226758</internalNodes>
          <leafValues>
            -4.9025058746337891e-01 2.7529340982437134e-01</leafValues></_>
        <_>
          <internalNodes>
            0 -1 30 1363202038 1442859224 -1056652844 1427161486
            -125214524 -91750260 -1845448517 1328077227</internalNodes>
          <leafValues>
            -4.1254031658172607e-01 3.2432022690773010e-01</leafValues></_>
        <_>
          <internalNodes>
            0 -1 158 1232421276 84251408 1342210298 2043969602
            -1054744439 12192057 -637357842 -873870631</internalNodes>
          <leafValues>
            -4.6347346901893616e-01 3.0282562971115112e-01</leafValues></_>
        <_>
          <internalNodes>
            0 -1 175 615888685 176460160 -1862184812 -1748528811
            12648549 981631368 1837459518 -1565242799</internalNodes>
          <leafValues>
            -4.9357336759567261e-01 2.6106190681457520e-01</leafValues></_>
        <_>
          <internalNodes>
            0 -1 67 -218144575 2029858719 2130657271 -273891605
            -838861871 -708972563 939112865 -1125012273</internalNodes>
          <leafValues>
            -2.9097101092338562e-01 4.4207745790481567e-01</leafValues></_>
        <_>
          <internalNodes>
            0 -1 12 -1965079985 1649086597 -796916630 1513099279
            -502611209 -184020982 537434816 -1163161400</internalNodes>
          <leafValues>
            -3.6682412028312683e-01 3.6652579903602600e-01</leafValues></_>
        <_>
          <internalNodes>
            0 -1 109 2044911630 -1262945174 -134487043 1604446262
            -238771 1576304509 744530877 -875828210</internalNodes>
          <leafValues>
            -3.3131474256515503e-01 4.2349246144294739e-01</leafValues></_>
        <_>
          <internalNodes>
            0 -1 123 -925498108 1547899206 2331994 356057170 1208091011
            1208156299 -2142755154 222627968</internalNodes>
          <leafValues>
            -6.3276380300521851e-01 2.2669582068920135e-01</leafValues></_></weakClassifiers></_>
    <!-- stage 19 -->
    <_>
      <maxWeakCount>13</maxWeakCount>
      <stageThreshold>-1.0751596689224243e+00</stageThreshold>
      <weakClassifiers>
        <_>
          <internalNodes>
            0 -1 27 -1876700365 1484886934 -1786002987 1709789512
            2072512714 2057054219 1007220751 1404001167</internalNodes>
          <leafValues>
            -5.2775478363037109e-01 2.4372559785842896e-01</leafValues></_>
        <_>
          <internalNodes>
            0 -1 182 752855359 160698432 1125220437 1023791111
            1615011846 -510885757 -1047876968 -1344537985</internalNodes>
          <leafValues>
            -3.7449473142623901e-01 3.6063310503959656e-01</leafValues></_>
        <_>
          <internalNodes>
            0 -1 147 1867502747 -972308321 541135051 777095257 151172843
            1644363904 1124117003 1162072235</internalNodes>
          <leafValues>
            -3.5294979810714722e-01 4.0662840008735657e-01</leafValues></_>
        <_>
          <internalNodes>
            0 -1 19 -318775057 539012652 117099062 938196991 1610085518
            913768311 -1091124141 1520491889</internalNodes>
          <leafValues>
            -3.0908241868019104e-01 4.2402327060699463e-01</leafValues></_>
        <_>
          <internalNodes>
            0 -1 3 -979695305 -1652445119 -1859119649 -1824366262
            -1843359340 25854154 689519083 1935373317</internalNodes>
          <leafValues>
            -4.3090245127677917e-01 2.9980701208114624e-01</leafValues></_>
        <_>
          <internalNodes>
            0 -1 100 1800908959 -1978515069 1342177371 -1617752053
            1648361728 -125648477 1099008680 654321806</internalNodes>
          <leafValues>
            -4.2581006884574890e-01 2.9812034964561462e-01</leafValues></_>
        <_>
          <internalNodes>
            0 -1 107 1314557491 1876922583 285769745 -1919024987
            1083314199 1518338217 42991763 2062065283</internalNodes>
          <leafValues>
            -4.2675536870956421e-01 3.1415945291519165e-01</leafValues></_>
        <_>
          <internalNodes>
            0 -1 153 -528303228 336035859 -1744252514 -1680813694
            -1987952511 151560195 -2130638464 -1395201840</internalNodes>
          <leafValues>
            -4.2867600917816162e-01 2.8840386867523193e-01</leafValues></_>
        <_>
          <internalNodes>
            0 -1 53 1799531459 -1971158712 -1878974346 1628475524
            151543044 -234847998 1837173316 -1170873627</internalNodes>
          <leafValues>
            -4.7897663712501526e-01 2.9046767950057983e-01</leafValues></_>
        <_>
          <internalNodes>
            0 -1 138 1096423052 -805276844 33575583 -727875469 595636258
            -268328423 -100471815 158320742</internalNodes>
          <leafValues>
            -4.4693732261657715e-01 3.1365051865577698e-01</leafValues></_>
        <_>
          <internalNodes>
            0 -1 136 1436128726 1573962181 -2147385296 -1755910008
            176160896 478150788 -498662717 -1131032287</internalNodes>
          <leafValues>
            -3.7236171960830688e-01 3.8918873667716980e-01</leafValues></_>
        <_>
          <internalNodes>
            0 -1 173 190619562 273887253 1367363712 274121044 563191897
            -1858862838 -1860729590 1145720798</internalNodes>
          <leafValues>
            -5.0467777252197266e-01 2.7171957492828369e-01</leafValues></_>
        <_>
          <internalNodes>
            0 -1 83 -653619090 487325705 -805076705 2038532383
            -2013232762 -1333657600 1208671390 1619090510</internalNodes>
          <leafValues>
            -4.6527063846588135e-01 3.0150479078292847e-01</leafValues></_></weakClassifiers></_></stages>
  <features>
    <_>
      <rect>
        0 0 7 6</rect></_>
    <_>
      <rect>
        0 0 11 3</rect></_>
    <_>
      <rect>
        0 1 7 5</rect></_>
    <_>
      <rect>
        0 1 8 4</rect></_>
    <_>
      <rect>
        0 1 10 6</rect></_>
    <_>
      <rect>
        0 2 6 4</rect></_>
    <_>
      <rect>
        0 3 7 2</rect></_>
    <_>
      <rect>
        0 3 14 2</rect></_>
    <_>
      <rect>
        0 4 5 5</rect></_>
    <_>
      <rect>
        0 10 11 2</rect></_>
    <_>
      <rect>
        0 11 7 3</rect></_>
    <_>
      <rect>
        0 11 13 3</rect></_>
    <_>
      <rect>
        0 14 12 2</rect></_>
    <_>
      <rect>
        1 0 15 6</rect></_>
    <_>
      <rect>
        1 2 10 4</rect></_>
    <_>
      <rect>
        1 3 11 4</rect></_>
    <_>
      <rect>
        1 5 13 3</rect></_>
    <_>
      <rect>
        1 8 10 3</rect></_>
    <_>
      <rect>
        1 8 12 2</rect></_>
    <_>
      <rect>
        1 11 6 2</rect></_>
    <_>
      <rect>
        1 11 7 3</rect></_>
    <_>
      <rect>
        1 13 12 2</rect></_>
    <_>
      <rect>
        2 1 10 5</rect></_>
    <_>
      <rect>
        2 8 9 3</rect></_>
    <_>
      <rect>
        3 0 10 3</rect></_>
    <_>
      <rect>
        3 0 12 2</rect></_>
    <_>
      <rect>
        3 7 9 3</rect></_>
    <_>
      <rect>
        3 8 11 3</rect></_>
    <_>
      <rect>
        4 2 5 4</rect></_>
    <_>
      <rect>
        4 4 8 3</rect></_>
    <_>
      <rect>
        4 7 9 4</rect></_>
    <_>
      <rect>
        5 1 14 3</rect></_>
    <_>
      <rect>
        5 2 9 6</rect></_>
    <_>
      <rect>
        5 4 10 4</rect></_>
    <_>
      <rect>
        6 1 14 2</rect></_>
    <_>
      <rect>
        6 4 9 2</rect></_>
    <_>
      <rect>
        6 5 4 2</rect></_>
    <_>
      <rect>
        6 8 7 2</rect></_>
    <_>
      <rect>
        7 1 2 1</rect></_>
    <_>
      <rect>
        7 1 7 4</rect></_>
    <_>
      <rect>
        7 10 7 2</rect></_>
    <_>
      <rect>
        8 0 7 5</rect></_>
    <_>
      <rect>
        8 1 13 3</rect></_>
    <_>
      <rect>
        8 9 6 3</rect></_>
    <_>
      <rect>
        9 2 1 1</rect></_>
    <_>
      <rect>
        9 2 5 4</rect></_>
    <_>
      <rect>
        9 9 6 2</rect></_>
    <_>
      <rect>
        10 5 11 3</rect></_>
    <_>
      <rect>
        11 0 9 3</rect></_>
    <_>
      <rect>
        11 1 11 3</rect></_>
    <_>
      <rect>
        11 3 7 5</rect></_>
    <_>
      <rect>
        11 8 4 3</rect></_>
    <_>
      <rect>
        11 10 3 2</rect></_>
    <_>
      <rect>
        11 11 4 2</rect></_>
    <_>
      <rect>
        12 0 8 3</rect></_>
    <_>
      <rect>
        12 3 5 3</rect></_>
    <_>
      <rect>
        12 7 7 2</rect></_>
    <_>
      <rect>
        12 8 9 3</rect></_>
    <_>
      <rect>
        12 10 3 2</rect></_>
    <_>
      <rect>
        12 16 1 1</rect></_>
    <_>
      <rect>
        12 17 1 1</rect></_>
    <_>
      <rect>
        13 2 7 6</rect></_>
    <_>
      <rect>
        13 4 9 2</rect></_>
    <_>
      <rect>
        13 7 7 3</rect></_>
    <_>
      <rect>
        13 10 12 2</rect></_>
    <_>
      <rect>
        14 0 8 2</rect></_>
    <_>
      <rect>
        14 0 12 3</rect></_>
    <_>
      <rect>
        14 2 6 2</rect></_>
    <_>
      <rect>
        14 2 7 1</rect></_>
    <_>
      <rect>
        14 3 7 2</rect></_>
    <_>
      <rect>
        14 4 6 3</rect></_>
    <_>
      <rect>
        14 4 7 3</rect></_>
    <_>
      <rect>
        14 6 5 2</rect></_>
    <_>
      <rect>
        14 8 11 4</rect></_>
    <_>
      <rect>
        15 0 6 5</rect></_>
    <_>
      <rect>
        15 1 7 2</rect></_>
    <_>
      <rect>
        15 1 8 4</rect></_>
    <_>
      <rect>
        15 8 5 3</rect></_>
    <_>
      <rect>
        15 10 11 3</rect></_>
    <_>
      <rect>
        16 2 7 4</rect></_>
    <_>
      <rect>
        16 4 5 3</rect></_>
    <_>
      <rect>
        16 5 10 4</rect></_>
    <_>
      <rect>
        16 6 4 2</rect></_>
    <_>
      <rect>
        16 8 5 2</rect></_>
    <_>
      <rect>
        16 8 11 2</rect></_>
    <_>
      <rect>
        16 12 4 1</rect></_>
    <_>
      <rect>
        17 1 11 4</rect></_>
    <_>
      <rect>
        17 2 11 6</rect></_>
    <_>
      <rect>
        17 4 6 3</rect></_>
    <_>
      <rect>
        17 5 6 2</rect></_>
    <_>
      <rect>
        17 7 7 3</rect></_>
    <_>
      <rect>
        17 7 11 4</rect></_>
    <_>
      <rect>
        17 11 10 2</rect></_>
    <_>
      <rect>
        17 12 10 1</rect></_>
    <_>
      <rect>
        17 14 7 2</rect></_>
    <_>
      <rect>
        18 8 1 1</rect></_>
    <_>
      <rect>
        18 8 4 2</rect></_>
    <_>
      <rect>
        18 9 3 2</rect></_>
    <_>
      <rect>
        18 9 5 2</rect></_>
    <_>
      <rect>
        18 16 1 1</rect></_>
    <_>
      <rect>
        19 0 7 3</rect></_>
    <_>
      <rect>
        19 4 10 3</rect></_>
    <_>
      <rect>
        19 7 6 2</rect></_>
    <_>
      <rect>
        19 7 10 4</rect></_>
    <_>
      <rect>
        19 8 1 1</rect></_>
    <_>
      <rect>
        19 8 10 4</rect></_>
    <_>
      <rect>
        19 12 3 1</rect></_>
    <_>
      <rect>
        19 12 5 2</rect></_>
    <_>
      <rect>
        19 14 8 2</rect></_>
    <_>
      <rect>
        20 6 4 2</rect></_>
    <_>
      <rect>
        20 8 1 1</rect></_>
    <_>
      <rect>
        20 10 1 1</rect></_>
    <_>
      <rect>
        20 17 1 1</rect></_>
    <_>
      <rect>
        21 4 9 3</rect></_>
    <_>
      <rect>
        21 7 5 2</rect></_>
    <_>
      <rect>
        21 8 1 1</rect></_>
    <_>
      <rect>
        21 8 7 4</rect></_>
    <_>
      <rect>
        21 9 4 2</rect></_>
    <_>
      <rect>
        21 12 4 1</rect></_>
    <_>
      <rect>
        22 2 9 6</rect></_>
    <_>
      <rect>
        22 5 7 2</rect></_>
    <_>
      <rect>
        22 7 6 3</rect></_>
    <_>
      <rect>
        22 8 1 1</rect></_>
    <_>
      <rect>
        22 8 2 2</rect></_>
    <_>
      <rect>
        22 8 3 2</rect></_>
    <_>
      <rect>
        22 8 8 3</rect></_>
    <_>
      <rect>
        23 2 7 4</rect></_>
    <_>
      <rect>
        23 2 9 4</rect></_>
    <_>
      <rect>
        23 8 6 3</rect></_>
    <_>
      <rect>
        23 9 1 1</rect></_>
    <_>
      <rect>
        24 2 7 5</rect></_>
    <_>
      <rect>
        24 7 4 2</rect></_>
    <_>
      <rect>
        24 7 4 3</rect></_>
    <_>
      <rect>
        24 8 1 1</rect></_>
    <_>
      <rect>
        24 8 2 1</rect></_>
    <_>
      <rect>
        24 9 6 2</rect></_>
    <_>
      <rect>
        24 10 3 2</rect></_>
    <_>
      <rect>
        24 13 8 2</rect></_>
    <_>
      <rect>
        25 0 5 5</rect></_>
    <_>
      <rect>
        25 3 7 3</rect></_>
    <_>
      <rect>
        25 4 4 3</rect></_>
    <_>
      <rect>
        25 9 1 1</rect></_>
    <_>
      <rect>
        25 12 2 1</rect></_>
    <_>
      <rect>
        26 0 1 1</rect></_>
    <_>
      <rect>
        26 0 5 6</rect></_>
    <_>
      <rect>
        26 0 8 3</rect></_>
    <_>
      <rect>
        26 0 8 4</rect></_>
    <_>
      <rect>
        26 2 1 1</rect></_>
    <_>
      <rect>
        26 7 4 2</rect></_>
    <_>
      <rect>
        26 9 8 3</rect></_>
    <_>
      <rect>
        26 10 1 1</rect></_>
    <_>
      <rect>
        26 11 3 2</rect></_>
    <_>
      <rect>
        27 2 4 6</rect></_>
    <_>
      <rect>
        27 10 1 1</rect></_>
    <_>
      <rect>
        28 0 7 3</rect></_>
    <_>
      <rect>
        28 0 7 4</rect></_>
    <_>
      <rect>
        28 7 1 1</rect></_>
    <_>
      <rect>
        28 8 2 1</rect></_>
    <_>
      <rect>
        28 8 5 2</rect></_>
    <_>
      <rect>
        28 9 1 1</rect></_>
    <_>
      <rect>
        29 0 7 5</rect></_>
    <_>
      <rect>
        29 1 6 5</rect></_>
    <_>
      <rect>
        29 3 7 3</rect></_>
    <_>
      <rect>
        29 3 7 4</rect></_>
    <_>
      <rect>
        29 5 1 1</rect></_>
    <_>
      <rect>
        29 6 2 1</rect></_>
    <_>
      <rect>
        29 9 1 1</rect></_>
    <_>
      <rect>
        29 10 4 3</rect></_>
    <_>
      <rect>
        29 12 2 1</rect></_>
    <_>
      <rect>
        29 17 1 1</rect></_>
    <_>
      <rect>
        30 8 3 2</rect></_>
    <_>
      <rect>
        31 10 3 2</rect></_>
    <_>
      <rect>
        31 16 1 1</rect></_>
    <_>
      <rect>
        32 1 6 5</rect></_>
    <_>
      <rect>
        32 4 2 2</rect></_>
    <_>
      <rect>
        32 7 1 1</rect></_>
    <_>
      <rect>
        33 8 2 2</rect></_>
    <_>
      <rect>
        34 17 1 1</rect></_>
    <_>
      <rect>
        35 5 5 4</rect></_>
    <_>
      <rect>
        35 5 5 5</rect></_>
    <_>
      <rect>
        35 6 1 1</rect></_>
    <_>
      <rect>
        36 7 1 1</rect></_>
    <_>
      <rect>
        36 8 1 1</rect></_>
    <_>
      <rect>
        40 1 3 6</rect></_></features></cascade>
</opencv_storage>
