<?xml version="1.0"?>
<opencv_storage>
<stage12>
  <maxWeakCount>9</maxWeakCount>
  <stageThreshold>-1.0442836284637451e+00</stageThreshold>
  <weakClassifiers>
    <_>
      <internalNodes>
        0 -1 23962 -1361051777 -1090715649 -557057 -1078067201
        -269008897 -1610616833 -17008689 -1359052993</internalNodes>
      <leafValues>
        -3.8721606135368347e-01 4.8148149251937866e-01</leafValues></_>
    <_>
      <internalNodes>
        0 -1 14523 -33748201 2105540607 268382002 -34734081 1333229495
        -1644331009 -92833867 -1107951626</internalNodes>
      <leafValues>
        -3.8789528608322144e-01 4.2651280760765076e-01</leafValues></_>
    <_>
      <internalNodes>
        0 -1 13264 9449992 -199895844 17420631 1108148557 2021781637
        -611680211 -347150127 1610721962</internalNodes>
      <leafValues>
        -5.0796490907669067e-01 3.1101691722869873e-01</leafValues></_>
    <_>
      <internalNodes>
        0 -1 836 -889205045 47594787 1828613247 2143057850 -1224802342
        -1775239306 -29577264 -1156579595</internalNodes>
      <leafValues>
        -3.0906867980957031e-01 4.8918887972831726e-01</leafValues></_>
    <_>
      <internalNodes>
        0 -1 41 482484411 -636436213 1074840153 1091518478 269032262
        55946 1149259899 1930187804</internalNodes>
      <leafValues>
        -5.8078706264495850e-01 2.5814816355705261e-01</leafValues></_>
    <_>
      <internalNodes>
        0 -1 1709 272788979 -1497182136 -1995865746 877316480 789080098
        -346011104 46723131 1124100890</internalNodes>
      <leafValues>
        -5.6327909231185913e-01 2.9142117500305176e-01</leafValues></_>
    <_>
      <internalNodes>
        0 -1 12654 2055346760 -833285687 8433731 -2078998503 704813104
        -367458255 134224385 1311492427</internalNodes>
      <leafValues>
        -4.5101511478424072e-01 3.4523570537567139e-01</leafValues></_>
    <_>
      <internalNodes>
        0 -1 11200 1778599878 -1655881478 -1862236776 1880114395
        -1199314793 -275709797 17402249 36807722</internalNodes>
      <leafValues>
        -5.4165571928024292e-01 2.6750990748405457e-01</leafValues></_>
    <_>
      <internalNodes>
        0 -1 17927 1006767288 -1329213382 288424139 489996688 403277329
        -1132100342 -1851930189 382914882</internalNodes>
      <leafValues>
        -6.1445367336273193e-01 3.0530419945716858e-01</leafValues></_></weakClassifiers></stage12>
</opencv_storage>
