<?xml version="1.0"?>
<opencv_storage>
<stage2>
  <maxWeakCount>7</maxWeakCount>
  <stageThreshold>-1.5483636856079102e+00</stageThreshold>
  <weakClassifiers>
    <_>
      <internalNodes>
        0 -1 19036 -178797364 -1726625774 17897939 -685292025 1510079139
        -1903484510 -2130589905 221236111</internalNodes>
      <leafValues>
        -6.3150686025619507e-01 4.6883118152618408e-01</leafValues></_>
    <_>
      <internalNodes>
        0 -1 5147 437800030 -774795053 -1858076225 -50134181 -1568059237
        -1860480984 1209123519 1604864895</internalNodes>
      <leafValues>
        -6.2651211023330688e-01 3.4856137633323669e-01</leafValues></_>
    <_>
      <internalNodes>
        0 -1 6458 -26216774 1898213166 -353452161 2037639015 2139060054
        -67797163 -34081025 -8423553</internalNodes>
      <leafValues>
        -4.1823664307594299e-01 4.6172609925270081e-01</leafValues></_>
    <_>
      <internalNodes>
        0 -1 21168 -1068859388 -1605238398 -2126511662 -1273737184
        147460 8945808 -528440624 -2132357600</internalNodes>
      <leafValues>
        -5.6506460905075073e-01 3.4116676449775696e-01</leafValues></_>
    <_>
      <internalNodes>
        0 -1 17595 672906032 596385034 152045400 1067024662 1745035784
        781090826 681740958 1070000842</internalNodes>
      <leafValues>
        -6.0434955358505249e-01 2.9189944267272949e-01</leafValues></_>
    <_>
      <internalNodes>
        0 -1 11006 2147204947 648003310 -285234342 2009890687 -25189803
        -1380139009 -138587140 -540206901</internalNodes>
      <leafValues>
        -3.2188543677330017e-01 5.7175105810165405e-01</leafValues></_>
    <_>
      <internalNodes>
        0 -1 14299 -1272719738 522310513 2147407743 -1757419792
        -215820382 -131737607 1815210154 -853285686</internalNodes>
      <leafValues>
        -3.7739551067352295e-01 4.9705258011817932e-01</leafValues></_></weakClassifiers></stage2>
</opencv_storage>
