<?xml version="1.0"?>
<opencv_storage>
<stage19>
  <maxWeakCount>13</maxWeakCount>
  <stageThreshold>-1.0751596689224243e+00</stageThreshold>
  <weakClassifiers>
    <_>
      <internalNodes>
        0 -1 3681 -1876700365 1484886934 -1786002987 1709789512
        2072512714 2057054219 1007220751 1404001167</internalNodes>
      <leafValues>
        -5.2775478363037109e-01 2.4372559785842896e-01</leafValues></_>
    <_>
      <internalNodes>
        0 -1 23978 752855359 160698432 1125220437 1023791111 1615011846
        -510885757 -1047876968 -1344537985</internalNodes>
      <leafValues>
        -3.7449473142623901e-01 3.6063310503959656e-01</leafValues></_>
    <_>
      <internalNodes>
        0 -1 20004 1867502747 -972308321 541135051 777095257 151172843
        1644363904 1124117003 1162072235</internalNodes>
      <leafValues>
        -3.5294979810714722e-01 4.0662840008735657e-01</leafValues></_>
    <_>
      <internalNodes>
        0 -1 1840 -318775057 539012652 117099062 938196991 1610085518
        913768311 -1091124141 1520491889</internalNodes>
      <leafValues>
        -3.0908241868019104e-01 4.2402327060699463e-01</leafValues></_>
    <_>
      <internalNodes>
        0 -1 141 -979695305 -1652445119 -1859119649 -1824366262
        -1843359340 25854154 689519083 1935373317</internalNodes>
      <leafValues>
        -4.3090245127677917e-01 2.9980701208114624e-01</leafValues></_>
    <_>
      <internalNodes>
        0 -1 15977 1800908959 -1978515069 1342177371 -1617752053
        1648361728 -125648477 1099008680 654321806</internalNodes>
      <leafValues>
        -4.2581006884574890e-01 2.9812034964561462e-01</leafValues></_>
    <_>
      <internalNodes>
        0 -1 16488 1314557491 1876922583 285769745 -1919024987
        1083314199 1518338217 42991763 2062065283</internalNodes>
      <leafValues>
        -4.2675536870956421e-01 3.1415945291519165e-01</leafValues></_>
    <_>
      <internalNodes>
        0 -1 20748 -528303228 336035859 -1744252514 -1680813694
        -1987952511 151560195 -2130638464 -1395201840</internalNodes>
      <leafValues>
        -4.2867600917816162e-01 2.8840386867523193e-01</leafValues></_>
    <_>
      <internalNodes>
        0 -1 10816 1799531459 -1971158712 -1878974346 1628475524
        151543044 -234847998 1837173316 -1170873627</internalNodes>
      <leafValues>
        -4.7897663712501526e-01 2.9046767950057983e-01</leafValues></_>
    <_>
      <internalNodes>
        0 -1 19432 1096423052 -805276844 33575583 -727875469 595636258
        -268328423 -100471815 158320742</internalNodes>
      <leafValues>
        -4.4693732261657715e-01 3.1365051865577698e-01</leafValues></_>
    <_>
      <internalNodes>
        0 -1 19291 1436128726 1573962181 -2147385296 -1755910008
        176160896 478150788 -498662717 -1131032287</internalNodes>
      <leafValues>
        -3.7236171960830688e-01 3.8918873667716980e-01</leafValues></_>
    <_>
      <internalNodes>
        0 -1 22561 190619562 273887253 1367363712 274121044 563191897
        -1858862838 -1860729590 1145720798</internalNodes>
      <leafValues>
        -5.0467777252197266e-01 2.7171957492828369e-01</leafValues></_>
    <_>
      <internalNodes>
        0 -1 14391 -653619090 487325705 -805076705 2038532383
        -2013232762 -1333657600 1208671390 1619090510</internalNodes>
      <leafValues>
        -4.6527063846588135e-01 3.0150479078292847e-01</leafValues></_></weakClassifiers></stage19>
</opencv_storage>
