<?xml version="1.0"?>
<opencv_storage>
<stage3>
  <maxWeakCount>9</maxWeakCount>
  <stageThreshold>-1.1358904838562012e+00</stageThreshold>
  <weakClassifiers>
    <_>
      <internalNodes>
        0 -1 2170 1599004667 -40521453 -938239781 1862599239 -657752017
        -913733591 -1928656658 2068934479</internalNodes>
      <leafValues>
        -5.4986876249313354e-01 4.3224930763244629e-01</leafValues></_>
    <_>
      <internalNodes>
        0 -1 21370 2105007959 1607986813 -630793 91356795 1056960439
        -1375830785 -1358984370 787458287</internalNodes>
      <leafValues>
        -4.2909145355224609e-01 4.6640759706497192e-01</leafValues></_>
    <_>
      <internalNodes>
        0 -1 17614 -933366058 386991502 285802876 1023971350 -1334639998
        144765063 -1471600387 283506751</internalNodes>
      <leafValues>
        -5.2492493391036987e-01 3.6590400338172913e-01</leafValues></_>
    <_>
      <internalNodes>
        0 -1 799 1335222526 -243220398 302072788 -803733296 -926398445
        1493184513 -1521578197 -1483708341</internalNodes>
      <leafValues>
        -4.7317108511924744e-01 3.9307752251625061e-01</leafValues></_>
    <_>
      <internalNodes>
        0 -1 12721 -1916042277 1796887706 1091719537 -49118966
        1090685292 -1450078069 -1761374880 -559643670</internalNodes>
      <leafValues>
        -4.4657564163208008e-01 3.8695681095123291e-01</leafValues></_>
    <_>
      <internalNodes>
        0 -1 14198 819167786 -1668234214 1107613877 -1085026082
        1075986967 -905822078 -2113174843 1359013962</internalNodes>
      <leafValues>
        -5.7499772310256958e-01 2.7527958154678345e-01</leafValues></_>
    <_>
      <internalNodes>
        0 -1 20323 1640803103 1058951426 -2122244067 -1659449322
        -1595207510 673775778 1403134718 -1461302330</internalNodes>
      <leafValues>
        -4.2716887593269348e-01 4.1934454441070557e-01</leafValues></_>
    <_>
      <internalNodes>
        0 -1 16216 -1881443055 -734269230 276910426 26042692 -939223766
        -1564893166 1283634058 151833403</internalNodes>
      <leafValues>
        -4.7726356983184814e-01 3.4864547848701477e-01</leafValues></_>
    <_>
      <internalNodes>
        0 -1 10690 1742679140 986714640 1444073808 1496848794 1671453006
        2060451984 1392531581 1575561453</internalNodes>
      <leafValues>
        -6.7498540878295898e-01 2.4148143827915192e-01</leafValues></_></weakClassifiers></stage3>
</opencv_storage>
