<?xml version="1.0"?>
<opencv_storage>
<stage11>
  <maxWeakCount>10</maxWeakCount>
  <stageThreshold>-1.0832026004791260e+00</stageThreshold>
  <weakClassifiers>
    <_>
      <internalNodes>
        0 -1 11903 -52561970 -268369385 1075921350 -908998365 -267656189
        -1063255036 -242252567 2119908310</internalNodes>
      <leafValues>
        -5.6341278553009033e-01 3.1371393799781799e-01</leafValues></_>
    <_>
      <internalNodes>
        0 -1 18165 -545522017 -1623195781 800915327 -37748993 -33644610
        -1358956548 -1208156178 -16842793</internalNodes>
      <leafValues>
        -2.9646205902099609e-01 5.7751339673995972e-01</leafValues></_>
    <_>
      <internalNodes>
        0 -1 12542 135002327 235987543 285774110 711418115 402891168
        -66910040 -352261504 992635291</internalNodes>
      <leafValues>
        -3.7498694658279419e-01 3.8450679183006287e-01</leafValues></_>
    <_>
      <internalNodes>
        0 -1 18480 -978110754 -1333346061 -938762078 -611647103
        -75594915 -1860037742 -292955949 1095223931</internalNodes>
      <leafValues>
        -3.8824647665023804e-01 4.0068942308425903e-01</leafValues></_>
    <_>
      <internalNodes>
        0 -1 2706 -1156403204 2081947800 -1858023024 -648359932
        1250052208 159910273 419555983 1581287528</internalNodes>
      <leafValues>
        -5.8479684591293335e-01 2.5083711743354797e-01</leafValues></_>
    <_>
      <internalNodes>
        0 -1 17189 -109055525 -518585910 1627455690 104976467 -855514753
        -938983293 18043172 1230722283</internalNodes>
      <leafValues>
        -3.8684201240539551e-01 4.3237087130546570e-01</leafValues></_>
    <_>
      <internalNodes>
        0 -1 13009 2034627861 705712260 352493023 59935177 411058952
        -88358686 1610630264 48925831</internalNodes>
      <leafValues>
        -5.1803469657897949e-01 3.0520281195640564e-01</leafValues></_>
    <_>
      <internalNodes>
        0 -1 15732 -1006432826 -686731248 1073877149 -640497141
        -1071644542 -1909519990 671830218 1543590234</internalNodes>
      <leafValues>
        -5.0256896018981934e-01 2.8824803233146667e-01</leafValues></_>
    <_>
      <internalNodes>
        0 -1 21112 -1377368715 -1111687172 -65 -53385 1744666101
        -33685505 -557982537 -1497162187</internalNodes>
      <leafValues>
        -3.6014211177825928e-01 4.3623641133308411e-01</leafValues></_>
    <_>
      <internalNodes>
        0 -1 19363 2129524579 1886224241 -1359057339 -1355366431
        2147401701 -1350565897 -289671262 -1250023434</internalNodes>
      <leafValues>
        -3.2245343923568726e-01 4.7429606318473816e-01</leafValues></_></weakClassifiers></stage11>
</opencv_storage>
