<?xml version="1.0"?>
<opencv_storage>
<stage13>
  <maxWeakCount>11</maxWeakCount>
  <stageThreshold>-1.2419022321701050e+00</stageThreshold>
  <weakClassifiers>
    <_>
      <internalNodes>
        0 -1 15228 -205 1064271695 -1073758217 -1342242889 1040187333
        -425993 -16781316 -1074790913</internalNodes>
      <leafValues>
        -3.7927350401878357e-01 4.5212766528129578e-01</leafValues></_>
    <_>
      <internalNodes>
        0 -1 6022 2046841552 337530905 269488144 -1340437489 -1733785168
        -1602219895 -888602368 -838243553</internalNodes>
      <leafValues>
        -4.6519926190376282e-01 3.3494403958320618e-01</leafValues></_>
    <_>
      <internalNodes>
        0 -1 22479 -104991821 -598609679 37769479 792826138 -784078269
        1358954651 1107444071 5103695</internalNodes>
      <leafValues>
        -4.1519397497177124e-01 3.4998127818107605e-01</leafValues></_>
    <_>
      <internalNodes>
        0 -1 19953 1755631803 -1748937587 -2096605874 404455637
        -1514442544 -175471934 34208138 552792046</internalNodes>
      <leafValues>
        -4.4465869665145874e-01 3.2460218667984009e-01</leafValues></_>
    <_>
      <internalNodes>
        0 -1 21609 -997719292 545427985 -2088070224 -998080226 84512
        696488067 -2136460752 -1599190428</internalNodes>
      <leafValues>
        -5.9566086530685425e-01 2.6544839143753052e-01</leafValues></_>
    <_>
      <internalNodes>
        0 -1 18144 -511126954 1443203138 -1023110502 923029504
        1212837932 -2074998266 1627928744 134556586</internalNodes>
      <leafValues>
        -5.9661853313446045e-01 2.1128454804420471e-01</leafValues></_>
    <_>
      <internalNodes>
        0 -1 6831 -1227228207 1827520191 -293725389 804880111 401598363
        -1879212051 1472951822 528954443</internalNodes>
      <leafValues>
        -3.4923976659774780e-01 4.3559738993644714e-01</leafValues></_>
    <_>
      <internalNodes>
        0 -1 16349 76744964 1074794512 -2130685951 -99483648 -134209440
        54526089 -2087009911 -2136308960</internalNodes>
      <leafValues>
        -5.3047138452529907e-01 3.1110158562660217e-01</leafValues></_>
    <_>
      <internalNodes>
        0 -1 10774 2036173546 -800423659 4194398 -1847685038 1078528131
        2055372802 -394179863 -1160787854</internalNodes>
      <leafValues>
        -4.2734026908874512e-01 3.4423226118087769e-01</leafValues></_>
    <_>
      <internalNodes>
        0 -1 392 88091823 -368459432 1074316759 1142579418 1224933538
        -2113925120 1099333936 1540267688</internalNodes>
      <leafValues>
        -4.8274335265159607e-01 3.0019438266754150e-01</leafValues></_>
    <_>
      <internalNodes>
        0 -1 15766 -267972124 -233664256 -2145380904 -1623195638
        1074014448 1814775808 -528413991 1573206208</internalNodes>
      <leafValues>
        -5.7685685157775879e-01 2.6441931724548340e-01</leafValues></_></weakClassifiers></stage13>
</opencv_storage>
