<?xml version="1.0"?>
<opencv_storage>
<stage18>
  <maxWeakCount>11</maxWeakCount>
  <stageThreshold>-9.3384575843811035e-01</stageThreshold>
  <weakClassifiers>
    <_>
      <internalNodes>
        0 -1 17691 1230045435 500744534 -2130639610 1023822367 411238587
        297044144 -1115096701 -19801445</internalNodes>
      <leafValues>
        -4.7455090284347534e-01 2.6081731915473938e-01</leafValues></_>
    <_>
      <internalNodes>
        0 -1 12887 1795412067 -215960719 -118497347 -1255021007
        -91032384 -401386512 -298586454 -1978412358</internalNodes>
      <leafValues>
        -3.1555554270744324e-01 4.1826999187469482e-01</leafValues></_>
    <_>
      <internalNodes>
        0 -1 15919 -109320449 -1636892737 -827392207 -1434714587
        1568145405 -1217167492 1979676531 68386687</internalNodes>
      <leafValues>
        -3.5051685571670532e-01 3.6715090274810791e-01</leafValues></_>
    <_>
      <internalNodes>
        0 -1 21674 1166281017 1028450689 -1856860008 638977038 555229600
        1082691744 -509013996 -270226758</internalNodes>
      <leafValues>
        -4.9025058746337891e-01 2.7529340982437134e-01</leafValues></_>
    <_>
      <internalNodes>
        0 -1 4559 1363202038 1442859224 -1056652844 1427161486
        -125214524 -91750260 -1845448517 1328077227</internalNodes>
      <leafValues>
        -4.1254031658172607e-01 3.2432022690773010e-01</leafValues></_>
    <_>
      <internalNodes>
        0 -1 21157 1232421276 84251408 1342210298 2043969602 -1054744439
        12192057 -637357842 -873870631</internalNodes>
      <leafValues>
        -4.6347346901893616e-01 3.0282562971115112e-01</leafValues></_>
    <_>
      <internalNodes>
        0 -1 22713 615888685 176460160 -1862184812 -1748528811 12648549
        981631368 1837459518 -1565242799</internalNodes>
      <leafValues>
        -4.9357336759567261e-01 2.6106190681457520e-01</leafValues></_>
    <_>
      <internalNodes>
        0 -1 12649 -218144575 2029858719 2130657271 -273891605
        -838861871 -708972563 939112865 -1125012273</internalNodes>
      <leafValues>
        -2.9097101092338562e-01 4.4207745790481567e-01</leafValues></_>
    <_>
      <internalNodes>
        0 -1 951 -1965079985 1649086597 -796916630 1513099279 -502611209
        -184020982 537434816 -1163161400</internalNodes>
      <leafValues>
        -3.6682412028312683e-01 3.6652579903602600e-01</leafValues></_>
    <_>
      <internalNodes>
        0 -1 16912 2044911630 -1262945174 -134487043 1604446262 -238771
        1576304509 744530877 -875828210</internalNodes>
      <leafValues>
        -3.3131474256515503e-01 4.2349246144294739e-01</leafValues></_>
    <_>
      <internalNodes>
        0 -1 18140 -925498108 1547899206 2331994 356057170 1208091011
        1208156299 -2142755154 222627968</internalNodes>
      <leafValues>
        -6.3276380300521851e-01 2.2669582068920135e-01</leafValues></_></weakClassifiers></stage18>
</opencv_storage>
