<?xml version="1.0"?>
<opencv_storage>
<stage16>
  <maxWeakCount>10</maxWeakCount>
  <stageThreshold>-1.0856623649597168e+00</stageThreshold>
  <weakClassifiers>
    <_>
      <internalNodes>
        0 -1 7432 -792604194 1536250243 -855570414 -174647652 1481185465
        1922768904 -905646965 -374342069</internalNodes>
      <leafValues>
        -4.4621026515960693e-01 3.8856303691864014e-01</leafValues></_>
    <_>
      <internalNodes>
        0 -1 13333 1242500565 -1308622638 -2013265420 -468401829
        -242304748 -645799430 -364843003 -1113224503</internalNodes>
      <leafValues>
        -4.4137865304946899e-01 3.5067597031593323e-01</leafValues></_>
    <_>
      <internalNodes>
        0 -1 17549 -117519826 -151736850 1013983993 -570710386
        1291100885 -831112120 -2030596965 -1435252515</internalNodes>
      <leafValues>
        -3.5863855481147766e-01 4.0497460961341858e-01</leafValues></_>
    <_>
      <internalNodes>
        0 -1 19908 -14166049 -449183937 1853841366 1294689367
        -1074290850 1567555447 1581595963 1415043071</internalNodes>
      <leafValues>
        -3.4588757157325745e-01 4.0284657478332520e-01</leafValues></_>
    <_>
      <internalNodes>
        0 -1 19605 1611781100 -687816573 830505297 361759246 -492765175
        -243236727 1612902907 1157827584</internalNodes>
      <leafValues>
        -4.4893658161163330e-01 3.2875266671180725e-01</leafValues></_>
    <_>
      <internalNodes>
        0 -1 23663 2080324403 1571946460 2141142816 1369501496
        1593113899 1022853119 -1207975945 -287121472</internalNodes>
      <leafValues>
        -3.5160127282142639e-01 4.3267968297004700e-01</leafValues></_>
    <_>
      <internalNodes>
        0 -1 15066 2147417957 -1153581061 -1359151121 922484735
        1073709051 -1661059201 1065320184 741986292</internalNodes>
      <leafValues>
        -3.5834267735481262e-01 4.1012823581695557e-01</leafValues></_>
    <_>
      <internalNodes>
        0 -1 4351 1743351471 -5505414 -67603 -336861457 -276832257
        2146170879 -277119633 -629681541</internalNodes>
      <leafValues>
        -3.7518078088760376e-01 3.9948293566703796e-01</leafValues></_>
    <_>
      <internalNodes>
        0 -1 21990 1574925092 142792522 -787377960 -1959641072 411058176
        520244751 -1995853512 1306352494</internalNodes>
      <leafValues>
        -6.0757589340209961e-01 2.5567290186882019e-01</leafValues></_>
    <_>
      <internalNodes>
        0 -1 17568 -924446185 135925889 -2130579111 -1793945597
        1491632356 1518567424 -2113730415 -1534445504</internalNodes>
      <leafValues>
        -4.7369447350502014e-01 3.1180825829505920e-01</leafValues></_></weakClassifiers></stage16>
</opencv_storage>
