<?xml version="1.0"?>
<opencv_storage>
<stage8>
  <maxWeakCount>9</maxWeakCount>
  <stageThreshold>-1.4581552743911743e+00</stageThreshold>
  <weakClassifiers>
    <_>
      <internalNodes>
        0 -1 11488 1863293175 1603110926 792799 500285783 1115790986
        964882560 -198575974 2139738589</internalNodes>
      <leafValues>
        -5.4271036386489868e-01 4.4698545336723328e-01</leafValues></_>
    <_>
      <internalNodes>
        0 -1 7781 -585109483 424116609 -1056763636 475534748 -763275024
        -1425440760 -897430991 1242041099</internalNodes>
      <leafValues>
        -4.5528063178062439e-01 4.0885266661643982e-01</leafValues></_>
    <_>
      <internalNodes>
        0 -1 4176 -185861413 -18092190 -1895858325 -4755968 348110843
        -1094713379 1553166173 -579633281</internalNodes>
      <leafValues>
        -3.1311017274856567e-01 5.5142885446548462e-01</leafValues></_>
    <_>
      <internalNodes>
        0 -1 19276 -761866926 264655379 335545351 -1140551413
        -2012675992 26214537 -1998012100 1000788474</internalNodes>
      <leafValues>
        -5.0645577907562256e-01 3.2470566034317017e-01</leafValues></_>
    <_>
      <internalNodes>
        0 -1 19838 2147434495 1068810239 -8393282 -1644384337 1610465237
        1073512447 -1090568195 -1367885825</internalNodes>
      <leafValues>
        -3.5392752289772034e-01 4.8760938644409180e-01</leafValues></_>
    <_>
      <internalNodes>
        0 -1 16330 1946153584 -613103699 2088089851 -42875687 1560253396
        -488184208 -1795258741 -1075334183</internalNodes>
      <leafValues>
        -3.0018234252929688e-01 5.8525013923645020e-01</leafValues></_>
    <_>
      <internalNodes>
        0 -1 3080 1775370449 -880672703 1141023762 -1362193400 436895975
        -469630848 1854087489 1830832282</internalNodes>
      <leafValues>
        -5.6087666749954224e-01 3.1484648585319519e-01</leafValues></_>
    <_>
      <internalNodes>
        0 -1 15267 -195870974 1149374464 1142031474 -1675771839
        176892224 -490438526 195290180 -946194083</internalNodes>
      <leafValues>
        -4.8188266158103943e-01 3.5307559370994568e-01</leafValues></_>
    <_>
      <internalNodes>
        0 -1 1097 1573992142 -1865887663 1342210444 1342279809
        -1736408553 -1971290106 -2121884833 1724775318</internalNodes>
      <leafValues>
        -5.3197932243347168e-01 3.4938627481460571e-01</leafValues></_></weakClassifiers></stage8>
</opencv_storage>
