<?xml version="1.0"?>
<opencv_storage>
<stage14>
  <maxWeakCount>11</maxWeakCount>
  <stageThreshold>-1.2743687629699707e+00</stageThreshold>
  <weakClassifiers>
    <_>
      <internalNodes>
        0 -1 155 830402702 -804011319 4441375 -1588916775 -2089621429
        -2146774968 -2134148549 2130726132</internalNodes>
      <leafValues>
        -6.2408757209777832e-01 2.5420168042182922e-01</leafValues></_>
    <_>
      <internalNodes>
        0 -1 23664 -552623553 408125827 88166871 -1243450929 1850439311
        -394256237 -99644995 -1462744783</internalNodes>
      <leafValues>
        -4.7901558876037598e-01 3.6112049221992493e-01</leafValues></_>
    <_>
      <internalNodes>
        0 -1 8270 -875967530 834703450 -805300202 1392513052 1853966352
        -134004606 -1198728653 -20460754</internalNodes>
      <leafValues>
        -4.5169660449028015e-01 3.4322208166122437e-01</leafValues></_>
    <_>
      <internalNodes>
        0 -1 11694 -548539417 -1824185333 16859547 608583685 -922685013
        131073 1480708809 74781557</internalNodes>
      <leafValues>
        -4.3450474739074707e-01 3.6080798506736755e-01</leafValues></_>
    <_>
      <internalNodes>
        0 -1 23079 1154415360 59425154 -784219650 1603682372 813931012
        1116416450 -754284318 -1010570448</internalNodes>
      <leafValues>
        -4.5177879929542542e-01 3.3555215597152710e-01</leafValues></_>
    <_>
      <internalNodes>
        0 -1 319 1103448071 -1047788888 219514199 -847100862 134295801
        -2002124552 8552565 -1075838350</internalNodes>
      <leafValues>
        -5.2174526453018188e-01 2.7558296918869019e-01</leafValues></_>
    <_>
      <internalNodes>
        0 -1 18724 -1403681612 -1928040102 17323458 -1715122027
        -1559517110 8945672 157542910 -1532009550</internalNodes>
      <leafValues>
        -4.8020482063293457e-01 3.5002812743186951e-01</leafValues></_>
    <_>
      <internalNodes>
        0 -1 23662 844601634 1167147544 1074942209 1410334742 1208277531
        -1975107446 -1341685374 -51770396</internalNodes>
      <leafValues>
        -4.0146094560623169e-01 3.9409261941909790e-01</leafValues></_>
    <_>
      <internalNodes>
        0 -1 5084 491197428 676417609 1426067742 -2042478123 -1719008203
        -519503701 -846712768 168329996</internalNodes>
      <leafValues>
        -5.5190885066986084e-01 2.8479444980621338e-01</leafValues></_>
    <_>
      <internalNodes>
        0 -1 16979 -2098429103 -1330626390 -2138849271 -1297334256
        -670887887 -1404763776 -632696127 -1397779232</internalNodes>
      <leafValues>
        -4.3859359622001648e-01 3.5294374823570251e-01</leafValues></_>
    <_>
      <internalNodes>
        0 -1 9740 1351603128 1141309466 -1795157289 -1147633651
        -1996258426 -670971893 1216989447 1074363091</internalNodes>
      <leafValues>
        -5.2478706836700439e-01 3.1104815006256104e-01</leafValues></_></weakClassifiers></stage14>
</opencv_storage>
