<?xml version="1.0"?>
<opencv_storage>
<stage10>
  <maxWeakCount>10</maxWeakCount>
  <stageThreshold>-1.3021305799484253e+00</stageThreshold>
  <weakClassifiers>
    <_>
      <internalNodes>
        0 -1 12035 1591721663 -1679364113 1006572543 -206866694 -131075
        -3145731 -14114 453552872</internalNodes>
      <leafValues>
        -4.4608399271965027e-01 4.7334411740303040e-01</leafValues></_>
    <_>
      <internalNodes>
        0 -1 8688 -452229631 2069206299 -1067409377 1296908703
        -1878994786 -376831981 -800144645 712463130</internalNodes>
      <leafValues>
        -4.5493066310882568e-01 4.2916455864906311e-01</leafValues></_>
    <_>
      <internalNodes>
        0 -1 16483 2080321407 2122117119 -1090552262 -1107361794
        2138406807 -17006721 -1082689636 -554303489</internalNodes>
      <leafValues>
        -3.8872134685516357e-01 4.3392112851142883e-01</leafValues></_>
    <_>
      <internalNodes>
        0 -1 21453 1058406947 353863815 1640777 553771013 -502724543
        1384583336 58827276 198068778</internalNodes>
      <leafValues>
        -5.2051454782485962e-01 2.9876899719238281e-01</leafValues></_>
    <_>
      <internalNodes>
        0 -1 19952 1342165198 754925180 -17039439 -1158943185 -235209540
        2138800127 -109587792 1799088570</internalNodes>
      <leafValues>
        -3.7066695094108582e-01 4.7624272108078003e-01</leafValues></_>
    <_>
      <internalNodes>
        0 -1 20217 1172044032 1259389172 -2129540796 1459884032 840
        151027714 248014 1602689208</internalNodes>
      <leafValues>
        -5.2700585126876831e-01 2.8857818245887756e-01</leafValues></_>
    <_>
      <internalNodes>
        0 -1 11545 -33690689 1996238604 2147430395 -352915466 886390778
        1190952831 -237595 -570687500</internalNodes>
      <leafValues>
        -3.2165619730949402e-01 5.1223337650299072e-01</leafValues></_>
    <_>
      <internalNodes>
        0 -1 15719 599496214 814780817 -2053111716 10129488 1627390228
        1568669704 -2134326280 -1532876744</internalNodes>
      <leafValues>
        -5.5036520957946777e-01 2.7525442838668823e-01</leafValues></_>
    <_>
      <internalNodes>
        0 -1 12517 -949005827 1108541570 1091043699 1746551817
        -779530192 -1593802622 1099514721 1831680712</internalNodes>
      <leafValues>
        -4.4330388307571411e-01 3.6994248628616333e-01</leafValues></_>
    <_>
      <internalNodes>
        0 -1 16388 226790416 755810449 79151 88133829 -1073536871
        436600841 1761711284 684561314</internalNodes>
      <leafValues>
        -6.7785489559173584e-01 2.5236096978187561e-01</leafValues></_></weakClassifiers></stage10>
</opencv_storage>
