<?xml version="1.0"?>
<opencv_storage>
<stage7>
  <maxWeakCount>10</maxWeakCount>
  <stageThreshold>-1.1591446399688721e+00</stageThreshold>
  <weakClassifiers>
    <_>
      <internalNodes>
        0 -1 18492 -50332067 -41943321 -1 -536879105 -16789521
        -570425378 -1744875633 -828379777</internalNodes>
      <leafValues>
        -3.8393297791481018e-01 5.9629249572753906e-01</leafValues></_>
    <_>
      <internalNodes>
        0 -1 136 2090024431 1962967051 289571161 -549117940 1912809979
        -2004092773 268453961 -9470628</internalNodes>
      <leafValues>
        -4.0726187825202942e-01 4.4268676638603210e-01</leafValues></_>
    <_>
      <internalNodes>
        0 -1 19228 -1541398268 -1262451708 -250539758 -582608896
        -1874079744 -2004238143 -2004236048 -529872864</internalNodes>
      <leafValues>
        -5.1879990100860596e-01 3.4932538866996765e-01</leafValues></_>
    <_>
      <internalNodes>
        0 -1 13790 1583087377 252861776 -1593622501 756367438 302172253
        -1141698141 -2147372940 -20257669</internalNodes>
      <leafValues>
        -4.7376546263694763e-01 3.6347222328186035e-01</leafValues></_>
    <_>
      <internalNodes>
        0 -1 21529 -679499217 934277111 -2187 -1082655455 -17352713
        -554238081 -335655368 -1499315184</internalNodes>
      <leafValues>
        -3.9552098512649536e-01 4.6451887488365173e-01</leafValues></_>
    <_>
      <internalNodes>
        0 -1 62 -909428879 -863633328 1107403394 -1836302314 -2012575517
        1804435600 -401907194 1815806238</internalNodes>
      <leafValues>
        -4.5513084530830383e-01 3.5130017995834351e-01</leafValues></_>
    <_>
      <internalNodes>
        0 -1 14896 -1310635290 -260892657 -151074819 -1577347925
        -218219527 -218778722 1584806095 -844788054</internalNodes>
      <leafValues>
        -3.4019252657890320e-01 4.9178180098533630e-01</leafValues></_>
    <_>
      <internalNodes>
        0 -1 14813 386266904 415978176 92327942 -1513897776 1241974202
        -1128267120 411243019 1054623986</internalNodes>
      <leafValues>
        -6.2197029590606689e-01 2.7811768651008606e-01</leafValues></_>
    <_>
      <internalNodes>
        0 -1 10193 -891906591 -1315957119 1376866455 -1233119471
        -519880479 -1467383672 -2130074823 -176126838</internalNodes>
      <leafValues>
        -4.5344531536102295e-01 3.8119015097618103e-01</leafValues></_>
    <_>
      <internalNodes>
        0 -1 17049 1658757478 -2003206059 -1073020847 -955809426
        268578883 604602402 -1062717352 -134860446</internalNodes>
      <leafValues>
        -4.6333724260330200e-01 3.6162373423576355e-01</leafValues></_></weakClassifiers></stage7>
</opencv_storage>
