<?xml version="1.0"?>
<opencv_storage>
<stage9>
  <maxWeakCount>7</maxWeakCount>
  <stageThreshold>-8.4183889627456665e-01</stageThreshold>
  <weakClassifiers>
    <_>
      <internalNodes>
        0 -1 6864 -269766933 -4202505 2147483639 -8655754 -270537729
        -41943041 -8519685 -366744989</internalNodes>
      <leafValues>
        -4.5685839653015137e-01 5.2516776323318481e-01</leafValues></_>
    <_>
      <internalNodes>
        0 -1 19580 -334705545 1574109456 369213651 361333009 -395171103
        526057571 1652619484 1143728927</internalNodes>
      <leafValues>
        -4.6252259612083435e-01 4.3284207582473755e-01</leafValues></_>
    <_>
      <internalNodes>
        0 -1 19764 -335404288 -227376634 -2145925826 -11370488
        -534544368 -524123893 -384176032 -1599061440</internalNodes>
      <leafValues>
        -5.5767178535461426e-01 3.2533416152000427e-01</leafValues></_>
    <_>
      <internalNodes>
        0 -1 20291 521402643 169000961 -1744545661 -552316471 620889232
        -1417672558 -1054698244 -898532989</internalNodes>
      <leafValues>
        -4.5525878667831421e-01 3.6890670657157898e-01</leafValues></_>
    <_>
      <internalNodes>
        0 -1 18135 -1608882428 71315819 -1849077673 -1271889856
        268527809 -134151680 -1193670367 -1594692864</internalNodes>
      <leafValues>
        -5.4352825880050659e-01 3.2251632213592529e-01</leafValues></_>
    <_>
      <internalNodes>
        0 -1 11706 2074072015 -1055235623 -1860779561 68829190
        -531922783 1904312330 1744867587 1399968595</internalNodes>
      <leafValues>
        -5.3967142105102539e-01 3.3328625559806824e-01</leafValues></_>
    <_>
      <internalNodes>
        0 -1 1844 1737484523 844512612 -1434571139 -1078626394 249460434
        -1616396291 -298410156 -133628186</internalNodes>
      <leafValues>
        -3.6730545759201050e-01 4.8346227407455444e-01</leafValues></_></weakClassifiers></stage9>
</opencv_storage>
