<?xml version="1.0"?>
<opencv_storage>
<stage18>
  <maxWeakCount>7</maxWeakCount>
  <stageThreshold>-1.5123500823974609e+00</stageThreshold>
  <weakClassifiers>
    <_>
      <internalNodes>
        0 -1 8574 1304576959 -1438318074 17850327 -659525538 -125228241
        1787036211 -2090497213 -641670518</internalNodes>
      <leafValues>
        -6.2573099136352539e-01 3.1552588939666748e-01</leafValues></_>
    <_>
      <internalNodes>
        0 -1 21482 -515921626 93016131 -2063592298 -1852731053
        1090826909 -2140471247 -1149136610 1229451939</internalNodes>
      <leafValues>
        -5.9074658155441284e-01 3.9972922205924988e-01</leafValues></_>
    <_>
      <internalNodes>
        0 -1 312 265792287 -48397413 809974577 -648936950 1711321140
        -1593077503 -1743604400 -110297784</internalNodes>
      <leafValues>
        -4.8105627298355103e-01 5.3454244136810303e-01</leafValues></_>
    <_>
      <internalNodes>
        0 -1 4619 856777462 1090683136 -1005492942 991011002 -1878505557
        -1388642134 -521902650 -82226694</internalNodes>
      <leafValues>
        -5.2111822366714478e-01 4.7700592875480652e-01</leafValues></_>
    <_>
      <internalNodes>
        0 -1 11329 -252015365 1823865072 -70930 -236668956 -453451818
        -522651404 -9043974 -76546754</internalNodes>
      <leafValues>
        -4.1748785972595215e-01 6.2438863515853882e-01</leafValues></_>
    <_>
      <internalNodes>
        0 -1 20292 1078104262 -250019648 -1337978880 -1879044082
        -1333788032 134348800 -1333747416 -1097646054</internalNodes>
      <leafValues>
        -4.2927712202072144e-01 6.1970436573028564e-01</leafValues></_>
    <_>
      <internalNodes>
        0 -1 17954 1610583863 -1140916244 1878982323 -463106 1333766014
        1071611774 -125522 1801385038</internalNodes>
      <leafValues>
        -4.9974733591079712e-01 5.6259113550186157e-01</leafValues></_></weakClassifiers></stage18>
</opencv_storage>
